
//<![CDATA[

// a few things don't have var in front of them - they update already existing variables the game needs
lanesSide = 2;
patchesAhead = 10;
patchesBehind = 0;
trainIterations = 10000;

// the number of other autonomous vehicles controlled by your network
otherAgents = 0; // max of 10

var num_inputs = (lanesSide * 2 + 1) * (patchesAhead + patchesBehind);
var num_actions = 5;
var temporal_window = 3;
var network_size = num_inputs * temporal_window + num_actions * temporal_window + num_inputs;

var layer_defs = [];
    layer_defs.push({
    type: 'input',
    out_sx: 1,
    out_sy: 1,
    out_depth: network_size
});
layer_defs.push({
    type: 'fc',
    num_neurons: 5,
    activation: 'relu'
});
layer_defs.push({
    type: 'regression',
    num_neurons: num_actions
});

var tdtrainer_options = {
    learning_rate: 0.001,
    momentum: 0.0,
    batch_size: 64,
    l2_decay: 0.01
};

var opt = {};
opt.temporal_window = temporal_window;
opt.experience_size = 3000;
opt.start_learn_threshold = 500;
opt.gamma = 0.7;
opt.learning_steps_total = 10000;
opt.learning_steps_burnin = 1000;
opt.epsilon_min = 0.0;
opt.epsilon_test_time = 0.0;
opt.layer_defs = layer_defs;
opt.tdtrainer_options = tdtrainer_options;

brain = new deepqlearn.Brain(num_inputs, num_actions, opt);

learn = function (state, lastReward) {
brain.backward(lastReward);
var action = brain.forward(state);

draw_net();
draw_stats();

return action;
}

//]]>

/*###########*/
if (brain) {
brain.value_net.fromJSON({"layers":[{"out_depth":215,"out_sx":1,"out_sy":1,"layer_type":"input"},{"out_depth":5,"out_sx":1,"out_sy":1,"layer_type":"fc","num_inputs":215,"l1_decay_mul":0,"l2_decay_mul":1,"filters":[{"sx":1,"sy":1,"depth":215,"w":{"0":0.02881214901739763,"1":0.04762510596146844,"2":0.297684911439327,"3":0.04245561907079563,"4":-0.04880296410041528,"5":-0.002363484173217129,"6":0.15472975380124307,"7":0.37202203474712364,"8":0.0875418416219422,"9":-0.003685758512277907,"10":0.05399128536282043,"11":0.0070633010124755155,"12":0.3487543406939443,"13":0.2297715340912769,"14":0.05317920122872662,"15":0.015485644724149747,"16":0.10335646541666758,"17":0.7064628899748685,"18":0.14163259174565063,"19":0.07014795383994996,"20":-0.11978677482837514,"21":0.1300228358643547,"22":0.9020628388744367,"23":0.15484814637508193,"24":-0.002112002159777991,"25":-0.028261215245418157,"26":-0.007854377346643723,"27":0.7720715275838649,"28":0.09078971756781973,"29":-0.07323287850394625,"30":0.06911662455449344,"31":-0.16286547516961422,"32":0.7400171533416939,"33":0.1721192883348791,"34":0.042519167935158364,"35":-0.011719424655952139,"36":0.05381603826401824,"37":0.047160191680906544,"38":0.10569076299490332,"39":0.10648647275065654,"40":-0.09206123575967015,"41":0.0973078460114951,"42":0.043861050074747485,"43":0.14895425623992445,"44":-0.007921909482774119,"45":-0.02877189647577632,"46":0.18864137672883402,"47":-0.029933784370803986,"48":0.14134674556291496,"49":-0.01912053872012197,"50":0.04595768954869825,"51":0.16174317340499758,"52":0.271520230918039,"53":-0.03077116504218042,"54":-0.10344416309648424,"55":-0.04900280394621017,"56":0.03724899792386264,"57":0.15622986895340815,"58":-0.033824574777829644,"59":0.10283521974420386,"60":-0.010668716129165152,"61":0.01740134054933305,"62":0.01122577190673717,"63":0.028605805982966,"64":0.011744758109356794,"65":-0.050488479593004176,"66":0.06692644346715484,"67":0.17567108214666985,"68":0.037329436546683734,"69":-0.03816070453810431,"70":0.07613391748087688,"71":0.10947741743619473,"72":0.15675167675727608,"73":0.11891038638671937,"74":0.08884802040855785,"75":0.06994169979823493,"76":-0.004694196247740661,"77":0.08615433105413987,"78":0.12500813515719264,"79":-0.11784844606213817,"80":-0.009021725516829464,"81":-0.00042297055333374276,"82":0.1611820212901043,"83":0.06342053421976329,"84":0.04908560290371672,"85":-0.023846588691871843,"86":0.09450852271366499,"87":0.0761403741907586,"88":0.16588446409700525,"89":-0.029179313589302848,"90":0.02823418195227974,"91":-0.0478671746274053,"92":0.03827042015113614,"93":0.14666752841122732,"94":-0.03583599683948673,"95":-0.0824348211902793,"96":0.17026391629112497,"97":0.10282124495103839,"98":0.1257337866662417,"99":0.0073459103153571716,"100":-0.026577474015608685,"101":-0.02863826715451189,"102":-0.030393171521530763,"103":-0.0304288125591712,"104":-0.02916206028608101,"105":-0.04484123249067405,"106":0.12023370116920933,"107":0.06203809975698531,"108":-0.01932491792998574,"109":-0.026052718249940546,"110":0.006074297287385677,"111":0.050530447569327855,"112":0.03797459395046287,"113":-0.101941395721603,"114":-0.05957261606628105,"115":0.01153596682646539,"116":-0.04428128074268327,"117":-0.10750166321821655,"118":-0.007093951677981165,"119":-0.07350035554698539,"120":0.06367698255035714,"121":-0.00786992038141976,"122":0.022826854157630735,"123":-0.05414455953489492,"124":-0.0033247732771412605,"125":-0.03356386670758656,"126":0.0801958152997285,"127":0.05177557131239548,"128":0.04862210108046772,"129":0.011881079897249684,"130":0.06526042639447686,"131":0.02256022648548861,"132":0.06162282564049864,"133":0.10994551542518168,"134":-0.02520753097945152,"135":-0.05057028742035166,"136":0.017541176267513427,"137":-0.04556589852961255,"138":0.1001886214736457,"139":0.10802588909555831,"140":-0.03299857172166026,"141":0.09435270555324769,"142":-0.05483809604122308,"143":0.07332456694074256,"144":-0.11952662182021652,"145":0.018604850498262725,"146":-0.04026545777204881,"147":-0.019558691766575285,"148":0.13210295171503456,"149":0.024306580936330507,"150":-0.030711388447188702,"151":0.07780849917258474,"152":-0.06826912191641508,"153":0.09125733429720927,"154":-0.04015403361652742,"155":-0.021315137142944886,"156":-0.038620999730779516,"157":-0.02606366946714902,"158":-0.031591664703228814,"159":-0.03211039474404913,"160":0.009189891999892905,"161":0.018033639983272554,"162":-0.03414998058786859,"163":0.01968932792443232,"164":-0.028668856606173368,"165":0.0046785898678942004,"166":0.013316695457353618,"167":0.07879835757500446,"168":-0.10067630819932287,"169":0.0774989518897981,"170":0.05703401302134386,"171":0.06534731041523821,"172":-0.1225758100773754,"173":-0.011785787679521115,"174":-0.012423131438791393,"175":-0.00842556738225297,"176":-0.049673689882251744,"177":-0.033728477013972226,"178":-0.07831681461384524,"179":-0.0634760994760257,"180":-0.013461489556598137,"181":0.011378121821414042,"182":-0.0024466182471617522,"183":0.047250650696944084,"184":0.01960980013044043,"185":-0.024329209773095363,"186":0.05475987253594555,"187":-0.022042413984207705,"188":0.03381505760980095,"189":-0.0323488565872604,"190":0.07114298885724826,"191":0.04857965773699787,"192":0.0010105631396991018,"193":0.06991044139016293,"194":-0.038337854924695526,"195":-0.010815467120702648,"196":0.025287932800646923,"197":0.07234771054084589,"198":0.03914839075720657,"199":-0.0028781759993333723,"200":0.031278481627352625,"201":0.042043811733602394,"202":-0.08965297985881711,"203":0.07952178853935944,"204":0.048439562706044235,"205":-0.028080517308336793,"206":0.04787398094524559,"207":-0.0013726840055792544,"208":0.12941356145089677,"209":-0.05299209304903226,"210":0.04658500411297591,"211":0.04209063253066314,"212":0.043021949812040466,"213":0.040214946779703144,"214":0.04623910292435485}},{"sx":1,"sy":1,"depth":215,"w":{"0":0.032147398613044484,"1":-0.01605770264579162,"2":-0.01654545897136951,"3":0.09636354637672401,"4":-0.048132349767977214,"5":0.02020242006069514,"6":0.02732260129486527,"7":-0.05724184975890252,"8":-0.0048300488942340115,"9":-0.12730541343992285,"10":-0.02378025763352989,"11":-0.05893396719180271,"12":0.004208552487277447,"13":-0.002793813332840345,"14":-0.002610662572267558,"15":-0.0483655525436587,"16":0.07515198179493107,"17":-0.0252199122897487,"18":-0.03252976200684755,"19":-0.05596052986176289,"20":0.09786328647351303,"21":-0.04638571995519802,"22":-0.1355582765902719,"23":-0.057608921266510925,"24":0.01925645945960246,"25":0.0019421440213339691,"26":-0.10488655640926214,"27":0.052022355295165475,"28":0.06152327335351651,"29":-0.003035788025866397,"30":-0.0444529576862113,"31":0.012153561623955342,"32":-0.028794829858168638,"33":0.05510344128555437,"34":0.11686565969604283,"35":-0.08012726066020866,"36":0.008457619887667361,"37":0.061730117669546836,"38":0.09935362524180147,"39":-0.07355640669907787,"40":0.02973736775703805,"41":0.13895326170787375,"42":0.040700389149240825,"43":-0.09545923059934992,"44":0.04320124498079741,"45":0.032756466005694776,"46":-0.07384413385192994,"47":0.10401241229449694,"48":0.02196946268574019,"49":-0.08252127888823012,"50":0.1551106437947541,"51":0.012257046380654503,"52":0.0025204895608722075,"53":0.09659494377532477,"54":0.04604158021196974,"55":0.04423820766563444,"56":-0.013009783828263413,"57":0.02517273273297539,"58":-0.056002220992824134,"59":0.05287784216161771,"60":-0.08823047512353793,"61":-0.07181242877028121,"62":0.019305009794619202,"63":-0.10373375231742733,"64":-0.02472353495347208,"65":0.0005836187107824206,"66":0.009667275699959479,"67":0.07079504984513929,"68":-0.09563202254612535,"69":-0.013965304802356915,"70":-0.028817108293901876,"71":0.0484666261039933,"72":0.008017879402243586,"73":-0.06921190366864317,"74":0.02029430886559263,"75":-0.10466137417156277,"76":-0.11590597439584746,"77":0.07100507724903954,"78":0.07979867713185498,"79":-0.025539489869230235,"80":0.06088306334258394,"81":-0.05596032748445653,"82":-0.0042401293953210515,"83":0.06254235406723842,"84":-0.014254673969970844,"85":-0.04599210944144399,"86":0.10947612681188332,"87":-0.006569087534344679,"88":-0.038634879110360176,"89":-0.06868240477516854,"90":0.03453049555192153,"91":0.008789594600191608,"92":-0.08779614601870761,"93":-0.06806976051609799,"94":-0.11025358066276979,"95":-0.03140396465289245,"96":0.08797449819465583,"97":-0.08551742647325646,"98":0.02243599835306858,"99":0.014767389407374461,"100":-0.12342042818741489,"101":0.008587081336019441,"102":-0.0041452164982535775,"103":-0.03959313031150115,"104":-0.010802456312968533,"105":0.06287059955888796,"106":-0.13312226926789456,"107":-0.11359049256401209,"108":0.0893164187214166,"109":0.0850519656307485,"110":-0.016642825865488358,"111":0.0002672304075823336,"112":0.049473943603164885,"113":-0.13404331797105523,"114":0.0116104110222431,"115":0.10527114136652609,"116":-0.07367672963879998,"117":-0.027676343660889925,"118":-0.18937365301295533,"119":0.1174374178873101,"120":-0.045341210594248726,"121":-0.13373570038834295,"122":-0.06445666200299249,"123":-0.1983222585504478,"124":-0.079862952652332,"125":-0.02023630096756766,"126":0.03980408308539248,"127":-0.03662814579437461,"128":-0.008916676554815898,"129":-0.050365482878400133,"130":-0.10910757995161723,"131":0.05159946468036664,"132":0.032571757554032035,"133":0.047130598231799194,"134":-0.13805791411769777,"135":-0.03280553224559523,"136":0.003974721149210608,"137":0.01626619452990743,"138":0.011654455873195564,"139":0.030725851440391527,"140":-0.06850519133663473,"141":-0.06735772846777119,"142":-0.1358210824762821,"143":-0.0216769937757884,"144":-0.06400924081501173,"145":0.1382279928129245,"146":0.11103839135483333,"147":-0.051529653790871606,"148":0.11468248743784099,"149":0.06495735630928558,"150":-0.14526160348041045,"151":0.055053611670721175,"152":0.11618957199750218,"153":-0.0683040795156769,"154":-0.08789152640474904,"155":0.007539045126332959,"156":-0.031182080803471977,"157":-0.2024925645344243,"158":-0.02054052591630081,"159":-0.04592232139489247,"160":0.00365033908335212,"161":0.04133389374757909,"162":0.01889937446576662,"163":-0.025088857501505996,"164":-0.010985345413641512,"165":0.11208476047439339,"166":-0.024214119826583357,"167":-0.003160862199556282,"168":0.046106648220647146,"169":-0.009192851365954473,"170":-0.027556172626205744,"171":0.05404343840204791,"172":-0.04274410387975212,"173":0.04257219315015811,"174":-0.0796465604246955,"175":-0.04104899408824242,"176":-0.006901178750264277,"177":-0.15008723179128905,"178":0.010824684178905414,"179":-0.013352702860481616,"180":0.10554517159443152,"181":0.022083761364853766,"182":0.040598424426305714,"183":-0.06919237471090174,"184":0.0022163236436605425,"185":0.10196651489704261,"186":0.009856051926539006,"187":-0.013727756691953334,"188":-0.10584303120757525,"189":0.024397013434203165,"190":-0.0129640602122495,"191":-0.020514793170105045,"192":0.0022499388351605427,"193":-0.002259758245131883,"194":0.009839506900077729,"195":-0.06285463285982165,"196":-0.03819461780375533,"197":-0.05164146685198045,"198":0.047831263362928124,"199":-0.00400270533971256,"200":0.047166636005421855,"201":0.10306700058207255,"202":0.01583591489593197,"203":-0.06198103432563694,"204":-0.04457980722087717,"205":-0.11702830439106479,"206":0.0170708009080755,"207":-0.01953877960477429,"208":0.012647388383739617,"209":-0.08645776290581915,"210":-0.013354107648343733,"211":-0.02884819861525094,"212":-0.09528759618687008,"213":0.018348337566781846,"214":-0.022998920048057033}},{"sx":1,"sy":1,"depth":215,"w":{"0":0.03185711987654303,"1":0.0020436146685904816,"2":0.1791643277482302,"3":0.05353109685976766,"4":-0.011031635990397604,"5":-0.0628433958330038,"6":0.15354150985398682,"7":0.18565330273230052,"8":-0.09708799216495413,"9":0.10327092098966303,"10":0.09993682945660536,"11":0.002655193250210851,"12":0.17336086627482633,"13":-0.013459394355058513,"14":-0.04611304958411241,"15":-0.09317621771800076,"16":0.08889159405544625,"17":0.5314707453884591,"18":-0.007337524049607244,"19":0.04135153376102597,"20":0.04252172891894545,"21":0.12071078885162688,"22":0.4980379591610678,"23":-0.06662043342104947,"24":0.021134594933045935,"25":0.04328882400684138,"26":0.0556906508384946,"27":0.33412781183864004,"28":-0.007336393708464855,"29":0.0641601591378234,"30":-0.06190247060673727,"31":0.0041572609339925615,"32":0.3850809499022252,"33":-0.10262918788917391,"34":0.012487676086919277,"35":-0.0344711392424941,"36":-0.004404488812241582,"37":0.11917921637766603,"38":0.10440998392612506,"39":-0.10508035568153472,"40":-0.010519499001959844,"41":-0.09360030325673753,"42":-0.06883373772491064,"43":0.08528663093247783,"44":-0.03233104164766882,"45":0.03342141435729793,"46":0.03826904421494463,"47":-0.11100409042920878,"48":-0.09676458091368804,"49":-0.0560597404524349,"50":0.03895228674009999,"51":-0.02508095815305366,"52":0.043264032205092236,"53":0.0016667829744068318,"54":0.011448502612515886,"55":0.021210836508362446,"56":0.011938548317755747,"57":0.09330321576155147,"58":0.12176277385028798,"59":-0.03593091418225267,"60":0.09887244914607604,"61":-0.04126495725195355,"62":0.03376397500516418,"63":-0.04286916548721701,"64":-0.02092227554441574,"65":-0.0462784773997468,"66":-0.02049621173028448,"67":0.13599727919109517,"68":-0.06496727943715039,"69":-0.024766900579288723,"70":-0.05882967928016924,"71":-0.061397926110314166,"72":0.07025556941909712,"73":0.02576523210472155,"74":-0.12924638190781287,"75":0.009319051810713163,"76":0.06719543419487627,"77":0.1121867251257459,"78":0.0349847694941148,"79":0.007015292508776965,"80":-0.00811596665111893,"81":0.04145721849709127,"82":0.00832087543728866,"83":-0.08498312491627491,"84":0.011156856300800131,"85":-0.06793483950207914,"86":0.04845327067281105,"87":-0.05970045960850333,"88":-0.016970939922102267,"89":0.062112476039924924,"90":-0.021357021090720796,"91":-0.001738285901039015,"92":0.08374798509330102,"93":-0.002786195407123499,"94":0.0024228802884907015,"95":0.09006475874285991,"96":0.038426345917900916,"97":0.06749704698489611,"98":-0.06416764660328275,"99":-0.024272537511777,"100":-0.02545618945357903,"101":-0.02795128157365912,"102":-0.02683301332408178,"103":-0.02298737447557098,"104":-0.01666348585867446,"105":0.08321166529798059,"106":0.0008990545518533258,"107":-0.012431853395256966,"108":0.019595255235124384,"109":0.035767599305076274,"110":-0.05013169088146186,"111":-0.02929267377589761,"112":0.10018058311275028,"113":-0.06911987891121574,"114":0.03128163564278415,"115":-0.10250908651929881,"116":0.04029084765467769,"117":-0.030482907460233275,"118":0.1928391058070517,"119":0.02899011757094843,"120":-0.04033725347541647,"121":0.023485445164941443,"122":0.07659401699911665,"123":0.0477405995707456,"124":0.009028169676127386,"125":-0.046475725816197376,"126":-0.07335527738939623,"127":0.010439477038780858,"128":-0.057928248515389816,"129":-0.06750602653861644,"130":0.07753728550962732,"131":0.07359379667560818,"132":-0.005503782771001895,"133":-0.03307585668150704,"134":-0.03099768444643027,"135":0.04943574038381919,"136":0.03334754863897268,"137":-0.15239481470761088,"138":0.0024091767683745192,"139":0.00683874842109441,"140":0.08186344542908451,"141":-0.06484328333149902,"142":0.05682177555018977,"143":-0.024597575838990766,"144":-0.02188972049760908,"145":0.016151284850892518,"146":0.00766610861800814,"147":-0.09001586135674705,"148":-0.06602318222672798,"149":-0.14547585271014213,"150":0.04377724482144789,"151":-0.0406057532943906,"152":0.008079345892197776,"153":0.08240428958867656,"154":0.02373959714166832,"155":0.00032215403602647516,"156":0.017102128753141075,"157":0.01645046117255523,"158":0.014223669746687276,"159":0.021345484476682813,"160":-0.04484001075605742,"161":-0.0018151164556529423,"162":0.016319008882585383,"163":0.03885884254067925,"164":-0.04344554260935209,"165":-0.012983079961629233,"166":0.06607822767560358,"167":-0.025744742851284814,"168":-0.014281453986599624,"169":-0.13633199901325274,"170":0.009414266988528429,"171":-0.0024199068217589472,"172":-0.10773782060242383,"173":-0.07944109120242261,"174":-0.049873708936682054,"175":-0.03501114891548902,"176":0.041351778388475674,"177":0.08095206129942444,"178":-0.0010835678920738583,"179":0.10522314080584844,"180":-0.009714620807256467,"181":-0.04045426952338295,"182":0.09607378638645787,"183":0.09689290951073923,"184":-0.021868303417968676,"185":0.114779120059182,"186":-0.07835276994835323,"187":-0.059548031357781105,"188":-0.03286315783956337,"189":0.10695436598229971,"190":-0.019216710352330822,"191":-0.030662954689424662,"192":-0.10102478211119209,"193":-0.039155503034312894,"194":0.09995888657422321,"195":-0.16870068910248112,"196":0.03358055220643816,"197":0.12100860817749183,"198":-0.04986224530036034,"199":-0.03083804788210598,"200":-0.05461975080503255,"201":-0.039238595820635956,"202":-0.05320305023263514,"203":-0.07878539618855696,"204":-0.007726681475074705,"205":0.058177042312459716,"206":-0.0299807391538021,"207":-0.04854269374056311,"208":-0.015740020608301174,"209":0.07417039884084205,"210":0.00042498926379271203,"211":-0.0016498075268231445,"212":0.0033180467043339677,"213":0.008299603078262743,"214":0.005807145004165818}},{"sx":1,"sy":1,"depth":215,"w":{"0":0.000846643325014541,"1":-0.16181088118259734,"2":-0.028460424019599053,"3":0.021519564761528026,"4":-0.08043104323450978,"5":0.00037257893565067096,"6":0.04211166867794446,"7":0.07557152909610312,"8":-0.017958782628958746,"9":-0.013030137619907381,"10":0.014817364523625491,"11":0.03559050216514618,"12":-0.13639185009305002,"13":0.08055819833276197,"14":0.026703219846169926,"15":0.12634334297148728,"16":-0.008506855003082223,"17":-0.0455297705270886,"18":0.032939901670596315,"19":-0.08134324648937366,"20":0.003760445061818674,"21":0.09181850137415955,"22":0.0067915902652010765,"23":0.0028634348679365197,"24":-0.22142823435105993,"25":-0.14242620690250912,"26":0.1346711532995847,"27":0.05167871272269757,"28":-0.130319082326407,"29":-0.0302035071874288,"30":0.04509152233082832,"31":-0.09746574170407807,"32":-0.012837722648640774,"33":-0.01894375143402488,"34":-0.08207539246468953,"35":0.05242125141115,"36":0.05130655632204891,"37":0.07608038261144924,"38":0.018459361005922808,"39":0.0005713543092180511,"40":-0.04516776381810985,"41":0.036296679252538405,"42":0.06836156444213412,"43":-0.040271217108728045,"44":0.049462954243633166,"45":0.04741718314330386,"46":0.0006097474448690021,"47":0.02293663998188666,"48":-0.005679658940501493,"49":-0.13953920494906732,"50":-0.085721704327285,"51":0.10442127499073496,"52":0.07709570256071878,"53":-0.07569171004586585,"54":0.06104651517156397,"55":0.11353319934956228,"56":0.02479023783780113,"57":-0.031769035302195735,"58":0.07921566117341264,"59":-0.04384019763097703,"60":-0.056246642938372296,"61":-0.005458426385920757,"62":-0.0014147540234371384,"63":0.035023386833260506,"64":-0.08076408354009773,"65":0.06769641328043238,"66":-0.0014676328896287864,"67":0.12156544326935861,"68":0.003424371684371514,"69":-0.060959134551005274,"70":-0.037358223270376585,"71":-0.06817633125143693,"72":0.006758882024731673,"73":0.10823150706181986,"74":-0.10072401428245532,"75":-0.00949038957829179,"76":-0.05866888290457373,"77":-0.060482017906731994,"78":0.022838632072904277,"79":0.020002094470754885,"80":-0.10650934645812875,"81":-0.0790281345685128,"82":0.033977521503055504,"83":-0.006553042285917395,"84":0.04271614286655678,"85":0.05470936802944466,"86":0.030592765400792685,"87":0.05470546763579696,"88":0.004288248814429281,"89":-0.12687435866850905,"90":-0.05448324491217114,"91":-0.06871062262833694,"92":-0.0356830418112641,"93":0.010727068286820227,"94":-0.09978416537292586,"95":0.1259200384919737,"96":-0.03285143405530234,"97":-0.08936325336710861,"98":-0.040764535761355185,"99":0.024632701069791197,"100":-0.017129538479654864,"101":-0.030834623867517875,"102":0.002759986952611789,"103":0.00954308995026817,"104":-0.0324864014254236,"105":-0.06685449383153276,"106":0.01316291186543399,"107":-0.05754429072607055,"108":0.12725059371397504,"109":-0.008576317267619822,"110":0.025264882392281536,"111":-0.03559525729313161,"112":0.023681910406695584,"113":0.142803301474302,"114":-0.016655403368638164,"115":0.062225939183939594,"116":0.021142146937675407,"117":0.12058131758262426,"118":-0.05213442553239223,"119":0.11841912520704825,"120":-0.15450374472069325,"121":0.002468200647583567,"122":-0.00615103606701458,"123":0.1354700673543594,"124":-0.1015566134342415,"125":0.06601851785394354,"126":-0.03330726637166731,"127":-0.0006778098927955395,"128":-0.11558579243753354,"129":-0.03045972690773869,"130":0.14291977421267918,"131":0.13736172477157363,"132":-0.039870487933535266,"133":-0.014485514708455044,"134":0.17312358309951525,"135":-0.021392003445061984,"136":-0.09480536764668206,"137":-0.046648945643609635,"138":-0.00842668404957472,"139":-0.020015286805122334,"140":0.04687179989348341,"141":-0.08161342888342042,"142":-0.04436052684667532,"143":-0.05080506381611646,"144":-0.023292084403320253,"145":0.03844878904590366,"146":0.02605435359042359,"147":0.018891463809218474,"148":0.028544828667544497,"149":-0.02287200612544242,"150":-0.10094874442279328,"151":0.09208071409052121,"152":0.11386348744674314,"153":-0.043435240371829664,"154":0.021519014672713842,"155":-0.04285452247539846,"156":-0.03333913881128573,"157":-0.006313311382853276,"158":-0.03253446709420975,"159":-0.0525156408433616,"160":-0.03963692283184431,"161":0.05257175424332885,"162":-0.04820305171141253,"163":0.04363493236315481,"164":-0.028145500922495303,"165":0.14783453875745067,"166":0.006718986249869927,"167":0.11872241727836767,"168":0.11216198049869652,"169":0.10058875617100167,"170":0.05235053641255649,"171":-0.08138508532022666,"172":0.05220892355846285,"173":-0.047069381846670456,"174":0.09059162313709967,"175":-0.05001843488959969,"176":0.08060945866543642,"177":-0.03571714397252527,"178":0.06253204706900102,"179":0.05991034926588127,"180":-0.014677878368791827,"181":-0.041054184406210684,"182":0.09214166338900191,"183":-0.17643174852125348,"184":0.12604698938099604,"185":-0.0016742509865541873,"186":-0.027038703668820618,"187":0.0833987658948089,"188":0.1479595838497997,"189":0.06927473151687187,"190":-0.03166830770492918,"191":-0.06930252197784116,"192":0.033959810172165615,"193":0.059769104512940055,"194":-0.02278005039422359,"195":-0.09590018141629827,"196":0.05600566056810694,"197":0.027536874613713416,"198":-0.1000094669704411,"199":-0.07391499944648078,"200":0.10184733207715621,"201":0.0031125999781051543,"202":-0.07999020657697484,"203":-0.051353368065630296,"204":0.04650609557326617,"205":-0.173834545158458,"206":-0.03734358532289234,"207":0.014356555815009775,"208":0.02383188728744206,"209":-0.061537756780595074,"210":0.011590021289866673,"211":-0.018965551034251637,"212":0.009444845210835964,"213":-0.13969602387419802,"214":-0.026536229006610183}},{"sx":1,"sy":1,"depth":215,"w":{"0":-0.07969678620631385,"1":0.01963285847046948,"2":0.0012771871033087938,"3":-0.08141533597004508,"4":0.020564249650981838,"5":-0.016103674187715366,"6":0.06423240233912389,"7":0.03940588555823267,"8":-0.010425296250381317,"9":-0.03637517269635513,"10":0.05225563966333195,"11":0.13478346922822554,"12":0.009764535411168156,"13":-0.0336561657593231,"14":-0.022294879364898018,"15":-0.036204980935793614,"16":0.00008681295669306828,"17":-0.17210211443234785,"18":-0.099905984101657,"19":-0.0029902058689498735,"20":-0.011932595063952733,"21":-0.053045777125293146,"22":-0.020444967231484736,"23":0.05892550691548545,"24":-0.06788652095185366,"25":-0.08378686755934375,"26":0.07351791924026611,"27":-0.20247868885760434,"28":-0.004091100410365599,"29":0.05708326462696497,"30":0.005606094619824037,"31":0.07771058516010924,"32":-0.06399334912218722,"33":0.00573846128248373,"34":0.13787695463089747,"35":0.0255925209550587,"36":0.002546879427294122,"37":-0.07763295217355802,"38":-0.02098522748522355,"39":-0.05419946517987761,"40":-0.03683652006285735,"41":-0.01019300601342849,"42":-0.026721744893471948,"43":0.0315336242875014,"44":0.1670803784828986,"45":0.02851293528792736,"46":-0.005178148166058527,"47":0.019260150911003967,"48":-0.09755479233414467,"49":-0.028336823697624094,"50":0.02035018433983824,"51":-0.05490955809964251,"52":0.029337365175411193,"53":-0.00036651525624902806,"54":0.08027099466002463,"55":0.033294523592818766,"56":0.02548343492310105,"57":-0.008100592231422407,"58":0.03503500292681178,"59":0.057829951206092675,"60":-0.08358431617656575,"61":-0.040847638071315355,"62":-0.0641290635074757,"63":-0.017942916422178306,"64":0.06139692885959806,"65":0.03028718832759115,"66":-0.0087767274965669,"67":-0.026716674931050923,"68":-0.021539182039227545,"69":-0.05170272716704101,"70":0.015493110642231632,"71":0.0632383566539918,"72":0.0646957656143513,"73":-0.11743788475681584,"74":0.018710872262495314,"75":0.09646561771472606,"76":0.10528870182602146,"77":0.061775075276693285,"78":-0.0010277460884842975,"79":0.001320071744701414,"80":0.028291133239176734,"81":-0.011687604520023888,"82":0.02262175417056858,"83":0.009868788263758055,"84":-0.005503253820709343,"85":0.11434321890575029,"86":0.041641075968556214,"87":0.04434554095915433,"88":-0.016227929126026264,"89":0.04170032175506066,"90":-0.05566267261503648,"91":0.06864987902169965,"92":-0.17284727590465424,"93":-0.006540227185053645,"94":0.07981649007862829,"95":0.16377597666409807,"96":-0.07584336350253523,"97":0.051758574236502576,"98":0.1832336231300323,"99":0.14347570352661104,"100":-0.01164946861851305,"101":-0.004393086382522488,"102":-0.03156837575225295,"103":0.009276576410998267,"104":-0.0886742698448179,"105":-0.10611424556475647,"106":0.13749603991008255,"107":-0.023367637095173158,"108":0.14225330040939796,"109":-0.01813842354275851,"110":0.09210487913870945,"111":-0.052297077629970164,"112":-0.06923396055010375,"113":0.13940774723950813,"114":-0.02750705779364699,"115":0.026641755228326854,"116":0.020171094883430662,"117":-0.033244499396224786,"118":0.15378328380146727,"119":-0.10951900636823844,"120":0.21436953637825562,"121":0.11630978323539458,"122":0.01465438687213544,"123":-0.03205422479412333,"124":-0.002103202291430652,"125":-0.1170680219480537,"126":0.004265039823318444,"127":0.01491846493888356,"128":0.012488201567840994,"129":0.036043278377116725,"130":0.015291323671187103,"131":-0.006781285877454173,"132":-0.032211516932129584,"133":0.0024873434750164133,"134":0.025370763703904856,"135":-0.09736474120548191,"136":0.0012184911349311088,"137":-0.11041632864098373,"138":0.08141756797085377,"139":-0.05562646605903717,"140":-0.05556573162906521,"141":0.12209530046182727,"142":0.057040969721980556,"143":-0.09772084974491385,"144":-0.1400899803007463,"145":-0.006734723732887425,"146":-0.009657832843428237,"147":-0.018025704330323907,"148":-0.015183738228959704,"149":-0.11645288271217843,"150":-0.01660018735323007,"151":-0.0727342941808651,"152":0.05329202964691156,"153":0.0076316446293418945,"154":-0.11833161275917588,"155":-0.10227639530250704,"156":-0.02617778473588772,"157":-0.029046092153667543,"158":-0.026908501313536202,"159":-0.03208383096560717,"160":-0.049821066259797556,"161":0.03630244903502765,"162":-0.035990031455133534,"163":0.018292007958900968,"164":0.1094226619349223,"165":0.043545643636758925,"166":-0.02464572491111039,"167":0.006286030826787551,"168":0.11059896005443152,"169":-0.03150602909988199,"170":-0.07787505996525894,"171":-0.09443562083422426,"172":-0.00979653592338718,"173":0.01723379415003539,"174":-0.05634720162639317,"175":0.20431045304239157,"176":-0.0709209398284792,"177":0.03947685163929192,"178":0.040193533863155065,"179":-0.010372095917198421,"180":0.0495438303577042,"181":-0.05447495215232157,"182":-0.1078513548486344,"183":-0.030218011123749257,"184":-0.07366801400749258,"185":-0.04512178349347473,"186":-0.0627398040873306,"187":0.06559957350256419,"188":0.10696874196548287,"189":0.11948011562854381,"190":0.047166778664695395,"191":-0.07856898930524332,"192":0.011705757315609749,"193":0.11525571530521496,"194":0.05735365413923594,"195":-0.1340022325517238,"196":0.083174865655685,"197":-0.017189915365236293,"198":-0.01782462567238056,"199":0.05889884044725281,"200":-0.11553842339227556,"201":0.04199337660989035,"202":0.02049898639055603,"203":0.09050076490687416,"204":0.011262389318452337,"205":-0.030564411615853028,"206":0.016991957485611116,"207":0.0350881194638283,"208":0.030864959717081232,"209":-0.06719341828590995,"210":0.0027556098566668707,"211":0.02096400936747468,"212":0.00966487703133731,"213":-0.009904849967288245,"214":0.0046315992112773005}}],"biases":{"sx":1,"sy":1,"depth":5,"w":{"0":0.09896287733912926,"1":0.09540484265334209,"2":0.09760007656185696,"3":0.09829753453343573,"4":0.09839924766472936}}},{"out_depth":5,"out_sx":1,"out_sy":1,"layer_type":"relu"},{"out_depth":5,"out_sx":1,"out_sy":1,"layer_type":"fc","num_inputs":5,"l1_decay_mul":0,"l2_decay_mul":1,"filters":[{"sx":1,"sy":1,"depth":5,"w":{"0":0.802172402862697,"1":0.44347610356292394,"2":0.6567202418246438,"3":0.291524662942502,"4":-0.6069449018741562}},{"sx":1,"sy":1,"depth":5,"w":{"0":0.8872767004842397,"1":-1.040176960353821,"2":0.5591090463447774,"3":0.06665677343453272,"4":-0.6815200153637199}},{"sx":1,"sy":1,"depth":5,"w":{"0":0.7681546666358182,"1":-0.04504346677387869,"2":0.6947451681972092,"3":0.3877949195577406,"4":0.38396435315552335}},{"sx":1,"sy":1,"depth":5,"w":{"0":0.9254105253382487,"1":-0.3959486444013826,"2":0.2950942632635092,"3":-0.6981385512733923,"4":-0.20074178995806163}},{"sx":1,"sy":1,"depth":5,"w":{"0":1.0191325262847282,"1":0.1266822196401912,"2":-0.1384664901804363,"3":-0.11626775758577484,"4":0.028084828912432736}}],"biases":{"sx":1,"sy":1,"depth":5,"w":{"0":0.02560200365229132,"1":-0.03273315271129151,"2":0.07733071676321372,"3":0.08727156548934623,"4":0.011074827735428108}}},{"out_depth":5,"out_sx":1,"out_sy":1,"layer_type":"regression","num_inputs":5}]});
}if (brain) {
brain.value_net.fromJSON({"layers":[{"out_depth":215,"out_sx":1,"out_sy":1,"layer_type":"input"},{"out_depth":5,"out_sx":1,"out_sy":1,"layer_type":"fc","num_inputs":215,"l1_decay_mul":0,"l2_decay_mul":1,"filters":[{"sx":1,"sy":1,"depth":215,"w":{"0":0.02881214901739763,"1":0.04762510596146844,"2":0.297684911439327,"3":0.04245561907079563,"4":-0.04880296410041528,"5":-0.002363484173217129,"6":0.15472975380124307,"7":0.37202203474712364,"8":0.0875418416219422,"9":-0.003685758512277907,"10":0.05399128536282043,"11":0.0070633010124755155,"12":0.3487543406939443,"13":0.2297715340912769,"14":0.05317920122872662,"15":0.015485644724149747,"16":0.10335646541666758,"17":0.7064628899748685,"18":0.14163259174565063,"19":0.07014795383994996,"20":-0.11978677482837514,"21":0.1300228358643547,"22":0.9020628388744367,"23":0.15484814637508193,"24":-0.002112002159777991,"25":-0.028261215245418157,"26":-0.007854377346643723,"27":0.7720715275838649,"28":0.09078971756781973,"29":-0.07323287850394625,"30":0.06911662455449344,"31":-0.16286547516961422,"32":0.7400171533416939,"33":0.1721192883348791,"34":0.042519167935158364,"35":-0.011719424655952139,"36":0.05381603826401824,"37":0.047160191680906544,"38":0.10569076299490332,"39":0.10648647275065654,"40":-0.09206123575967015,"41":0.0973078460114951,"42":0.043861050074747485,"43":0.14895425623992445,"44":-0.007921909482774119,"45":-0.02877189647577632,"46":0.18864137672883402,"47":-0.029933784370803986,"48":0.14134674556291496,"49":-0.01912053872012197,"50":0.04595768954869825,"51":0.16174317340499758,"52":0.271520230918039,"53":-0.03077116504218042,"54":-0.10344416309648424,"55":-0.04900280394621017,"56":0.03724899792386264,"57":0.15622986895340815,"58":-0.033824574777829644,"59":0.10283521974420386,"60":-0.010668716129165152,"61":0.01740134054933305,"62":0.01122577190673717,"63":0.028605805982966,"64":0.011744758109356794,"65":-0.050488479593004176,"66":0.06692644346715484,"67":0.17567108214666985,"68":0.037329436546683734,"69":-0.03816070453810431,"70":0.07613391748087688,"71":0.10947741743619473,"72":0.15675167675727608,"73":0.11891038638671937,"74":0.08884802040855785,"75":0.06994169979823493,"76":-0.004694196247740661,"77":0.08615433105413987,"78":0.12500813515719264,"79":-0.11784844606213817,"80":-0.009021725516829464,"81":-0.00042297055333374276,"82":0.1611820212901043,"83":0.06342053421976329,"84":0.04908560290371672,"85":-0.023846588691871843,"86":0.09450852271366499,"87":0.0761403741907586,"88":0.16588446409700525,"89":-0.029179313589302848,"90":0.02823418195227974,"91":-0.0478671746274053,"92":0.03827042015113614,"93":0.14666752841122732,"94":-0.03583599683948673,"95":-0.0824348211902793,"96":0.17026391629112497,"97":0.10282124495103839,"98":0.1257337866662417,"99":0.0073459103153571716,"100":-0.026577474015608685,"101":-0.02863826715451189,"102":-0.030393171521530763,"103":-0.0304288125591712,"104":-0.02916206028608101,"105":-0.04484123249067405,"106":0.12023370116920933,"107":0.06203809975698531,"108":-0.01932491792998574,"109":-0.026052718249940546,"110":0.006074297287385677,"111":0.050530447569327855,"112":0.03797459395046287,"113":-0.101941395721603,"114":-0.05957261606628105,"115":0.01153596682646539,"116":-0.04428128074268327,"117":-0.10750166321821655,"118":-0.007093951677981165,"119":-0.07350035554698539,"120":0.06367698255035714,"121":-0.00786992038141976,"122":0.022826854157630735,"123":-0.05414455953489492,"124":-0.0033247732771412605,"125":-0.03356386670758656,"126":0.0801958152997285,"127":0.05177557131239548,"128":0.04862210108046772,"129":0.011881079897249684,"130":0.06526042639447686,"131":0.02256022648548861,"132":0.06162282564049864,"133":0.10994551542518168,"134":-0.02520753097945152,"135":-0.05057028742035166,"136":0.017541176267513427,"137":-0.04556589852961255,"138":0.1001886214736457,"139":0.10802588909555831,"140":-0.03299857172166026,"141":0.09435270555324769,"142":-0.05483809604122308,"143":0.07332456694074256,"144":-0.11952662182021652,"145":0.018604850498262725,"146":-0.04026545777204881,"147":-0.019558691766575285,"148":0.13210295171503456,"149":0.024306580936330507,"150":-0.030711388447188702,"151":0.07780849917258474,"152":-0.06826912191641508,"153":0.09125733429720927,"154":-0.04015403361652742,"155":-0.021315137142944886,"156":-0.038620999730779516,"157":-0.02606366946714902,"158":-0.031591664703228814,"159":-0.03211039474404913,"160":0.009189891999892905,"161":0.018033639983272554,"162":-0.03414998058786859,"163":0.01968932792443232,"164":-0.028668856606173368,"165":0.0046785898678942004,"166":0.013316695457353618,"167":0.07879835757500446,"168":-0.10067630819932287,"169":0.0774989518897981,"170":0.05703401302134386,"171":0.06534731041523821,"172":-0.1225758100773754,"173":-0.011785787679521115,"174":-0.012423131438791393,"175":-0.00842556738225297,"176":-0.049673689882251744,"177":-0.033728477013972226,"178":-0.07831681461384524,"179":-0.0634760994760257,"180":-0.013461489556598137,"181":0.011378121821414042,"182":-0.0024466182471617522,"183":0.047250650696944084,"184":0.01960980013044043,"185":-0.024329209773095363,"186":0.05475987253594555,"187":-0.022042413984207705,"188":0.03381505760980095,"189":-0.0323488565872604,"190":0.07114298885724826,"191":0.04857965773699787,"192":0.0010105631396991018,"193":0.06991044139016293,"194":-0.038337854924695526,"195":-0.010815467120702648,"196":0.025287932800646923,"197":0.07234771054084589,"198":0.03914839075720657,"199":-0.0028781759993333723,"200":0.031278481627352625,"201":0.042043811733602394,"202":-0.08965297985881711,"203":0.07952178853935944,"204":0.048439562706044235,"205":-0.028080517308336793,"206":0.04787398094524559,"207":-0.0013726840055792544,"208":0.12941356145089677,"209":-0.05299209304903226,"210":0.04658500411297591,"211":0.04209063253066314,"212":0.043021949812040466,"213":0.040214946779703144,"214":0.04623910292435485}},{"sx":1,"sy":1,"depth":215,"w":{"0":0.032147398613044484,"1":-0.01605770264579162,"2":-0.01654545897136951,"3":0.09636354637672401,"4":-0.048132349767977214,"5":0.02020242006069514,"6":0.02732260129486527,"7":-0.05724184975890252,"8":-0.0048300488942340115,"9":-0.12730541343992285,"10":-0.02378025763352989,"11":-0.05893396719180271,"12":0.004208552487277447,"13":-0.002793813332840345,"14":-0.002610662572267558,"15":-0.0483655525436587,"16":0.07515198179493107,"17":-0.0252199122897487,"18":-0.03252976200684755,"19":-0.05596052986176289,"20":0.09786328647351303,"21":-0.04638571995519802,"22":-0.1355582765902719,"23":-0.057608921266510925,"24":0.01925645945960246,"25":0.0019421440213339691,"26":-0.10488655640926214,"27":0.052022355295165475,"28":0.06152327335351651,"29":-0.003035788025866397,"30":-0.0444529576862113,"31":0.012153561623955342,"32":-0.028794829858168638,"33":0.05510344128555437,"34":0.11686565969604283,"35":-0.08012726066020866,"36":0.008457619887667361,"37":0.061730117669546836,"38":0.09935362524180147,"39":-0.07355640669907787,"40":0.02973736775703805,"41":0.13895326170787375,"42":0.040700389149240825,"43":-0.09545923059934992,"44":0.04320124498079741,"45":0.032756466005694776,"46":-0.07384413385192994,"47":0.10401241229449694,"48":0.02196946268574019,"49":-0.08252127888823012,"50":0.1551106437947541,"51":0.012257046380654503,"52":0.0025204895608722075,"53":0.09659494377532477,"54":0.04604158021196974,"55":0.04423820766563444,"56":-0.013009783828263413,"57":0.02517273273297539,"58":-0.056002220992824134,"59":0.05287784216161771,"60":-0.08823047512353793,"61":-0.07181242877028121,"62":0.019305009794619202,"63":-0.10373375231742733,"64":-0.02472353495347208,"65":0.0005836187107824206,"66":0.009667275699959479,"67":0.07079504984513929,"68":-0.09563202254612535,"69":-0.013965304802356915,"70":-0.028817108293901876,"71":0.0484666261039933,"72":0.008017879402243586,"73":-0.06921190366864317,"74":0.02029430886559263,"75":-0.10466137417156277,"76":-0.11590597439584746,"77":0.07100507724903954,"78":0.07979867713185498,"79":-0.025539489869230235,"80":0.06088306334258394,"81":-0.05596032748445653,"82":-0.0042401293953210515,"83":0.06254235406723842,"84":-0.014254673969970844,"85":-0.04599210944144399,"86":0.10947612681188332,"87":-0.006569087534344679,"88":-0.038634879110360176,"89":-0.06868240477516854,"90":0.03453049555192153,"91":0.008789594600191608,"92":-0.08779614601870761,"93":-0.06806976051609799,"94":-0.11025358066276979,"95":-0.03140396465289245,"96":0.08797449819465583,"97":-0.08551742647325646,"98":0.02243599835306858,"99":0.014767389407374461,"100":-0.12342042818741489,"101":0.008587081336019441,"102":-0.0041452164982535775,"103":-0.03959313031150115,"104":-0.010802456312968533,"105":0.06287059955888796,"106":-0.13312226926789456,"107":-0.11359049256401209,"108":0.0893164187214166,"109":0.0850519656307485,"110":-0.016642825865488358,"111":0.0002672304075823336,"112":0.049473943603164885,"113":-0.13404331797105523,"114":0.0116104110222431,"115":0.10527114136652609,"116":-0.07367672963879998,"117":-0.027676343660889925,"118":-0.18937365301295533,"119":0.1174374178873101,"120":-0.045341210594248726,"121":-0.13373570038834295,"122":-0.06445666200299249,"123":-0.1983222585504478,"124":-0.079862952652332,"125":-0.02023630096756766,"126":0.03980408308539248,"127":-0.03662814579437461,"128":-0.008916676554815898,"129":-0.050365482878400133,"130":-0.10910757995161723,"131":0.05159946468036664,"132":0.032571757554032035,"133":0.047130598231799194,"134":-0.13805791411769777,"135":-0.03280553224559523,"136":0.003974721149210608,"137":0.01626619452990743,"138":0.011654455873195564,"139":0.030725851440391527,"140":-0.06850519133663473,"141":-0.06735772846777119,"142":-0.1358210824762821,"143":-0.0216769937757884,"144":-0.06400924081501173,"145":0.1382279928129245,"146":0.11103839135483333,"147":-0.051529653790871606,"148":0.11468248743784099,"149":0.06495735630928558,"150":-0.14526160348041045,"151":0.055053611670721175,"152":0.11618957199750218,"153":-0.0683040795156769,"154":-0.08789152640474904,"155":0.007539045126332959,"156":-0.031182080803471977,"157":-0.2024925645344243,"158":-0.02054052591630081,"159":-0.04592232139489247,"160":0.00365033908335212,"161":0.04133389374757909,"162":0.01889937446576662,"163":-0.025088857501505996,"164":-0.010985345413641512,"165":0.11208476047439339,"166":-0.024214119826583357,"167":-0.003160862199556282,"168":0.046106648220647146,"169":-0.009192851365954473,"170":-0.027556172626205744,"171":0.05404343840204791,"172":-0.04274410387975212,"173":0.04257219315015811,"174":-0.0796465604246955,"175":-0.04104899408824242,"176":-0.006901178750264277,"177":-0.15008723179128905,"178":0.010824684178905414,"179":-0.013352702860481616,"180":0.10554517159443152,"181":0.022083761364853766,"182":0.040598424426305714,"183":-0.06919237471090174,"184":0.0022163236436605425,"185":0.10196651489704261,"186":0.009856051926539006,"187":-0.013727756691953334,"188":-0.10584303120757525,"189":0.024397013434203165,"190":-0.0129640602122495,"191":-0.020514793170105045,"192":0.0022499388351605427,"193":-0.002259758245131883,"194":0.009839506900077729,"195":-0.06285463285982165,"196":-0.03819461780375533,"197":-0.05164146685198045,"198":0.047831263362928124,"199":-0.00400270533971256,"200":0.047166636005421855,"201":0.10306700058207255,"202":0.01583591489593197,"203":-0.06198103432563694,"204":-0.04457980722087717,"205":-0.11702830439106479,"206":0.0170708009080755,"207":-0.01953877960477429,"208":0.012647388383739617,"209":-0.08645776290581915,"210":-0.013354107648343733,"211":-0.02884819861525094,"212":-0.09528759618687008,"213":0.018348337566781846,"214":-0.022998920048057033}},{"sx":1,"sy":1,"depth":215,"w":{"0":0.03185711987654303,"1":0.0020436146685904816,"2":0.1791643277482302,"3":0.05353109685976766,"4":-0.011031635990397604,"5":-0.0628433958330038,"6":0.15354150985398682,"7":0.18565330273230052,"8":-0.09708799216495413,"9":0.10327092098966303,"10":0.09993682945660536,"11":0.002655193250210851,"12":0.17336086627482633,"13":-0.013459394355058513,"14":-0.04611304958411241,"15":-0.09317621771800076,"16":0.08889159405544625,"17":0.5314707453884591,"18":-0.007337524049607244,"19":0.04135153376102597,"20":0.04252172891894545,"21":0.12071078885162688,"22":0.4980379591610678,"23":-0.06662043342104947,"24":0.021134594933045935,"25":0.04328882400684138,"26":0.0556906508384946,"27":0.33412781183864004,"28":-0.007336393708464855,"29":0.0641601591378234,"30":-0.06190247060673727,"31":0.0041572609339925615,"32":0.3850809499022252,"33":-0.10262918788917391,"34":0.012487676086919277,"35":-0.0344711392424941,"36":-0.004404488812241582,"37":0.11917921637766603,"38":0.10440998392612506,"39":-0.10508035568153472,"40":-0.010519499001959844,"41":-0.09360030325673753,"42":-0.06883373772491064,"43":0.08528663093247783,"44":-0.03233104164766882,"45":0.03342141435729793,"46":0.03826904421494463,"47":-0.11100409042920878,"48":-0.09676458091368804,"49":-0.0560597404524349,"50":0.03895228674009999,"51":-0.02508095815305366,"52":0.043264032205092236,"53":0.0016667829744068318,"54":0.011448502612515886,"55":0.021210836508362446,"56":0.011938548317755747,"57":0.09330321576155147,"58":0.12176277385028798,"59":-0.03593091418225267,"60":0.09887244914607604,"61":-0.04126495725195355,"62":0.03376397500516418,"63":-0.04286916548721701,"64":-0.02092227554441574,"65":-0.0462784773997468,"66":-0.02049621173028448,"67":0.13599727919109517,"68":-0.06496727943715039,"69":-0.024766900579288723,"70":-0.05882967928016924,"71":-0.061397926110314166,"72":0.07025556941909712,"73":0.02576523210472155,"74":-0.12924638190781287,"75":0.009319051810713163,"76":0.06719543419487627,"77":0.1121867251257459,"78":0.0349847694941148,"79":0.007015292508776965,"80":-0.00811596665111893,"81":0.04145721849709127,"82":0.00832087543728866,"83":-0.08498312491627491,"84":0.011156856300800131,"85":-0.06793483950207914,"86":0.04845327067281105,"87":-0.05970045960850333,"88":-0.016970939922102267,"89":0.062112476039924924,"90":-0.021357021090720796,"91":-0.001738285901039015,"92":0.08374798509330102,"93":-0.002786195407123499,"94":0.0024228802884907015,"95":0.09006475874285991,"96":0.038426345917900916,"97":0.06749704698489611,"98":-0.06416764660328275,"99":-0.024272537511777,"100":-0.02545618945357903,"101":-0.02795128157365912,"102":-0.02683301332408178,"103":-0.02298737447557098,"104":-0.01666348585867446,"105":0.08321166529798059,"106":0.0008990545518533258,"107":-0.012431853395256966,"108":0.019595255235124384,"109":0.035767599305076274,"110":-0.05013169088146186,"111":-0.02929267377589761,"112":0.10018058311275028,"113":-0.06911987891121574,"114":0.03128163564278415,"115":-0.10250908651929881,"116":0.04029084765467769,"117":-0.030482907460233275,"118":0.1928391058070517,"119":0.02899011757094843,"120":-0.04033725347541647,"121":0.023485445164941443,"122":0.07659401699911665,"123":0.0477405995707456,"124":0.009028169676127386,"125":-0.046475725816197376,"126":-0.07335527738939623,"127":0.010439477038780858,"128":-0.057928248515389816,"129":-0.06750602653861644,"130":0.07753728550962732,"131":0.07359379667560818,"132":-0.005503782771001895,"133":-0.03307585668150704,"134":-0.03099768444643027,"135":0.04943574038381919,"136":0.03334754863897268,"137":-0.15239481470761088,"138":0.0024091767683745192,"139":0.00683874842109441,"140":0.08186344542908451,"141":-0.06484328333149902,"142":0.05682177555018977,"143":-0.024597575838990766,"144":-0.02188972049760908,"145":0.016151284850892518,"146":0.00766610861800814,"147":-0.09001586135674705,"148":-0.06602318222672798,"149":-0.14547585271014213,"150":0.04377724482144789,"151":-0.0406057532943906,"152":0.008079345892197776,"153":0.08240428958867656,"154":0.02373959714166832,"155":0.00032215403602647516,"156":0.017102128753141075,"157":0.01645046117255523,"158":0.014223669746687276,"159":0.021345484476682813,"160":-0.04484001075605742,"161":-0.0018151164556529423,"162":0.016319008882585383,"163":0.03885884254067925,"164":-0.04344554260935209,"165":-0.012983079961629233,"166":0.06607822767560358,"167":-0.025744742851284814,"168":-0.014281453986599624,"169":-0.13633199901325274,"170":0.009414266988528429,"171":-0.0024199068217589472,"172":-0.10773782060242383,"173":-0.07944109120242261,"174":-0.049873708936682054,"175":-0.03501114891548902,"176":0.041351778388475674,"177":0.08095206129942444,"178":-0.0010835678920738583,"179":0.10522314080584844,"180":-0.009714620807256467,"181":-0.04045426952338295,"182":0.09607378638645787,"183":0.09689290951073923,"184":-0.021868303417968676,"185":0.114779120059182,"186":-0.07835276994835323,"187":-0.059548031357781105,"188":-0.03286315783956337,"189":0.10695436598229971,"190":-0.019216710352330822,"191":-0.030662954689424662,"192":-0.10102478211119209,"193":-0.039155503034312894,"194":0.09995888657422321,"195":-0.16870068910248112,"196":0.03358055220643816,"197":0.12100860817749183,"198":-0.04986224530036034,"199":-0.03083804788210598,"200":-0.05461975080503255,"201":-0.039238595820635956,"202":-0.05320305023263514,"203":-0.07878539618855696,"204":-0.007726681475074705,"205":0.058177042312459716,"206":-0.0299807391538021,"207":-0.04854269374056311,"208":-0.015740020608301174,"209":0.07417039884084205,"210":0.00042498926379271203,"211":-0.0016498075268231445,"212":0.0033180467043339677,"213":0.008299603078262743,"214":0.005807145004165818}},{"sx":1,"sy":1,"depth":215,"w":{"0":0.000846643325014541,"1":-0.16181088118259734,"2":-0.028460424019599053,"3":0.021519564761528026,"4":-0.08043104323450978,"5":0.00037257893565067096,"6":0.04211166867794446,"7":0.07557152909610312,"8":-0.017958782628958746,"9":-0.013030137619907381,"10":0.014817364523625491,"11":0.03559050216514618,"12":-0.13639185009305002,"13":0.08055819833276197,"14":0.026703219846169926,"15":0.12634334297148728,"16":-0.008506855003082223,"17":-0.0455297705270886,"18":0.032939901670596315,"19":-0.08134324648937366,"20":0.003760445061818674,"21":0.09181850137415955,"22":0.0067915902652010765,"23":0.0028634348679365197,"24":-0.22142823435105993,"25":-0.14242620690250912,"26":0.1346711532995847,"27":0.05167871272269757,"28":-0.130319082326407,"29":-0.0302035071874288,"30":0.04509152233082832,"31":-0.09746574170407807,"32":-0.012837722648640774,"33":-0.01894375143402488,"34":-0.08207539246468953,"35":0.05242125141115,"36":0.05130655632204891,"37":0.07608038261144924,"38":0.018459361005922808,"39":0.0005713543092180511,"40":-0.04516776381810985,"41":0.036296679252538405,"42":0.06836156444213412,"43":-0.040271217108728045,"44":0.049462954243633166,"45":0.04741718314330386,"46":0.0006097474448690021,"47":0.02293663998188666,"48":-0.005679658940501493,"49":-0.13953920494906732,"50":-0.085721704327285,"51":0.10442127499073496,"52":0.07709570256071878,"53":-0.07569171004586585,"54":0.06104651517156397,"55":0.11353319934956228,"56":0.02479023783780113,"57":-0.031769035302195735,"58":0.07921566117341264,"59":-0.04384019763097703,"60":-0.056246642938372296,"61":-0.005458426385920757,"62":-0.0014147540234371384,"63":0.035023386833260506,"64":-0.08076408354009773,"65":0.06769641328043238,"66":-0.0014676328896287864,"67":0.12156544326935861,"68":0.003424371684371514,"69":-0.060959134551005274,"70":-0.037358223270376585,"71":-0.06817633125143693,"72":0.006758882024731673,"73":0.10823150706181986,"74":-0.10072401428245532,"75":-0.00949038957829179,"76":-0.05866888290457373,"77":-0.060482017906731994,"78":0.022838632072904277,"79":0.020002094470754885,"80":-0.10650934645812875,"81":-0.0790281345685128,"82":0.033977521503055504,"83":-0.006553042285917395,"84":0.04271614286655678,"85":0.05470936802944466,"86":0.030592765400792685,"87":0.05470546763579696,"88":0.004288248814429281,"89":-0.12687435866850905,"90":-0.05448324491217114,"91":-0.06871062262833694,"92":-0.0356830418112641,"93":0.010727068286820227,"94":-0.09978416537292586,"95":0.1259200384919737,"96":-0.03285143405530234,"97":-0.08936325336710861,"98":-0.040764535761355185,"99":0.024632701069791197,"100":-0.017129538479654864,"101":-0.030834623867517875,"102":0.002759986952611789,"103":0.00954308995026817,"104":-0.0324864014254236,"105":-0.06685449383153276,"106":0.01316291186543399,"107":-0.05754429072607055,"108":0.12725059371397504,"109":-0.008576317267619822,"110":0.025264882392281536,"111":-0.03559525729313161,"112":0.023681910406695584,"113":0.142803301474302,"114":-0.016655403368638164,"115":0.062225939183939594,"116":0.021142146937675407,"117":0.12058131758262426,"118":-0.05213442553239223,"119":0.11841912520704825,"120":-0.15450374472069325,"121":0.002468200647583567,"122":-0.00615103606701458,"123":0.1354700673543594,"124":-0.1015566134342415,"125":0.06601851785394354,"126":-0.03330726637166731,"127":-0.0006778098927955395,"128":-0.11558579243753354,"129":-0.03045972690773869,"130":0.14291977421267918,"131":0.13736172477157363,"132":-0.039870487933535266,"133":-0.014485514708455044,"134":0.17312358309951525,"135":-0.021392003445061984,"136":-0.09480536764668206,"137":-0.046648945643609635,"138":-0.00842668404957472,"139":-0.020015286805122334,"140":0.04687179989348341,"141":-0.08161342888342042,"142":-0.04436052684667532,"143":-0.05080506381611646,"144":-0.023292084403320253,"145":0.03844878904590366,"146":0.02605435359042359,"147":0.018891463809218474,"148":0.028544828667544497,"149":-0.02287200612544242,"150":-0.10094874442279328,"151":0.09208071409052121,"152":0.11386348744674314,"153":-0.043435240371829664,"154":0.021519014672713842,"155":-0.04285452247539846,"156":-0.03333913881128573,"157":-0.006313311382853276,"158":-0.03253446709420975,"159":-0.0525156408433616,"160":-0.03963692283184431,"161":0.05257175424332885,"162":-0.04820305171141253,"163":0.04363493236315481,"164":-0.028145500922495303,"165":0.14783453875745067,"166":0.006718986249869927,"167":0.11872241727836767,"168":0.11216198049869652,"169":0.10058875617100167,"170":0.05235053641255649,"171":-0.08138508532022666,"172":0.05220892355846285,"173":-0.047069381846670456,"174":0.09059162313709967,"175":-0.05001843488959969,"176":0.08060945866543642,"177":-0.03571714397252527,"178":0.06253204706900102,"179":0.05991034926588127,"180":-0.014677878368791827,"181":-0.041054184406210684,"182":0.09214166338900191,"183":-0.17643174852125348,"184":0.12604698938099604,"185":-0.0016742509865541873,"186":-0.027038703668820618,"187":0.0833987658948089,"188":0.1479595838497997,"189":0.06927473151687187,"190":-0.03166830770492918,"191":-0.06930252197784116,"192":0.033959810172165615,"193":0.059769104512940055,"194":-0.02278005039422359,"195":-0.09590018141629827,"196":0.05600566056810694,"197":0.027536874613713416,"198":-0.1000094669704411,"199":-0.07391499944648078,"200":0.10184733207715621,"201":0.0031125999781051543,"202":-0.07999020657697484,"203":-0.051353368065630296,"204":0.04650609557326617,"205":-0.173834545158458,"206":-0.03734358532289234,"207":0.014356555815009775,"208":0.02383188728744206,"209":-0.061537756780595074,"210":0.011590021289866673,"211":-0.018965551034251637,"212":0.009444845210835964,"213":-0.13969602387419802,"214":-0.026536229006610183}},{"sx":1,"sy":1,"depth":215,"w":{"0":-0.07969678620631385,"1":0.01963285847046948,"2":0.0012771871033087938,"3":-0.08141533597004508,"4":0.020564249650981838,"5":-0.016103674187715366,"6":0.06423240233912389,"7":0.03940588555823267,"8":-0.010425296250381317,"9":-0.03637517269635513,"10":0.05225563966333195,"11":0.13478346922822554,"12":0.009764535411168156,"13":-0.0336561657593231,"14":-0.022294879364898018,"15":-0.036204980935793614,"16":0.00008681295669306828,"17":-0.17210211443234785,"18":-0.099905984101657,"19":-0.0029902058689498735,"20":-0.011932595063952733,"21":-0.053045777125293146,"22":-0.020444967231484736,"23":0.05892550691548545,"24":-0.06788652095185366,"25":-0.08378686755934375,"26":0.07351791924026611,"27":-0.20247868885760434,"28":-0.004091100410365599,"29":0.05708326462696497,"30":0.005606094619824037,"31":0.07771058516010924,"32":-0.06399334912218722,"33":0.00573846128248373,"34":0.13787695463089747,"35":0.0255925209550587,"36":0.002546879427294122,"37":-0.07763295217355802,"38":-0.02098522748522355,"39":-0.05419946517987761,"40":-0.03683652006285735,"41":-0.01019300601342849,"42":-0.026721744893471948,"43":0.0315336242875014,"44":0.1670803784828986,"45":0.02851293528792736,"46":-0.005178148166058527,"47":0.019260150911003967,"48":-0.09755479233414467,"49":-0.028336823697624094,"50":0.02035018433983824,"51":-0.05490955809964251,"52":0.029337365175411193,"53":-0.00036651525624902806,"54":0.08027099466002463,"55":0.033294523592818766,"56":0.02548343492310105,"57":-0.008100592231422407,"58":0.03503500292681178,"59":0.057829951206092675,"60":-0.08358431617656575,"61":-0.040847638071315355,"62":-0.0641290635074757,"63":-0.017942916422178306,"64":0.06139692885959806,"65":0.03028718832759115,"66":-0.0087767274965669,"67":-0.026716674931050923,"68":-0.021539182039227545,"69":-0.05170272716704101,"70":0.015493110642231632,"71":0.0632383566539918,"72":0.0646957656143513,"73":-0.11743788475681584,"74":0.018710872262495314,"75":0.09646561771472606,"76":0.10528870182602146,"77":0.061775075276693285,"78":-0.0010277460884842975,"79":0.001320071744701414,"80":0.028291133239176734,"81":-0.011687604520023888,"82":0.02262175417056858,"83":0.009868788263758055,"84":-0.005503253820709343,"85":0.11434321890575029,"86":0.041641075968556214,"87":0.04434554095915433,"88":-0.016227929126026264,"89":0.04170032175506066,"90":-0.05566267261503648,"91":0.06864987902169965,"92":-0.17284727590465424,"93":-0.006540227185053645,"94":0.07981649007862829,"95":0.16377597666409807,"96":-0.07584336350253523,"97":0.051758574236502576,"98":0.1832336231300323,"99":0.14347570352661104,"100":-0.01164946861851305,"101":-0.004393086382522488,"102":-0.03156837575225295,"103":0.009276576410998267,"104":-0.0886742698448179,"105":-0.10611424556475647,"106":0.13749603991008255,"107":-0.023367637095173158,"108":0.14225330040939796,"109":-0.01813842354275851,"110":0.09210487913870945,"111":-0.052297077629970164,"112":-0.06923396055010375,"113":0.13940774723950813,"114":-0.02750705779364699,"115":0.026641755228326854,"116":0.020171094883430662,"117":-0.033244499396224786,"118":0.15378328380146727,"119":-0.10951900636823844,"120":0.21436953637825562,"121":0.11630978323539458,"122":0.01465438687213544,"123":-0.03205422479412333,"124":-0.002103202291430652,"125":-0.1170680219480537,"126":0.004265039823318444,"127":0.01491846493888356,"128":0.012488201567840994,"129":0.036043278377116725,"130":0.015291323671187103,"131":-0.006781285877454173,"132":-0.032211516932129584,"133":0.0024873434750164133,"134":0.025370763703904856,"135":-0.09736474120548191,"136":0.0012184911349311088,"137":-0.11041632864098373,"138":0.08141756797085377,"139":-0.05562646605903717,"140":-0.05556573162906521,"141":0.12209530046182727,"142":0.057040969721980556,"143":-0.09772084974491385,"144":-0.1400899803007463,"145":-0.006734723732887425,"146":-0.009657832843428237,"147":-0.018025704330323907,"148":-0.015183738228959704,"149":-0.11645288271217843,"150":-0.01660018735323007,"151":-0.0727342941808651,"152":0.05329202964691156,"153":0.0076316446293418945,"154":-0.11833161275917588,"155":-0.10227639530250704,"156":-0.02617778473588772,"157":-0.029046092153667543,"158":-0.026908501313536202,"159":-0.03208383096560717,"160":-0.049821066259797556,"161":0.03630244903502765,"162":-0.035990031455133534,"163":0.018292007958900968,"164":0.1094226619349223,"165":0.043545643636758925,"166":-0.02464572491111039,"167":0.006286030826787551,"168":0.11059896005443152,"169":-0.03150602909988199,"170":-0.07787505996525894,"171":-0.09443562083422426,"172":-0.00979653592338718,"173":0.01723379415003539,"174":-0.05634720162639317,"175":0.20431045304239157,"176":-0.0709209398284792,"177":0.03947685163929192,"178":0.040193533863155065,"179":-0.010372095917198421,"180":0.0495438303577042,"181":-0.05447495215232157,"182":-0.1078513548486344,"183":-0.030218011123749257,"184":-0.07366801400749258,"185":-0.04512178349347473,"186":-0.0627398040873306,"187":0.06559957350256419,"188":0.10696874196548287,"189":0.11948011562854381,"190":0.047166778664695395,"191":-0.07856898930524332,"192":0.011705757315609749,"193":0.11525571530521496,"194":0.05735365413923594,"195":-0.1340022325517238,"196":0.083174865655685,"197":-0.017189915365236293,"198":-0.01782462567238056,"199":0.05889884044725281,"200":-0.11553842339227556,"201":0.04199337660989035,"202":0.02049898639055603,"203":0.09050076490687416,"204":0.011262389318452337,"205":-0.030564411615853028,"206":0.016991957485611116,"207":0.0350881194638283,"208":0.030864959717081232,"209":-0.06719341828590995,"210":0.0027556098566668707,"211":0.02096400936747468,"212":0.00966487703133731,"213":-0.009904849967288245,"214":0.0046315992112773005}}],"biases":{"sx":1,"sy":1,"depth":5,"w":{"0":0.09896287733912926,"1":0.09540484265334209,"2":0.09760007656185696,"3":0.09829753453343573,"4":0.09839924766472936}}},{"out_depth":5,"out_sx":1,"out_sy":1,"layer_type":"relu"},{"out_depth":5,"out_sx":1,"out_sy":1,"layer_type":"fc","num_inputs":5,"l1_decay_mul":0,"l2_decay_mul":1,"filters":[{"sx":1,"sy":1,"depth":5,"w":{"0":0.802172402862697,"1":0.44347610356292394,"2":0.6567202418246438,"3":0.291524662942502,"4":-0.6069449018741562}},{"sx":1,"sy":1,"depth":5,"w":{"0":0.8872767004842397,"1":-1.040176960353821,"2":0.5591090463447774,"3":0.06665677343453272,"4":-0.6815200153637199}},{"sx":1,"sy":1,"depth":5,"w":{"0":0.7681546666358182,"1":-0.04504346677387869,"2":0.6947451681972092,"3":0.3877949195577406,"4":0.38396435315552335}},{"sx":1,"sy":1,"depth":5,"w":{"0":0.9254105253382487,"1":-0.3959486444013826,"2":0.2950942632635092,"3":-0.6981385512733923,"4":-0.20074178995806163}},{"sx":1,"sy":1,"depth":5,"w":{"0":1.0191325262847282,"1":0.1266822196401912,"2":-0.1384664901804363,"3":-0.11626775758577484,"4":0.028084828912432736}}],"biases":{"sx":1,"sy":1,"depth":5,"w":{"0":0.02560200365229132,"1":-0.03273315271129151,"2":0.07733071676321372,"3":0.08727156548934623,"4":0.011074827735428108}}},{"out_depth":5,"out_sx":1,"out_sy":1,"layer_type":"regression","num_inputs":5}]});
}if (brain) {
brain.value_net.fromJSON({"layers":[{"out_depth":215,"out_sx":1,"out_sy":1,"layer_type":"input"},{"out_depth":5,"out_sx":1,"out_sy":1,"layer_type":"fc","num_inputs":215,"l1_decay_mul":0,"l2_decay_mul":1,"filters":[{"sx":1,"sy":1,"depth":215,"w":{"0":0.02876943518267805,"1":0.047554502033128845,"2":0.2972435953785901,"3":0.04239267887515766,"4":-0.048730614004587544,"5":-0.002359980322384051,"6":0.1545003678874687,"7":0.3714705143556873,"8":0.08741206137709323,"9":-0.003680294397823457,"10":0.0539112436124501,"11":0.007052829711919653,"12":0.3482373145166488,"13":0.22943089919713952,"14":0.053100363388118646,"15":0.015462687350547597,"16":0.10320324008875664,"17":0.7054155630608067,"18":0.14142262229453242,"19":0.07004395992736705,"20":-0.11960919166724004,"21":0.12983007780533143,"22":0.9007255362323087,"23":0.15461858494504457,"24":-0.0021088711294919306,"25":-0.02821931816664635,"26":-0.00784273328026025,"27":0.7709269362657744,"28":0.09065512236674392,"29":-0.0731243112094148,"30":0.0690141595812695,"31":-0.16262402809866805,"32":0.7389200824373884,"33":0.17186412254250583,"34":0.04245613352871767,"35":-0.011702050680569018,"36":0.05373625631640009,"37":0.047090276985144404,"38":0.10553407708510797,"39":0.10632860720601443,"40":-0.09192475554065051,"41":0.09716358772486319,"42":0.04379602633624074,"43":0.14873343246596749,"44":-0.007910165300411802,"45":-0.02872924231520349,"46":0.18836171704145713,"47":-0.02988940771853227,"48":0.14113719987701434,"49":-0.01909219263839977,"50":0.0458895575549933,"51":0.16150339013955384,"52":0.27111770383616723,"53":-0.030725546978184387,"54":-0.10329080775729939,"55":-0.04893015758903318,"56":0.03719377651223442,"57":0.15599825912809784,"58":-0.03377443005257374,"59":0.10268276715981485,"60":-0.010652899822747518,"61":0.017375543168385313,"62":0.011209129768535858,"63":0.02856339805053313,"64":0.011727346577283937,"65":-0.0504136307307664,"66":0.06682722542399908,"67":0.17541065084169136,"68":0.037274095885288905,"69":-0.03810413152699577,"70":0.07602104941380344,"71":0.1093151178343471,"72":0.15651929335508774,"73":0.11873410246608908,"74":0.08871630376164585,"75":0.06983801165600824,"76":-0.0046872371305104734,"77":0.08602660778522321,"78":0.12482281136130062,"79":-0.11767373646154536,"80":-0.009008350863922512,"81":-0.0004223435020750717,"82":0.1609430699292388,"83":0.0633265136656266,"84":0.049012833797591554,"85":-0.02381123626996826,"86":0.09436841440670259,"87":0.076027496551652,"88":0.16563854139343676,"89":-0.029136055435350878,"90":0.028192324950199733,"91":-0.047796211833748554,"92":0.038213684487302356,"93":0.14645009469729392,"94":-0.035782870193325135,"95":-0.08231261207198977,"96":0.17001150107646085,"97":0.10266881308419494,"98":0.1255473870964262,"99":0.007335020048238061,"100":0.005721983679381926,"101":0.01785086640218244,"102":0.017242722180497508,"103":0.03199315131392358,"104":0.027656200853662216,"105":-0.04477475563772997,"106":0.12005545544250683,"107":0.06194612865348551,"108":-0.01929626885733478,"109":-0.02601409525445861,"110":0.0060652921788040895,"111":0.050455536489821734,"112":0.03791829684716249,"113":-0.10179026822586157,"114":-0.05948430002727502,"115":0.011518864826192562,"116":-0.0442156340147813,"117":-0.10734229265991362,"118":-0.0070834349380011095,"119":-0.07339139171937344,"120":0.06358258181313782,"121":-0.007858253272582274,"122":0.022793013485938093,"123":-0.05406429055650174,"124":-0.003319844321090338,"125":-0.033514108480449896,"126":0.08007692549397942,"127":0.0516988143445548,"128":0.048550019112960384,"129":0.01186346626895991,"130":0.06516367821144277,"131":0.022526781087689407,"132":0.06153147017833667,"133":0.10978252187092817,"134":-0.02517016096892942,"135":-0.05049531727851013,"136":0.0175151715809687,"137":-0.04549834736369764,"138":0.10004009245500715,"139":0.10786574137559952,"140":-0.03294965154088308,"141":0.09421282824427239,"142":-0.054756798899200626,"143":0.07321586371866436,"144":-0.1193494243343255,"145":0.01857726892117575,"146":-0.040205764477142046,"147":-0.019529696125641243,"148":0.13190710989698354,"149":0.02427054657873766,"150":-0.030665859001629242,"151":0.07769314854839394,"152":-0.06816791336066914,"153":0.09112204585719191,"154":-0.04009450550724998,"155":0.017891333960020964,"156":0.022449290953347738,"157":0.012833094982835622,"158":0.01855144942590261,"159":0.024244349162733474,"160":0.009176268041203198,"161":0.018006905222280923,"162":-0.03409935345048861,"163":0.01966013861619304,"164":-0.028626355201577153,"165":0.004671653887026627,"166":0.013296953537775432,"167":0.07868153949178511,"168":-0.1005270561880967,"169":0.07738406016756118,"170":0.05694946044582734,"171":0.06525043342717476,"172":-0.12239409218853975,"173":-0.011768315321361422,"174":-0.012404714222406197,"175":-0.008413076530134723,"176":-0.049600048940777394,"177":-0.03367847475306322,"178":-0.0782007104151215,"179":-0.06338199654673626,"180":-0.013441532980653278,"181":0.011361253825396,"182":-0.0024429911505724675,"183":0.04718060189624386,"184":0.01958072872166935,"185":-0.0242931418683902,"186":0.054678691359791344,"187":-0.02200973624027479,"188":0.03376492699368805,"189":-0.032300899605196956,"190":0.07103751981133817,"191":0.04850763869148834,"192":0.0010090649860245284,"193":0.06980679958833451,"194":-0.038281019289222125,"195":-0.010799433256837524,"196":0.02525044359491658,"197":0.07224045550240651,"198":0.039090353507318196,"199":-0.002873909121015668,"200":0.0312321114696218,"201":0.04198148203982346,"202":-0.08952006986444305,"203":0.07940389797415999,"204":0.048367751350561254,"205":-0.02803888811315171,"206":0.04780300806126441,"207":-0.001370649009935543,"208":0.1292217066374653,"209":-0.052913532595156625,"210":0.09148852191506886,"211":0.09795794324695414,"212":0.08662171078782435,"213":0.09809029593121751,"214":0.08911920798460936}},{"sx":1,"sy":1,"depth":215,"w":{"0":0.03209974029119625,"1":-0.01603389719981896,"2":-0.016520930429626893,"3":0.09622068800852465,"4":-0.04806099385379634,"5":0.020172470096501843,"6":0.027282095705535293,"7":-0.05715698906669342,"8":-0.004822888376286147,"9":-0.12711668394302575,"10":-0.023745003547014774,"11":-0.05884659794584743,"12":0.004202313333952176,"13":-0.0027896715216597944,"14":-0.0026067922809695026,"15":-0.04829385090778899,"16":0.0750405694415068,"17":-0.025182523924009798,"18":-0.032481536833605794,"19":-0.05587756871846567,"20":0.09771820474979173,"21":-0.04631695340903354,"22":-0.1353573122742236,"23":-0.057523516393036746,"24":0.019227911876215184,"25":0.0019392648046993898,"26":-0.10473106273081144,"27":0.05194523247157997,"28":0.061432065477011286,"29":-0.0030312874886832095,"30":-0.04438705644829063,"31":0.012135544043172193,"32":-0.02875214169899679,"33":0.05502175077082992,"34":0.11669240707022752,"35":-0.08000847248629264,"36":0.008445081517905727,"37":0.06163860314760723,"38":0.09920633409997115,"39":-0.07344735977597537,"40":0.02969328229119517,"41":0.1387472643471513,"42":0.04064005107122751,"43":-0.09531771287376048,"44":0.043137199399307775,"45":0.03270790474516143,"46":-0.07373466037508336,"47":0.10385821452935129,"48":0.021936893091661358,"49":-0.08239894159693212,"50":0.1548806932138971,"51":0.012238875384352272,"52":0.002516752950512088,"53":0.09645174236189759,"54":0.04597332385086961,"55":0.04417262479330595,"56":-0.012990496903298445,"57":0.025135414310640578,"58":-0.05591919804267937,"59":0.0527994510839836,"60":-0.08809967398373378,"61":-0.07170596728379328,"62":0.01927639023565714,"63":-0.10357996766399322,"64":-0.02468688246409862,"65":0.0005827534996127649,"66":0.009652944022853948,"67":0.0706900966166857,"68":-0.09549024865753244,"69":-0.013944601323391299,"70":-0.028774387107085284,"71":0.04839477462718875,"72":0.008005992945062582,"73":-0.06910929744471518,"74":0.020264222676807886,"75":-0.10450621432440191,"76":-0.11573414449762073,"77":0.07089981265624452,"78":0.07968037608101007,"79":-0.025501627731684007,"80":0.060792804573504985,"81":-0.055877366641182244,"82":-0.0042338434294227,"83":0.06244963540980776,"84":-0.014233541502983863,"85":-0.04592392642045866,"86":0.10931382912337859,"87":-0.006559348902247841,"88":-0.03857760313834815,"89":-0.06858058353011186,"90":0.03447930430343468,"91":0.008776564079948979,"92":-0.08766598876914627,"93":-0.067968847512409,"94":-0.11009013040368545,"95":-0.03135740846734329,"96":0.08784407653908427,"97":-0.08539064741148575,"98":0.022402737122716013,"99":0.014745496842886965,"100":-0.12323745815739678,"101":-0.0035236360832783067,"102":-0.005287311966427823,"103":-0.039534433737943596,"104":-0.010570443523657531,"105":0.06277739427952211,"106":-0.13292491631780629,"107":-0.11342209535344072,"108":0.08918400767687105,"109":0.08492587661183028,"110":-0.016618152977920575,"111":0.0002668342401373235,"112":0.049400598784328016,"113":-0.13384459957189587,"114":0.011593198658905316,"115":0.10511507754322715,"116":-0.07356750433767557,"117":-0.027635313650665436,"118":-0.18909290773046608,"119":0.11726331763347256,"120":-0.045273992526823834,"121":-0.13353743803036933,"122":-0.06436110539575383,"123":-0.1980282470149733,"124":-0.07974455631342117,"125":-0.02020630077513698,"126":0.03974507377563721,"127":-0.036573844792231226,"128":-0.00890345763635274,"129":-0.05029081635803884,"130":-0.10894582863157881,"131":0.05152296878953118,"132":0.0325234701226484,"133":0.04706072740814446,"134":-0.13785324410430227,"135":-0.03275689824466105,"136":0.003968828649414026,"137":0.016242079995991702,"138":0.011637178213635661,"139":0.030680300553533112,"140":-0.068403632809417,"141":-0.06725787104723896,"142":-0.13561972855211557,"143":-0.021644857765079944,"144":-0.06391434750694794,"145":0.1380230706589023,"146":0.11087377761869716,"147":-0.0514532613942527,"148":0.11451247135154727,"149":0.06486105742579916,"150":-0.1450462540415883,"151":0.05497199502809581,"152":0.11601732166756497,"153":-0.06820281913550431,"154":-0.08776122775434858,"155":-0.0046485496096335425,"156":-0.03113585355937273,"157":-0.20219237054583045,"158":-0.021363886200697818,"159":-0.04585424183425938,"160":0.003644927477984436,"161":0.04127261650287299,"162":0.018871356258698967,"163":-0.025051663423689193,"164":-0.0109690597062459,"165":0.11191859550243717,"166":-0.024178222542020282,"167":-0.0031561762406754844,"168":0.04603829539662247,"169":-0.009179223020022671,"170":-0.027515320768805297,"171":0.05396331933511613,"172":-0.04268073600714905,"173":0.042509080134160195,"174":-0.0795284848859384,"175":-0.040988139205538975,"176":-0.006890947794970744,"177":-0.14986472838800488,"178":0.010808636650807842,"179":-0.013332907560148488,"180":0.10538870152299724,"181":0.022051022323682085,"182":0.040538237510370445,"183":-0.06908979743853418,"184":0.002213037957412596,"185":0.10181535016227697,"186":0.00984144038983196,"187":-0.01370740537660871,"188":-0.10568611956108591,"189":0.024360845010985257,"190":-0.012944841072265647,"191":-0.02048438011468719,"192":0.0022466033145967716,"193":-0.0022564081673528665,"194":0.009824919891271211,"195":-0.0627614512509904,"196":-0.0381379945164378,"197":-0.051564908693182164,"198":0.04776035380750132,"199":-0.003996771353524698,"200":0.04709671175598815,"201":0.1029142043840088,"202":0.015812438248942177,"203":-0.06188914782128993,"204":-0.04451371792929703,"205":-0.11685481064548361,"206":0.01704549355012475,"207":-0.019509813483498315,"208":0.012628638707804984,"209":-0.08632958980103769,"210":-0.01333431026542121,"211":-0.0288054313372231,"212":-0.09514633290824824,"213":0.005290906632421944,"214":-0.022964824289734044}},{"sx":1,"sy":1,"depth":215,"w":{"0":0.03180989189114589,"1":0.002040585022341868,"2":0.1788987177280107,"3":0.05345173733603885,"4":-0.011015281657505014,"5":-0.06275023088299582,"6":0.15331388550460112,"7":0.18537807284634955,"8":-0.09694405981030446,"9":0.10311782248084163,"10":0.09978867371809295,"11":0.0026512569424550587,"12":0.17310385985075064,"13":-0.013439440885237134,"14":-0.046044687270105085,"15":-0.09303808454504672,"16":0.08875981281086927,"17":0.5306828432585909,"18":-0.007326646215075855,"19":0.0412902303651078,"20":0.0424586907158618,"21":0.12053183584535314,"22":0.497299620932328,"23":-0.06652166903591568,"24":0.021103263025304807,"25":0.04322464858998113,"26":0.05560808978919874,"27":0.3336324694009253,"28":-0.00732551754965727,"29":0.06406504209426847,"30":-0.06181070057262304,"31":0.004151097820081402,"32":0.38451006974893,"33":-0.1024770407457502,"34":0.012469163183487966,"35":-0.03442003598937308,"36":-0.004397959184512771,"37":0.11900253391821833,"38":0.10425519676346653,"39":-0.10492457469684838,"40":-0.010503903909020822,"41":-0.09346154137956517,"42":-0.06873169212968204,"43":0.08516019402368444,"44":-0.0322831110761445,"45":0.0333718673148994,"46":0.038212310590927716,"47":-0.11083952754398582,"48":-0.09662112801424104,"49":-0.055976632230043954,"50":0.03889454021321813,"51":-0.02504377578597261,"52":0.043199893541926694,"53":0.0016643119788403648,"54":0.011431530277405273,"55":0.021179391572952184,"56":0.011920849492884068,"57":0.09316489431477475,"58":0.1215822612826868,"59":-0.03587764682171063,"60":0.0987258713448645,"61":-0.04120378220518034,"62":0.033713920118700405,"63":-0.042805612211545684,"64":-0.020891258398869832,"65":-0.0462098698400145,"66":-0.020465826221737496,"67":0.13579566405637675,"68":-0.06487096584268764,"69":-0.02473018380064021,"70":-0.058742464640405244,"71":-0.061306904060330236,"72":0.07015141596707647,"73":0.025727035305691856,"74":-0.12905477493703124,"75":0.009305236373393895,"76":0.06709581737461152,"77":0.11202040899181716,"78":0.034932904787285786,"79":0.007004892380534213,"80":-0.008103934780191275,"81":0.04139575842419817,"82":0.008308539790338527,"83":-0.08485713795329493,"84":0.011140316329563254,"85":-0.06783412651796812,"86":0.04838143899535121,"87":-0.059611954042227105,"88":-0.016945780607452336,"89":0.06202039467404037,"90":-0.021325359437561208,"91":-0.0017357089028210934,"92":0.08362382921755486,"93":-0.002782064889471218,"94":0.0024192883832799632,"95":0.08993123828880856,"96":0.03836937909507139,"97":0.06739698302551442,"98":-0.06407251845960626,"99":-0.024236553623352843,"100":-0.009011800422745827,"101":-0.024733232536341142,"102":-0.04725761311668756,"103":-0.047774161610978756,"104":-0.00887805206361633,"105":0.08308830451305127,"106":0.0008977217089783071,"107":-0.012413423248624655,"108":0.0195662053890717,"109":0.03571457405784079,"110":-0.05005737095630708,"111":-0.02924924756616234,"112":0.10003206601093291,"113":-0.06901740911342752,"114":0.031235260809243742,"115":-0.10235711742542097,"116":0.04023111671942545,"117":-0.030437716736339496,"118":0.19255322301198688,"119":0.028947139898936596,"120":-0.04027745374381887,"121":0.02345062813610812,"122":0.07648046683732102,"123":0.04766982442383638,"124":0.00901478546979355,"125":-0.04640682583689406,"126":-0.07324652863926494,"127":0.010424000577912745,"128":-0.057842370241221894,"129":-0.06740594926710161,"130":0.07742233695803326,"131":0.07348469432209442,"132":-0.00549562344670188,"133":-0.03302682192624978,"134":-0.030951730568802852,"135":0.04936245220102092,"136":0.03329811110205003,"137":-0.1521688903267647,"138":0.002405605178548559,"139":0.00682861001838205,"140":0.08174208337186671,"141":-0.06474715356050512,"142":0.056737537615426256,"143":-0.024561110083234226,"144":-0.021857269120836565,"145":0.016127340669873223,"146":0.0076547436588634945,"147":-0.08988241339277153,"148":-0.06592530326283645,"149":-0.1452601856481472,"150":0.04371234532371631,"151":-0.04054555551345333,"152":0.008067368311321248,"153":0.08228212573329902,"154":0.02370440333408364,"155":-0.011465159570633425,"156":0.018701045687429967,"157":0.020533145017784613,"158":0.022847853902478617,"159":0.0007828097435397814,"160":-0.04477353571432764,"161":-0.0018124255566076574,"162":0.016294816051714688,"163":0.03880123454425109,"164":-0.04338113485812186,"165":-0.012963832624983278,"166":0.06598026710717153,"167":-0.02570657642744811,"168":-0.014260281818401771,"169":-0.13612988765844425,"170":0.009400310395290235,"171":-0.002416319324694464,"172":-0.10757809994224429,"173":-0.07932332027053175,"174":-0.049799771468182666,"175":-0.034959245101330264,"176":0.041290474629898676,"177":0.08083205036360472,"178":-0.001081961509300344,"179":0.10506714814308947,"180":-0.009700218941318825,"181":-0.04039429631620984,"182":0.0959313575856732,"183":0.09674926636493121,"184":-0.02183588379188565,"185":0.11460896071561813,"186":-0.07823661244606601,"187":-0.05945975176545508,"188":-0.03281443840903863,"189":0.10679580678880359,"190":-0.01918822169675193,"191":-0.03061749704661478,"192":-0.10087501348952281,"193":-0.03909745524051725,"194":0.09981069813616879,"195":-0.16845059136256446,"196":0.03353076924315118,"197":0.12082921365588829,"198":-0.04978832482663163,"199":-0.03079233066470892,"200":-0.054538777358487465,"201":-0.03918042484229326,"202":-0.053124177036025184,"203":-0.07866859732051457,"204":-0.007715226717039899,"205":0.05809079520300936,"206":-0.029936292891351853,"207":-0.0484707294939523,"208":-0.015716686124006424,"209":0.07406044167814434,"210":0.00372779919799361,"211":-0.02218556759653936,"212":0.0007058142627457985,"213":-0.0020885087679896152,"214":0.01807516981128221}},{"sx":1,"sy":1,"depth":215,"w":{"0":0.0008453881814627954,"1":-0.1615709975407869,"2":-0.02841823161503748,"3":0.021487662138370413,"4":-0.08031180470478536,"5":0.0003720265896570498,"6":0.04204923838666084,"7":0.07545949476637075,"8":-0.01793215884353707,"9":-0.013010820520570801,"10":0.014795397871333759,"11":0.03553773946333768,"12":-0.13618965000938252,"13":0.0804387712963816,"14":0.026663632486049676,"15":0.12615603973817452,"16":-0.00849424364256323,"17":-0.045462272920715925,"18":0.03289106846781151,"19":-0.08122265562390299,"20":0.0037548702250112752,"21":0.09168238100738217,"22":0.006781521774166331,"23":0.002859189843255961,"24":-0.22109996834776402,"25":-0.1422150609217739,"26":0.13447150413839082,"27":0.05160209934712381,"28":-0.1301258850838152,"29":-0.03015873067273083,"30":0.04502467442472671,"31":-0.09732124933804666,"32":-0.012818690803322381,"33":-0.01891566743837318,"34":-0.08195371619728707,"35":0.05234353722651134,"36":0.051230494666063345,"37":0.07596759390949227,"38":0.018431995116118458,"39":0.000570507279948711,"40":-0.04510080288446988,"41":0.03624286964751642,"42":0.06826021884090915,"43":-0.04021151527564014,"44":0.04938962571645448,"45":0.0473468874592704,"46":0.0006088434980108545,"47":0.022902636553380887,"48":-0.005671238880855733,"49":-0.139332338931073,"50":-0.08559462242484493,"51":0.10426647108914257,"52":0.07698140865314623,"53":-0.07557949754860938,"54":0.06095601408614785,"55":0.11336488707583144,"56":0.024753486461809616,"57":-0.03172193790164148,"58":0.07909822444016124,"59":-0.04377520480609084,"60":-0.05616325763418866,"61":-0.005450334302184253,"62":-0.0014126566592492272,"63":0.034971464876463264,"64":-0.08064435128015737,"65":0.0675960537617357,"66":-0.0014654571328451302,"67":0.12138522324313662,"68":0.003419295074290958,"69":-0.060868763006824714,"70":-0.037302839932840066,"71":-0.0680752602572842,"72":0.0067488620234634695,"73":0.10807105451448291,"74":-0.10057469154725272,"75":-0.00947632013377977,"76":-0.05858190664445304,"77":-0.06039235368505878,"78":0.022804773940524253,"79":0.01997244148802339,"80":-0.10635144700335536,"81":-0.07891097584230566,"82":0.033927150035214536,"83":-0.00654332744080321,"84":0.04265281644598484,"85":0.05462826172591246,"86":0.03054741181317391,"87":0.05462436711457448,"88":0.004281891511786367,"89":-0.12668626820767487,"90":-0.05440247383477717,"91":-0.06860875955048547,"92":-0.03563014191999616,"93":0.010711165473685686,"94":-0.09963623595798334,"95":0.1257333628049643,"96":-0.03280273200521619,"97":-0.08923077289048517,"98":-0.0407041025863816,"99":0.02459618324109486,"100":-0.017104144043613337,"101":-0.030788911726201268,"102":0.005330563865097279,"103":-0.003995836890085477,"104":-0.03243824053397881,"105":-0.06675538245327185,"106":0.013143397929090445,"107":-0.05745898166697718,"108":0.12706194548698674,"109":-0.008563602929718413,"110":0.02522742735864068,"111":-0.035542487541874924,"112":0.023646802119342836,"113":0.14259159645317018,"114":-0.016630711834999125,"115":0.062133689609637756,"116":0.02111080383413367,"117":0.12040255651671389,"118":-0.05205713656536483,"119":0.1182435695781128,"120":-0.15427469386400172,"121":0.0024645415552176373,"122":-0.00614191719366152,"123":0.13526923380796527,"124":-0.10140605637588743,"125":0.06592064580495711,"126":-0.033257888552959594,"127":-0.0006768050437745675,"128":-0.11541443720710187,"129":-0.03041457054887231,"130":0.14270789652142477,"131":0.13715808685462533,"132":-0.03981138017899912,"133":-0.014464040021484952,"134":0.17286692844629523,"135":-0.021360289930775853,"136":-0.09466481926892178,"137":-0.046579788866971644,"138":-0.008414191542004006,"139":-0.019985614264835763,"140":0.046802312736782516,"141":-0.08149243747420214,"142":-0.044294762636908264,"143":-0.05072974561970409,"144":-0.02325755403063349,"145":0.038391788951273924,"146":0.026015728170559436,"147":0.018863457329650748,"148":0.02850251113360882,"149":-0.022838098516233647,"150":-0.10079908852653176,"151":0.0919442049949955,"152":0.11369468552292754,"153":-0.04337084789360356,"154":0.021487112865059655,"155":-0.042790990907902615,"156":-0.03328971374188101,"157":-0.017254062628935123,"158":-0.03248623494570498,"159":-0.052437786726967105,"160":-0.03957816133614308,"161":0.052493816939162136,"162":-0.04813159098203269,"163":0.04357024384277297,"164":-0.028103775389499718,"165":0.14761537495781576,"166":0.006709025393844034,"167":0.1185464120207911,"168":0.11199570104852609,"169":0.10043963395512201,"170":0.05227292706247134,"171":-0.08126443242894296,"172":0.052131524148567504,"173":-0.04699960177593222,"174":0.09045732160980575,"175":-0.04994428286576019,"176":0.08048995563592631,"177":-0.035664193525011836,"178":0.06243934369163245,"179":0.05982153253947223,"180":-0.014656118503871668,"181":-0.040993321828892516,"182":0.09200506393651432,"183":-0.17617018953302704,"184":0.12586012549007078,"185":-0.001671768919705389,"186":-0.02699861895598499,"187":0.08327512773438893,"188":0.14774023467157835,"189":0.06917203215104266,"190":-0.03162135963242199,"191":-0.06919978141282371,"192":0.03390946496126426,"193":0.05968049718101338,"194":-0.022746279108823892,"195":-0.09575800998381956,"196":0.05592263251881332,"197":0.027496051365498465,"198":-0.09986120354725823,"199":-0.07380542091182249,"200":0.10169634403019273,"201":0.0031079855676725125,"202":-0.07987162158489891,"203":-0.05127723701152101,"204":0.04643715057098336,"205":-0.17357683650833333,"206":-0.03728822368602326,"207":0.014335272308810555,"208":0.02379655666028057,"209":-0.0614465274324978,"210":0.009747138524537848,"211":-0.018937434720825885,"212":0.0003064332236164454,"213":-0.13948892537310562,"214":-0.026496889209388436}},{"sx":1,"sy":1,"depth":215,"w":{"0":-0.07957863620814189,"1":0.01960375287785015,"2":0.0012752936812386927,"3":-0.08129463823235966,"4":0.020533763276633508,"5":-0.01607980058921303,"6":0.0641371781954654,"7":0.03934746657387656,"8":-0.010409840812445326,"9":-0.036321246725282696,"10":0.052178170997096665,"11":0.13458365355935323,"12":0.00975005954713544,"13":-0.03360627069940686,"14":-0.022261827342582353,"15":-0.03615130727296543,"16":0.0000866842570156696,"17":-0.171846974100181,"18":-0.09975787409119467,"19":-0.0029857729070355524,"20":-0.011914905064743369,"21":-0.05296713708510277,"22":-0.02041465769259384,"23":0.05883815021183824,"24":-0.06778587959969784,"25":-0.08366265404058003,"26":0.07340892937458605,"27":-0.20217851543961846,"28":-0.0040850353790260995,"29":0.056998639036244095,"30":0.0055977836188338135,"31":0.07759537969284326,"32":-0.06389847937346078,"33":0.005729954048725604,"34":0.13767255288883404,"35":0.025554580199252212,"36":0.002543103694118436,"37":-0.0775178617967197,"38":-0.02095411701381036,"39":-0.0541191148042016,"40":-0.0367819101471354,"41":-0.010177894944348221,"42":-0.026682130070082355,"43":0.03148687588233686,"44":0.16683268284356662,"45":0.028470665035731972,"46":-0.00517047159306895,"47":0.019231597855062444,"48":-0.09741016795109897,"49":-0.028294814529784256,"50":0.020320015316004213,"51":-0.05482815501555538,"52":0.029293872710949312,"53":-0.0003659718996230368,"54":0.0801519934013328,"55":0.033245164665203115,"56":0.025445655886669718,"57":-0.00808858315297805,"58":0.03498306374922681,"59":0.05774421865708497,"60":-0.08346040293898667,"61":-0.04078708169767561,"62":-0.06403399256300231,"63":-0.01791631615831113,"64":0.06130590828803255,"65":0.030242287756114726,"66":-0.008763716051726723,"67":-0.026677067623849433,"68":-0.021507250333575846,"69":-0.05162607819020024,"70":0.015470142200451634,"71":0.06314460617698216,"72":0.06459985453747016,"73":-0.11726378381084723,"74":0.01868313350879125,"75":0.0963226080263921,"76":0.10513261196945088,"77":0.0616834941053767,"78":-0.0010262224611932308,"79":0.0013181147464126975,"80":0.028249191807162344,"81":-0.011670277717797651,"82":0.022588217558352577,"83":0.009854157845508919,"84":-0.005495095280574909,"85":0.11417370578298139,"86":0.04157934332808598,"87":0.04427979896587428,"88":-0.016203871320337727,"89":0.04163850128307431,"90":-0.055580153043285965,"91":0.0685481059958738,"92":-0.17259103087515976,"93":-0.006530531338248111,"94":0.0796981626201988,"95":0.16353317978025547,"96":-0.07573092617995765,"97":0.05168184246672325,"98":0.18296198040429298,"99":0.14326300167354913,"100":-0.01163219835252765,"101":-0.004386573658826026,"102":-0.03152157582825396,"103":0.006243015398973813,"104":-0.08854281078205428,"105":-0.10595693184464113,"106":0.13729220287176405,"107":-0.0233329947160828,"108":0.14204241076147867,"109":-0.018111533440780703,"110":0.09196833421864778,"111":-0.05221954753220325,"112":-0.06913132162698346,"113":0.13920107610676485,"114":-0.027466278748685444,"115":0.026602258989126635,"116":0.02014119135862094,"117":-0.03319521462917429,"118":0.1535553010236822,"119":-0.10935664511105357,"120":0.21405173485153672,"121":0.11613735469303228,"122":0.014632661833215377,"123":-0.032006704601891325,"124":-0.0021000843068955965,"125":-0.1168944693214374,"126":0.004258716927862996,"127":0.014896348405844534,"128":0.012469687885387458,"129":0.035989844437342794,"130":0.015268654377357643,"131":-0.006771232662611329,"132":-0.03216376355526493,"133":0.0024836560035258436,"134":0.025333151701866854,"135":-0.09722039857207208,"136":0.0012166847292751624,"137":-0.11025263710901735,"138":0.0812968669242406,"139":-0.055544000163284285,"140":-0.055483355771733495,"141":0.1219142949255583,"142":0.056956406833198,"143":-0.09757597918277192,"144":-0.13988229776166108,"145":-0.006724739546139142,"146":-0.009643515165299687,"147":-0.017998981333889177,"148":-0.015161228429890357,"149":-0.11628024202571717,"150":-0.016575577676996172,"151":-0.07262646603454366,"152":0.053213024538863896,"153":0.007620330762849684,"154":-0.11815618686690978,"155":-0.10212477117193536,"156":-0.02708951111467628,"157":-0.029003031499679102,"158":-0.027982711149860368,"159":-0.032991439117097086,"160":-0.04974720683374475,"161":0.036248630876338395,"162":-0.035936676453596,"163":0.018264890168965365,"164":0.10926044350777091,"165":0.04348108748636725,"166":-0.02460918777464898,"167":0.006276711824528623,"168":0.11043499777251106,"169":-0.03145932160441433,"170":-0.07775961066509957,"171":-0.0942956206038512,"172":-0.009782012618790805,"173":0.01720824515559997,"174":-0.05626366724456893,"175":0.20400756404520282,"176":-0.07081579996889567,"177":0.03941832744815463,"178":0.04013394719500378,"179":-0.01035671934843102,"180":0.04947038193218076,"181":-0.0543941933688937,"182":-0.1076914658746292,"183":-0.03017321310705456,"184":-0.07355880162723805,"185":-0.045054890725384655,"186":-0.0626467927114525,"187":0.06550232253601618,"188":0.10681016145967945,"189":0.11930298708779762,"190":0.047096854203770265,"191":-0.07845251125908145,"192":0.011688403601975088,"193":0.11508484941211364,"194":0.05726862769771659,"195":-0.13380357506144727,"196":0.08305155942600047,"197":-0.017164431420831103,"198":-0.017798200773826503,"199":0.05881152327648159,"200":-0.11536713838616446,"201":0.04193112168587389,"202":0.020468596768592157,"203":0.09036659807634974,"204":0.011245692895162094,"205":-0.03051910006254727,"206":0.016966767012551873,"207":0.03503610154130229,"208":0.030819202603053004,"209":-0.06709380445421802,"210":0.0027515246819060997,"211":0.017913121807565935,"212":0.009650548910243043,"213":-0.009890166087784164,"214":0.004624732893770779}}],"biases":{"sx":1,"sy":1,"depth":5,"w":{"0":0.10387797893888465,"1":0.09514385170727808,"2":0.0972423078323827,"3":0.09807824632471698,"4":0.0983387619209193}}},{"out_depth":5,"out_sx":1,"out_sy":1,"layer_type":"relu"},{"out_depth":5,"out_sx":1,"out_sy":1,"layer_type":"fc","num_inputs":5,"l1_decay_mul":0,"l2_decay_mul":1,"filters":[{"sx":1,"sy":1,"depth":5,"w":{"0":0.7024056573318864,"1":0.44270324923330007,"2":0.5715968356769611,"3":0.28890122237623855,"4":-0.6060307863508443}},{"sx":1,"sy":1,"depth":5,"w":{"0":0.7375589943862076,"1":-1.0384167143466612,"2":0.47985887208221645,"3":0.06755361013738635,"4":-0.6804938833519505}},{"sx":1,"sy":1,"depth":5,"w":{"0":0.6943878276563163,"1":-0.04483081453178081,"2":0.6231448620161791,"3":0.38777415630470374,"4":0.38342106988860286}},{"sx":1,"sy":1,"depth":5,"w":{"0":0.7781307296139384,"1":-0.3953847932126198,"2":0.2988451968243263,"3":-0.697145203869335,"4":-0.20042466074175858}},{"sx":1,"sy":1,"depth":5,"w":{"0":0.8034256311504051,"1":0.12660858740984313,"2":-0.12569084480757287,"3":-0.11785334252152024,"4":0.02805210013892692}}],"biases":{"sx":1,"sy":1,"depth":5,"w":{"0":0.03110698303593969,"1":-0.039573977018546015,"2":0.07895312905236662,"3":0.10233307945021339,"4":0.008796724141390634}}},{"out_depth":5,"out_sx":1,"out_sy":1,"layer_type":"regression","num_inputs":5}]});
}if (brain) {
