
//<![CDATA[

// a few things don't have var in front of them - they update already existing variables the game needs
lanesSide = 2;
patchesAhead = 20;
patchesBehind = 4;
trainIterations = 10000;

// the number of other autonomous vehicles controlled by your network
otherAgents = 0; // max of 10

var num_inputs = (lanesSide * 2 + 1) * (patchesAhead + patchesBehind);
var num_actions = 5;
var temporal_window = 3;
var network_size = num_inputs * temporal_window + num_actions * temporal_window + num_inputs;

var layer_defs = [];
    layer_defs.push({
    type: 'input',
    out_sx: 1,
    out_sy: 1,
    out_depth: network_size
});
layer_defs.push({
    type: 'fc',
    num_neurons: 100,
    activation: 'relu'
});
layer_defs.push({
    type: 'regression',
    num_neurons: num_actions
});

var tdtrainer_options = {
    learning_rate: 0.001,
    momentum: 0.0,
    batch_size: 64,
    l2_decay: 0.01
};

var opt = {};
opt.temporal_window = temporal_window;
opt.experience_size = 3000;
opt.start_learn_threshold = 500;
opt.gamma = 0.7;
opt.learning_steps_total = 10000;
opt.learning_steps_burnin = 1000;
opt.epsilon_min = 0.0;
opt.epsilon_test_time = 0.0;
opt.layer_defs = layer_defs;
opt.tdtrainer_options = tdtrainer_options;

brain = new deepqlearn.Brain(num_inputs, num_actions, opt);

learn = function (state, lastReward) {
brain.backward(lastReward);
var action = brain.forward(state);

draw_net();
draw_stats();

return action;
}

//]]>

/*###########*/
if (brain) {
brain.value_net.fromJSON({"layers":[{"out_depth":495,"out_sx":1,"out_sy":1,"layer_type":"input"},{"out_depth":100,"out_sx":1,"out_sy":1,"layer_type":"fc","num_inputs":495,"l1_decay_mul":0,"l2_decay_mul":1,"filters":[{"sx":1,"sy":1,"depth":495,"w":{"0":0.051626688635963196,"1":-0.0025773083094748966,"2":0.0302267177514462,"3":0.01558834188174526,"4":0.027238565969991368,"5":0.011388591858538677,"6":0.007881630789356008,"7":0.007513997721555302,"8":0.03607207269615652,"9":0.07852607696303254,"10":0.05409979051968822,"11":0.0449294864077815,"12":-0.022368961316600433,"13":0.003134688012673969,"14":-0.012274253940906915,"15":-0.04514064914225946,"16":-0.00947287059209226,"17":0.056638493456531554,"18":0.008152015333765819,"19":-0.0012847997440920237,"20":-0.0031191663952407555,"21":-0.012414836207865142,"22":0.011303883143742303,"23":0.033271729053060674,"24":0.0014687428583729214,"25":-0.0034339777276202266,"26":0.016767979906365905,"27":-0.013519795558522835,"28":-0.05149735206050246,"29":-0.07764745816531648,"30":0.04554360776458633,"31":-0.050002432116288284,"32":0.0029754031624851114,"33":0.06914314430417487,"34":0.01314122669020144,"35":0.05602454937616768,"36":-0.059503820594407536,"37":-0.056949023398491366,"38":0.047600489656736245,"39":-0.038638803589349416,"40":0.03408960003709704,"41":0.03405453464947765,"42":-0.013332019442531099,"43":-0.013574323785262226,"44":-0.002726305706499703,"45":-0.04639879191219726,"46":-0.054646342185938,"47":-0.0001790934394514033,"48":-0.02539261526518771,"49":-0.0026705444719041914,"50":0.017996235787359885,"51":0.019556071782997977,"52":0.0458927747082802,"53":-0.041346610798813625,"54":-0.004388046944790301,"55":0.003851740563867778,"56":0.060730945000297,"57":0.02089857473514993,"58":0.052924718312183226,"59":0.010359050306287294,"60":0.040518177658860385,"61":-0.015330145117927046,"62":-0.02430515373306301,"63":-0.050616904446167815,"64":0.02734651903206694,"65":-0.0403962965034558,"66":-0.015116178145149974,"67":0.002968378656021675,"68":-0.030034352644963312,"69":0.03724399781413135,"70":-0.04040105106667481,"71":0.06978155610742351,"72":-0.0995915829831705,"73":-0.0026473552682056973,"74":0.0006469780807646641,"75":-0.038780557423457124,"76":0.02758512348128161,"77":-0.046043360543132204,"78":0.0188919743427348,"79":-0.018269170640709535,"80":0.02025877475069252,"81":-0.035803023342218986,"82":-0.07581885953728461,"83":-0.022886637312065236,"84":0.005053657909836535,"85":-0.06680049792181793,"86":-0.030774806390255222,"87":-0.041110613708253,"88":-0.029547406850856703,"89":-0.06295252207127781,"90":0.014702647654120063,"91":-0.008567047444623658,"92":-0.03198555726018911,"93":-0.017365735363612713,"94":-0.0412482762538954,"95":-0.029629322153660074,"96":0.006553617561740776,"97":0.012785848680631588,"98":-0.029388835841014243,"99":0.03166323360155509,"100":0.05119324728250406,"101":-0.03412630728060226,"102":0.10925061945862441,"103":-0.03468732545166004,"104":0.09324028810965641,"105":-0.041051420267735075,"106":0.01620071626772825,"107":0.03904385566701606,"108":0.067511559691308,"109":-0.07837132678798271,"110":0.08351812759169942,"111":0.02346712164369856,"112":0.006574220038756477,"113":-0.0318260949817039,"114":0.023047630871463713,"115":-0.038139173230110006,"116":-0.018203500468491878,"117":0.06283106754798881,"118":0.0421805651195113,"119":-0.034849471447368975,"120":-0.12377448459499407,"121":0.10230727989797038,"122":0.013447927716869246,"123":0.029268485524419033,"124":0.005349861764881991,"125":0.004238481832306404,"126":0.10184275961014105,"127":0.01673974696972724,"128":0.0035499682569098073,"129":-0.01886533958802982,"130":-0.036815698421964284,"131":-0.023845797910701675,"132":-0.0430471659404526,"133":0.04454823415376278,"134":-0.015013110478238056,"135":-0.0482353276264541,"136":0.01564717328013084,"137":-0.03472006258317178,"138":0.002135360917488444,"139":-0.007564219196250389,"140":0.01880112147610596,"141":-0.051945109348279436,"142":-0.011656452675966433,"143":-0.0888534274894023,"144":-0.013244532283686478,"145":-0.022131068082663508,"146":0.03846862314452885,"147":-0.019960439892307377,"148":0.01352307059905278,"149":0.01801605924305078,"150":0.05631218094692931,"151":0.03062519400896762,"152":-0.09146327348403293,"153":0.06309304828303908,"154":0.05476626936535532,"155":0.005189733172179361,"156":0.01926577675198689,"157":-0.10625985331520995,"158":-0.03786714693239318,"159":0.0007449041028518946,"160":-0.0476798249218731,"161":-0.003000816605577896,"162":0.02573394497355576,"163":0.022301368746681538,"164":0.057397188143559,"165":0.027002603304165005,"166":0.01729711772219861,"167":0.03968991000029717,"168":-0.035320308917615034,"169":-0.04508326713917539,"170":0.056914370990541245,"171":0.00529357798413277,"172":-0.009893958944554304,"173":-0.07629152550056227,"174":-0.0642579142989142,"175":0.016923366779868696,"176":0.015948673915899467,"177":-0.007374271876612427,"178":-0.017343010965100547,"179":-0.058770256136610244,"180":-0.052839573544104186,"181":0.016447902635291753,"182":-0.045743361055468015,"183":-0.024253054204471075,"184":-0.04136834696998571,"185":-0.060366394781485394,"186":-0.05507744430187431,"187":-0.10133383084406601,"188":-0.011458383957161292,"189":0.03294641980126054,"190":0.01220661465712023,"191":0.004816199930420196,"192":-0.027345198454546283,"193":0.019804421112008544,"194":-0.01834351967762211,"195":-0.062115000636568905,"196":-0.006244350134962107,"197":-0.062480963464633776,"198":-0.03413892824860386,"199":-0.04929155013682272,"200":-0.09987617434005291,"201":0.004872707984774919,"202":-0.09996760442872643,"203":0.11520936900516722,"204":0.06404553312050241,"205":0.016098689899195974,"206":-0.041856514408337764,"207":0.06234272421905498,"208":-0.02655283331127067,"209":-0.0153249138602318,"210":-0.019833142864426365,"211":-0.011603406948480788,"212":-0.025762842187253484,"213":-0.013428439553487497,"214":0.04452550308613566,"215":-0.06518328383035487,"216":-0.047418188407065555,"217":-0.04041695859962998,"218":0.037629401171284424,"219":0.11120077000120768,"220":0.02340354454578194,"221":0.008615034800237451,"222":-0.050397705364047536,"223":0.0045223704964671134,"224":0.0826357530090695,"225":0.012843897690651275,"226":0.04940546019817589,"227":0.07066514008517416,"228":0.1033377060481293,"229":0.018242379064393164,"230":-0.035623320899810795,"231":-0.016785843487343778,"232":-0.05911295058325221,"233":0.014435425249202218,"234":-0.03496927656624695,"235":-0.010154352703520747,"236":-0.08392584919086325,"237":0.052846805090772664,"238":-0.04528457666968901,"239":0.015070649780310927,"240":-0.08224746284684682,"241":-0.029625022438833283,"242":-0.018153393624708854,"243":0.030747708399622122,"244":-0.032670374016773175,"245":0.02326399823779751,"246":0.027182132346022934,"247":-0.04465944724285934,"248":-0.02342071098063045,"249":0.013397084638863078,"250":0.021850548369403515,"251":0.013807908166199763,"252":-0.019660552883107425,"253":0.0054934985140554044,"254":-0.016759019373896143,"255":-0.01906364991664348,"256":-0.021791867692685776,"257":-0.046941603584167636,"258":0.032863234956582096,"259":-0.006324927268334655,"260":-0.12023254111295355,"261":-0.06466972081397067,"262":0.08429627406989419,"263":0.026435213622420784,"264":-0.05602816670307303,"265":0.001986462956728229,"266":0.0026747369971112412,"267":-0.029801588083304142,"268":0.00642978886965532,"269":0.023100346603036864,"270":-0.02818152808022928,"271":-0.041151934517000624,"272":0.027559304039286143,"273":0.01343115277435121,"274":-0.05354003326971786,"275":-0.015654387019792135,"276":-0.006042854735913107,"277":0.048814488912008513,"278":0.0399151703486409,"279":-0.087197946405264,"280":0.008322382190435493,"281":-0.025897578698808186,"282":-0.07610494156660519,"283":-0.01902166436112514,"284":0.006097270616591181,"285":0.0043285498404734765,"286":0.06203228440478242,"287":-0.08424505237452383,"288":-0.08216365452186333,"289":-0.039855653028078294,"290":0.058386548486383555,"291":-0.005136852682899637,"292":0.009944892158077348,"293":-0.06008828039669361,"294":-0.0024279195888131472,"295":0.05118349879324114,"296":-0.052136913455665276,"297":-0.018941993736326438,"298":-0.03836478258389132,"299":0.01968767023891618,"300":0.01491131554044236,"301":0.016132412143789538,"302":0.03456803415893446,"303":-0.04858809509511278,"304":-0.012490366192838312,"305":-0.0014773317759527344,"306":0.05007541979275573,"307":0.0380429018589474,"308":0.05918448590463169,"309":0.07487620313575999,"310":0.024627933213985268,"311":-0.008124117208064841,"312":-0.06022485707247335,"313":0.024112923264756902,"314":0.044243838231460025,"315":-0.023510880101921885,"316":-0.07086786371323848,"317":0.030662397191354606,"318":0.004611601608478969,"319":0.025047957529210216,"320":-0.02626518214943938,"321":-0.03694008292006468,"322":-0.05314317185001733,"323":-0.05639805637132133,"324":0.017916784744540608,"325":0.04649319193503752,"326":0.02383671382939741,"327":-0.03388413870405393,"328":0.026237225751074462,"329":0.0022233599237870605,"330":0.03131513996404453,"331":0.06307252935340665,"332":-0.025623908106616272,"333":0.01151021047574568,"334":0.04007444624514662,"335":0.04437717965816365,"336":-0.05296837328141406,"337":0.06804835362365757,"338":0.02257439536612068,"339":0.07607975886624536,"340":-0.06954116416966878,"341":-0.08885794454942071,"342":0.02595661054969711,"343":-0.028737647477430364,"344":-0.011604743300693516,"345":-0.09290467473096692,"346":0.0047864584394425175,"347":-0.04368200580117905,"348":0.04356238411169363,"349":-0.051187178828652403,"350":0.005405187882788919,"351":0.016514982174694406,"352":-0.00583683250275465,"353":0.022901470954641057,"354":-0.005798517458976018,"355":-0.013093419690825994,"356":0.005083148350689306,"357":0.025015243100523016,"358":-0.027501794793876613,"359":0.05138651089327185,"360":-0.02872094768201346,"361":-0.00570413371506873,"362":0.01338402023188599,"363":0.00158044391152083,"364":0.0487535492858216,"365":-0.007518212234313997,"366":-0.10768014154928525,"367":0.020194181524311697,"368":-0.01607047696889371,"369":0.04203781396137859,"370":0.03137524948653554,"371":0.06508172038730082,"372":-0.021049000153813127,"373":-0.07379392552337338,"374":-0.048148645682653673,"375":0.007350054127273164,"376":-0.02180743050709835,"377":-0.0151280352880105,"378":0.013816955485787417,"379":-0.026210679061898962,"380":-0.040778428004089394,"381":-0.01665303188032915,"382":-0.05014078686922758,"383":0.07693206788952068,"384":-0.015282295613973947,"385":-0.0022200302950015605,"386":0.003770446631930176,"387":-0.028022128701058295,"388":-0.04740684264770663,"389":0.022043678470705475,"390":0.004275563782208385,"391":0.025957200467028037,"392":-0.024657674713548468,"393":0.01603357089567989,"394":0.051287780929561655,"395":0.03881196316011074,"396":-0.014026983703281566,"397":0.016084483589902276,"398":0.023392686765565475,"399":0.004440419070938424,"400":-0.042210179278444976,"401":-0.006723026877493572,"402":0.018749531962806064,"403":0.04323703367230966,"404":0.0015254720329755087,"405":0.00471271488218904,"406":0.0006775559428433534,"407":-0.007965693023807805,"408":0.043380084637126906,"409":0.009221832925718435,"410":-0.07599045669276866,"411":0.05302334165192,"412":-0.029068731775961493,"413":-0.031687087688088755,"414":-0.0483360970237237,"415":0.07454854318509209,"416":0.06017423257797031,"417":-0.04847530986023508,"418":-0.048062551978179706,"419":0.031824151480985295,"420":-0.010586742506193245,"421":0.060713412024235684,"422":0.0023422927972994237,"423":-0.003818668548820143,"424":-0.021451902087998013,"425":-0.03593550066377428,"426":-0.003928230232091446,"427":-0.027116067790495472,"428":-0.06882287040339821,"429":-0.006778884098155684,"430":-0.01614540070392467,"431":0.02179025037122675,"432":-0.059854223442345825,"433":-0.09117864556772576,"434":-0.008106266720893156,"435":0.003034521639676669,"436":0.02071099946257221,"437":0.015876025695971477,"438":0.07061583983891173,"439":-0.0028748739137226205,"440":-0.061575191330375596,"441":0.028126916963976983,"442":-0.08000998813902195,"443":-0.05283544445299862,"444":-0.028246049570095046,"445":-0.061091756700172195,"446":-0.0691197568117215,"447":-0.02662150172295776,"448":-0.010281176235663247,"449":-0.05719739260198322,"450":0.03369322491947902,"451":0.018633110856444163,"452":0.10707680702447758,"453":0.025952033087858914,"454":0.020648726197308117,"455":-0.017996056870700435,"456":-0.018665376186341603,"457":-0.04115039905193915,"458":0.03780077172645799,"459":0.01868569667755714,"460":-0.008467237784139434,"461":-0.046678471548764464,"462":0.01646297688754918,"463":-0.04210988365779942,"464":-0.04502706701996121,"465":0.0026851339916575444,"466":-0.0033496159207155253,"467":-0.0024990317251228962,"468":-0.05114713879280724,"469":0.05591919180534006,"470":0.027829461046037902,"471":-0.04486102325133665,"472":0.014407872740233805,"473":-0.00891626453951206,"474":0.11128188893225732,"475":-0.025872045181162414,"476":-0.04530512127344975,"477":-0.03864404843451127,"478":0.023201799698842024,"479":0.027480173510961502,"480":0.020970022725730682,"481":0.040453681800522175,"482":-0.016346544938206857,"483":0.014936124442742495,"484":-0.000521343448357446,"485":0.04460032242948562,"486":-0.05137142737072235,"487":-0.06387823622025787,"488":0.0168826205024038,"489":0.02702648779740949,"490":0.04066014872501658,"491":0.029893908186331815,"492":0.0016486141900737868,"493":-0.005004986572463053,"494":0.023510860313297077}},{"sx":1,"sy":1,"depth":495,"w":{"0":0.060270357229804034,"1":0.006557934599300886,"2":-0.006018034376683094,"3":0.052933712321497316,"4":-0.02981640581671748,"5":0.08620297790601181,"6":-0.10507610256504142,"7":0.0811673308527189,"8":0.09427985731165372,"9":0.019434492279397117,"10":-0.0006246573769125298,"11":0.03812353386546392,"12":0.00868541022264263,"13":0.034045812362755834,"14":0.05867944482822454,"15":0.07157053921767017,"16":-0.049144269769936195,"17":0.01155150652394013,"18":0.004278615228902877,"19":-0.028703134447342543,"20":-0.0005386873772159042,"21":0.009372010288163331,"22":0.03863153160460362,"23":-0.04879515605898752,"24":0.02501932681119717,"25":-0.004333727686306787,"26":-0.08642325062582909,"27":0.02675383116271124,"28":-0.001501327186297492,"29":-0.0602043865544689,"30":0.0930873592633372,"31":0.0214706494616601,"32":0.10457494289802362,"33":-0.023004486781744115,"34":-0.07969890268380826,"35":-0.03170592001308539,"36":-0.10210790243359106,"37":0.004407624736014064,"38":0.025113585056808687,"39":0.011719195916425544,"40":-0.04556489193434237,"41":0.06913637475395777,"42":0.024306217238450885,"43":-0.10861838361301361,"44":0.010468254536678729,"45":0.08309053823253909,"46":-0.0482265955689987,"47":0.03405428250437236,"48":0.002537343790661789,"49":-0.039143520030478426,"50":-0.02331306892803505,"51":-0.0489894845501871,"52":0.013143548932555381,"53":-0.032710319742221,"54":0.0320908824801544,"55":0.00979964358912189,"56":0.07790953984678314,"57":-0.02011434459283427,"58":0.046180034257025146,"59":0.03879363872036425,"60":-0.08258001362684856,"61":-0.0056703194590335395,"62":0.015598319813510466,"63":0.009255161563911922,"64":0.010007599194990552,"65":-0.01051983996742721,"66":-0.039895784956705496,"67":-0.059298398836260646,"68":0.036282284980379414,"69":-0.003986288783600865,"70":-0.059281277605427604,"71":0.08763463028219312,"72":-0.04301961541547189,"73":-0.008349875966264944,"74":-0.033428439956755165,"75":0.0070110838774205784,"76":0.07053908250816254,"77":0.0658449953515302,"78":-0.02454931831816698,"79":-0.011359657097813544,"80":0.01222135071438264,"81":0.0732365045685594,"82":-0.024083769238117024,"83":0.06848284960568764,"84":-0.05818074577314228,"85":-0.0019367432393683958,"86":0.05132690407959343,"87":-0.08755057017349098,"88":-0.07156748030290533,"89":0.027028811846489104,"90":0.00965270266391148,"91":-0.021983372957195143,"92":-0.02795939883772988,"93":0.020039618066841857,"94":-0.03551507956503828,"95":-0.024769468171637193,"96":-0.07746767741143871,"97":-0.017319774429541704,"98":-0.02030863598467406,"99":-0.005224432990964091,"100":0.017610917724000707,"101":0.07269535067127997,"102":-0.019805689842328562,"103":-0.004431028522714522,"104":-0.07004781288737564,"105":0.02061367866885298,"106":-0.005318005250363687,"107":0.016169975007765017,"108":0.015014698640396994,"109":-0.01688912433728004,"110":-0.06671759673097288,"111":-0.00574875888031751,"112":0.013350978542161887,"113":-0.028034610940673297,"114":-0.03686866760597912,"115":-0.043892049466163395,"116":0.01062533397598247,"117":-0.0764768187830502,"118":0.056444017748120724,"119":-0.08549199966578737,"120":-0.016782489839496692,"121":-0.037234245019044085,"122":-0.026651197545831933,"123":0.017639452880920642,"124":0.010055292623599368,"125":0.029998167209140672,"126":-0.07490085649528973,"127":0.0021913799584923933,"128":-0.046717019918850806,"129":-0.09150545029565364,"130":-0.04544737926571929,"131":-0.04245072978826946,"132":-0.05063483716418582,"133":0.1158822441204788,"134":-0.02721640815714217,"135":-0.05208617114332662,"136":0.008708372419506692,"137":-0.02495476709417091,"138":-0.0830538031366854,"139":0.0340385824753294,"140":-0.025361995046150335,"141":-0.06476182472456507,"142":0.01929586893834554,"143":-0.012362689542324322,"144":-0.06584411871236988,"145":-0.025461445655913194,"146":0.09630889145115504,"147":-0.06730886407525723,"148":-0.01488328236072617,"149":0.023326922403593016,"150":0.007473107133439456,"151":-0.032054271116111394,"152":0.01168947940799049,"153":-0.13592770381283184,"154":-0.06633313398846613,"155":-0.10390285072436499,"156":0.02508501221096643,"157":-0.033591578988178286,"158":0.028596098111433383,"159":0.02873952710351113,"160":0.044401352319239265,"161":0.02066559007203146,"162":0.05405505893382226,"163":-0.02252625003284759,"164":-0.04678734770080652,"165":0.0002334246578846881,"166":-0.019398535937482402,"167":0.054092276123916164,"168":-0.016173338207841652,"169":-0.03585587239909118,"170":-0.054601036853158716,"171":0.000983149437139693,"172":0.042960989404139074,"173":0.02451772790719814,"174":0.04502132531238462,"175":-0.0238527046062693,"176":-0.005241884762025478,"177":0.06668039596138525,"178":0.0851301768036445,"179":0.017543089419609962,"180":0.030466787693336942,"181":-0.06411245987915778,"182":0.02634543229444843,"183":0.0035449521304339003,"184":-0.022329133954296084,"185":-0.03439465328948621,"186":0.03153170721244051,"187":0.022358892290016505,"188":0.033735051514690646,"189":0.04148603178537695,"190":-0.03287493024964897,"191":-0.02516175237092116,"192":-0.10090281195092254,"193":0.02091241301185163,"194":-0.08724543294819506,"195":0.02550844111478227,"196":0.023100272460806873,"197":-0.02481658914306766,"198":-0.017946918773563195,"199":0.07961441978678715,"200":-0.0020576324697457525,"201":-0.028855928340154935,"202":-0.07965848678571204,"203":-0.009201164291817175,"204":0.014043916250740105,"205":-0.06380001816287875,"206":-0.04671185106722103,"207":-0.01694513711128755,"208":0.03071780122128465,"209":0.026726560919025033,"210":-0.08658664558466901,"211":0.12257691277739611,"212":-0.024295164826422823,"213":-0.0006794353555930575,"214":0.06511679349756631,"215":-0.021776954653541312,"216":0.025806498975322535,"217":-0.007778977405846545,"218":0.01670917036329578,"219":0.0024478008238748255,"220":0.033950596358990344,"221":0.02742574917378514,"222":-0.024024970563372997,"223":0.0280013007119406,"224":-0.016665549258043366,"225":0.0551144144403442,"226":-0.03174350758446664,"227":0.0704590945674465,"228":-0.09138124641961306,"229":0.11431962562343636,"230":-0.03518669954249487,"231":-0.011508777686227033,"232":0.041089408088524744,"233":0.04363836529480986,"234":0.02520651542069826,"235":-0.10926292326618986,"236":-0.03189776541834737,"237":-0.01045080355366155,"238":-0.009864326048761397,"239":0.03388866319522927,"240":-0.004359246414942927,"241":-0.10016609497755487,"242":-0.02705002478121861,"243":-0.044358911101910724,"244":-0.0032800793986104966,"245":0.012455843137681567,"246":0.02889709284613433,"247":0.04133176237207961,"248":0.017898856265197733,"249":-0.03688648031979528,"250":-0.0165016246361639,"251":-0.01649224416216694,"252":-0.02859527868531648,"253":-0.02488149019242326,"254":0.03657109545937534,"255":-0.06055870061648424,"256":-0.05099389131633009,"257":-0.03706133640096189,"258":0.01216757940197128,"259":-0.0044334546839661475,"260":0.01890114237923381,"261":-0.022956147087082306,"262":-0.044021726382600504,"263":-0.011779016495361985,"264":0.036476584893541206,"265":-0.007451785258654816,"266":0.0490419969072972,"267":-0.04745300533786946,"268":-0.030763219555151416,"269":-0.0010546823364341053,"270":-0.05204753035288952,"271":-0.08239310333891392,"272":0.010750159524195264,"273":-0.12540321810225913,"274":-0.027013348874276203,"275":-0.06111650571861855,"276":-0.018043736376712312,"277":-0.060518824786642944,"278":-0.06555762788818346,"279":-0.002437279157611667,"280":0.037793114196777014,"281":0.014764914817022282,"282":-0.031031405829733963,"283":0.09593442947889706,"284":-0.03767211518534633,"285":-0.01778799390707595,"286":-0.02364313168417932,"287":-0.028824020692682216,"288":0.060070637615096546,"289":0.03827905060158255,"290":0.12148950922837123,"291":0.05095077828776338,"292":0.07108409038610894,"293":-0.01705644697194403,"294":-0.02663278620728733,"295":0.01263257241999886,"296":-0.02590849513795317,"297":-0.04009145150040093,"298":-0.004589994764380869,"299":0.029378484214692826,"300":-0.009216768041397734,"301":0.003926430787185849,"302":-0.023080642622233784,"303":0.06003270639223657,"304":0.07455877132682556,"305":0.06211009332825984,"306":0.007162954964176236,"307":0.06298739767844558,"308":0.10610664373122086,"309":0.07032958722391071,"310":0.07392385004767154,"311":-0.0045699938557461975,"312":-0.07153284497667878,"313":0.034043527305380114,"314":0.08412033580733563,"315":0.009807748922373326,"316":0.019897293946254748,"317":-0.02257307716555125,"318":-0.029810026469616203,"319":-0.07271598236557844,"320":0.028611654805078722,"321":-0.11214196687490195,"322":-0.011268693232104209,"323":-0.0010433260932607817,"324":0.03428303249838956,"325":0.07828478898571846,"326":0.012807185505716601,"327":0.068005374743972,"328":0.045111876392946795,"329":0.032868108992072126,"330":-0.043753174322280694,"331":-0.034468554420764734,"332":0.03339201255052378,"333":0.051459769270975994,"334":0.025108548453055376,"335":-0.023875178609788806,"336":-0.0026827363966246257,"337":-0.08122351327945155,"338":0.039700503329945305,"339":0.013285944358694535,"340":0.058815978261736804,"341":0.062105329225773775,"342":-0.012502412207536072,"343":-0.03568805731595738,"344":0.01196988396465351,"345":-0.03624388946144057,"346":0.01006714668909006,"347":-0.013610659742061886,"348":0.032986994280655844,"349":0.015128516450521845,"350":-0.013125816138915494,"351":-0.035188967569433946,"352":-0.06809557561563782,"353":0.0697056626124248,"354":-0.03203569734764089,"355":0.03353980488285189,"356":0.049201620376958105,"357":-0.07229477481841496,"358":-0.02781999122881988,"359":0.061117608516116924,"360":0.03240281405035219,"361":0.0060868808336798485,"362":-0.03949450859029011,"363":-0.02648025747832224,"364":0.008914764169460062,"365":0.049103567223470354,"366":0.0009764820924944842,"367":-0.03083390666678482,"368":0.013446533446779748,"369":-0.021918441174523483,"370":0.04298320016289637,"371":-0.012145099210312641,"372":0.06380884367132008,"373":0.0013951968080575176,"374":0.036301396793059416,"375":0.009484772258538042,"376":-0.0019603461774277365,"377":0.007203470794340779,"378":0.027437114901452942,"379":-0.003969560785492554,"380":0.08942936710766805,"381":-0.05254759851752228,"382":-0.014933502275968277,"383":0.008016801073169731,"384":0.028164970049518838,"385":0.011884683323056305,"386":0.04238733877953455,"387":0.023379418642310644,"388":0.028410954990406224,"389":0.016822116683838057,"390":-0.0076913062906839614,"391":0.05443037252486071,"392":-0.015125467315532581,"393":0.05185169922847416,"394":0.016328044032171584,"395":0.00501687110866554,"396":-0.011228425043891907,"397":0.02126095613161887,"398":0.028710231776236203,"399":-0.043205234527400285,"400":-0.06551268173045042,"401":-0.012152327061566385,"402":-0.0008923021707141084,"403":-0.01994158719388881,"404":-0.06309995815274437,"405":-0.03511744584770801,"406":0.008156723161437961,"407":0.12762145521959262,"408":0.02044955963242531,"409":0.050498202931639195,"410":0.029639667434923813,"411":0.007456530737189063,"412":-0.04951675138950199,"413":-0.0033416972204437637,"414":-0.03657699299431288,"415":0.02734924264647373,"416":-0.06167603737717957,"417":0.050248930850034804,"418":0.06904433761739892,"419":-0.0306845427545486,"420":0.034461060029564124,"421":0.0004820919207896938,"422":0.05645710569515168,"423":-0.02269602138536022,"424":0.02129956274089007,"425":-0.031895136634015206,"426":0.04446969502417132,"427":0.04820633549747445,"428":0.023031813193375636,"429":-0.007262225733575326,"430":0.0014814527328692323,"431":-0.031176498848228456,"432":0.01250258224488649,"433":-0.09050368478862879,"434":0.02939237362025545,"435":-0.01633435935975625,"436":-0.06183879850297453,"437":-0.06475660208029463,"438":-0.04919700246444306,"439":-0.060423590832116715,"440":-0.05639571838733103,"441":0.039396212010683794,"442":-0.010383310032326792,"443":0.07334346467147432,"444":0.017215997752863404,"445":0.07338085642092401,"446":0.024609901637690896,"447":0.009956049145702687,"448":0.015051999255731262,"449":-0.000791030235670951,"450":-0.03486756559769746,"451":0.021380271144886078,"452":0.04199050967932855,"453":-0.002016065803795768,"454":-0.04756158199129965,"455":-0.10673002868397037,"456":0.009042479321774151,"457":0.00044063047786709394,"458":-0.0021160529368521065,"459":-0.014515068466112494,"460":0.06420339579537427,"461":0.01041028639494348,"462":-0.03347934744785938,"463":0.05168164648344627,"464":-0.009326765728648866,"465":0.052934281294184725,"466":-0.009139121279763452,"467":-0.028955832923625024,"468":0.01337135567839484,"469":-0.015250997187406708,"470":-0.09526892154553838,"471":0.09815739482767295,"472":0.004708598615206308,"473":0.01568563101770284,"474":-0.03149278875386558,"475":-0.05930041065962618,"476":-0.0931341066269406,"477":0.0725440096344987,"478":-0.0016091967070057564,"479":-0.05299474331676536,"480":-0.021750781691080873,"481":-0.06408004740537429,"482":0.04056174027618565,"483":0.10200215529693522,"484":-0.011751508843211818,"485":-0.03597104919463934,"486":-0.001780318239031844,"487":0.018458627704200012,"488":0.05453885658840746,"489":-0.023173906388511557,"490":-0.01955136508893891,"491":-0.08263511067678986,"492":-0.03633260867414891,"493":-0.06990948031056981,"494":-0.04641221925702031}},{"sx":1,"sy":1,"depth":495,"w":{"0":-0.017088025164326805,"1":-0.05269521872952614,"2":-0.08512726357586742,"3":-0.007581751945032655,"4":-0.00903224970902584,"5":0.017094774013994233,"6":-0.03875571370500438,"7":-0.01994619492665856,"8":-0.01994774795213444,"9":0.04079487877132816,"10":-0.0910633425433555,"11":0.029879712753671135,"12":0.05963636256964721,"13":-0.004393299612586958,"14":-0.04779086184510531,"15":-0.0038988404443345233,"16":0.022886855721169372,"17":-0.02035933677338922,"18":-0.0868324252391952,"19":0.10170776987403404,"20":-0.03304595249789795,"21":-0.07269852824503257,"22":-0.018168401092289257,"23":-0.09221013155525036,"24":-0.04685254286914165,"25":0.004892452734103178,"26":-0.04171647072894431,"27":0.046077591335393124,"28":-0.021101800914022747,"29":0.009721985057769187,"30":-0.04078813111195612,"31":-0.015243213373892835,"32":-0.01607547663025106,"33":-0.007225505259779631,"34":0.03362138075808451,"35":0.01260465284891224,"36":-0.009007509409246696,"37":-0.04636750686199444,"38":0.041854007958494706,"39":-0.02186132176814415,"40":0.01563627975232813,"41":-0.05867412876353444,"42":-0.07049906519171652,"43":0.07400838701542062,"44":-0.029528002945776635,"45":0.014239663502502816,"46":0.05733133468841005,"47":0.054054182404494173,"48":0.027027045887693012,"49":0.031762172468251894,"50":-0.021815103127923993,"51":-0.02915936916301087,"52":-0.0066349593679238495,"53":-0.002713122238176874,"54":0.06578626236141995,"55":-0.012116273123829572,"56":-0.004773999326305002,"57":-0.01947053233044657,"58":0.027542146693341946,"59":0.043471800961415556,"60":0.022032893470304793,"61":-0.06594115434414035,"62":0.03990604742966444,"63":-0.02157881123350663,"64":0.017672316697375585,"65":-0.01094688758226531,"66":-0.046158010581478705,"67":-0.03550907324117088,"68":0.017812874557133262,"69":0.009732419957468272,"70":-0.05480727209963845,"71":-0.0387396012959252,"72":0.008756554365457683,"73":-0.03540971395666709,"74":0.009586238482732063,"75":-0.02535898935805279,"76":-0.013875052943187143,"77":-0.07400398578903257,"78":0.0014838454684802718,"79":0.04845619542273596,"80":0.0006485133365994459,"81":0.023792583242553886,"82":-0.019126769314229967,"83":-0.05111844421026304,"84":0.01603267740309934,"85":-0.05620312140766595,"86":0.07809656418815831,"87":0.049129281527277795,"88":0.038855535141638635,"89":0.004454253197475891,"90":0.07656497922746615,"91":0.03939373535549066,"92":0.040323364303393325,"93":-0.06576350050419646,"94":-0.05148415971784907,"95":-0.054558945662094196,"96":-0.08210842456889547,"97":0.0860624173033651,"98":-0.07640346221447738,"99":0.06711845975834131,"100":-0.058803225884267764,"101":-0.013571157601619182,"102":0.007425642082803253,"103":-0.02077553244412005,"104":-0.04560157016925484,"105":-0.017049994841919495,"106":-0.011329941518525134,"107":0.018299914609134222,"108":-0.004611551137324332,"109":0.011501814039106521,"110":-0.028337061084843105,"111":-0.030506815957494163,"112":-0.07272807901531862,"113":-0.00016812185049371476,"114":-0.03858609092274117,"115":-0.0484096016177853,"116":-0.07365785303845441,"117":0.005656337790409205,"118":-0.05698466630456469,"119":-0.03656615718253026,"120":-0.007843092395127432,"121":-0.03653070047078482,"122":-0.0009322186902557933,"123":-0.0019024606900697872,"124":0.03945331219212397,"125":-0.01577638556027674,"126":0.01042392864422758,"127":0.00784170529499121,"128":-0.05194768591845322,"129":0.05410788662052737,"130":0.011033764723240201,"131":-0.027200912149624782,"132":-0.06316851188210712,"133":-0.06266402483074393,"134":-0.0065411120079781094,"135":-0.018678123628551174,"136":0.010979939694456576,"137":0.012887821870972269,"138":-0.037062064774462625,"139":-0.09126052528515691,"140":-0.029449648389205232,"141":0.044283954730094534,"142":-0.05470630230613741,"143":-0.05334944609556793,"144":-0.0008016393208688186,"145":0.047071134753210536,"146":0.013925798581759373,"147":0.06273973504673168,"148":-0.035121014253997176,"149":0.0757997937627542,"150":-0.09756744136589045,"151":-0.010317736494311615,"152":0.06486079082729963,"153":0.06908108751419536,"154":-0.04358267464286044,"155":-0.010147888315940654,"156":-0.012943140829220885,"157":0.014563174471206395,"158":0.0007629982676848456,"159":-0.0679616999776023,"160":-0.0283214561806906,"161":-0.021332884138041,"162":0.0775344645734668,"163":0.06182229535963166,"164":0.02100576262092912,"165":0.05514903216921182,"166":0.04041891175550683,"167":-0.007266407288749098,"168":-0.08332670579140913,"169":-0.018984513583368907,"170":-0.023352540266202082,"171":0.05163692144585955,"172":0.05297736233643711,"173":-0.06204190681485045,"174":0.014897197993607282,"175":-0.018251772389434876,"176":-0.034662435232910245,"177":0.01171307420695953,"178":0.06976068356517069,"179":-0.03971210370525746,"180":-0.038748061663212686,"181":-0.01809309040268083,"182":0.019781281089976437,"183":-0.08816960507433324,"184":-0.01732015126328921,"185":-0.015126679545290022,"186":-0.0011398759307194011,"187":-0.03573857747237677,"188":0.06892218752780241,"189":0.022726247747712244,"190":0.03180160062530264,"191":0.007113005185217103,"192":0.02765904768913618,"193":0.009427436929541123,"194":-0.011706756587361805,"195":-0.11369014947687697,"196":-0.04734089497715036,"197":-0.05520064592384476,"198":-0.02505000068661773,"199":0.008410354417461135,"200":0.060964391156431735,"201":-0.0007448336018611759,"202":-0.03789951611797714,"203":0.03754903484898792,"204":0.05306024604972639,"205":-0.0023996581266567634,"206":-0.013132749118063771,"207":0.04387018625524337,"208":-0.0685466735004131,"209":-0.15471937944984748,"210":0.05452374892398939,"211":0.046029479870690816,"212":-0.03740821028254995,"213":0.03053004746983727,"214":-0.09312137158659542,"215":0.012662897580692517,"216":0.03543722762887165,"217":-0.002002714995180618,"218":0.06947762525624403,"219":-0.003063214298746381,"220":-0.00047708813756748824,"221":0.04919650353628218,"222":0.012724914841414131,"223":-0.07133365766061081,"224":0.014104494799337293,"225":-0.03492171631964451,"226":0.09591835723064713,"227":-0.042322079330489294,"228":0.026366152387248997,"229":-0.040147874071769674,"230":-0.052218552727449095,"231":0.00469346136627853,"232":-0.006139752495703,"233":-0.05043423563360188,"234":-0.09646576982718427,"235":-0.003510364483248036,"236":0.017678033071362245,"237":0.0020509774532323143,"238":-0.07312088772406562,"239":-0.033568669652543924,"240":-0.009897351325746844,"241":-0.02582085280351687,"242":0.00851950383213585,"243":-0.04157573175775171,"244":0.027547526583548084,"245":0.017924691975840772,"246":0.007837153035443722,"247":-0.05482231612350456,"248":-0.020943578285705033,"249":0.007456114940587433,"250":0.015500718229266396,"251":0.004030155876083599,"252":-0.026507289676888295,"253":-0.03766848786945447,"254":0.0473076370811396,"255":-0.013570611084199491,"256":0.038039400247903386,"257":0.04218238752253609,"258":0.10558660786271692,"259":0.051479138161252755,"260":0.08745034171496044,"261":-0.09514198198273467,"262":0.011364051438586493,"263":-0.04346937811586477,"264":-0.06783719006518766,"265":-0.04695830349689849,"266":0.03533127274331634,"267":0.01973031631078769,"268":0.02370793478269755,"269":-0.03729863085745333,"270":0.031247364887071732,"271":-0.05021043128378849,"272":-0.03304080413877209,"273":-0.02519976154335516,"274":-0.0007944456033602494,"275":0.04091683483215064,"276":-0.046018582540078116,"277":0.06754045816715004,"278":0.01435727522663788,"279":0.06547520050921228,"280":-0.056608269918983774,"281":-0.02643607491727073,"282":-0.11816045554613977,"283":-0.05253316541250161,"284":0.012784241086241104,"285":0.04493618047961625,"286":-0.07086626099294131,"287":0.006475635676610668,"288":0.011025558756493775,"289":0.023531481624910026,"290":0.016067736566130294,"291":-0.05331791135926982,"292":-0.0016639948938256237,"293":-0.018958886129403846,"294":0.005709581891187692,"295":0.014617482988023103,"296":0.04956432704971845,"297":-0.07317752066568137,"298":0.044821257644886224,"299":-0.017803547082189064,"300":-0.05795801925598642,"301":-0.025915836686871033,"302":0.008303946340447045,"303":-0.05065011792949431,"304":-0.04324597896884624,"305":0.0618385440270081,"306":0.056946403905612654,"307":-0.057131737424424255,"308":-0.0977750072969408,"309":0.030353319682908487,"310":0.0015554113366446902,"311":-0.055052867561251995,"312":-0.03982577152301356,"313":-0.052146421174731325,"314":-0.011247546957174222,"315":0.07972603659284386,"316":0.031596926651124776,"317":-0.07494099777359192,"318":-0.09862815998246345,"319":-0.0015080791075167811,"320":0.0500588723975326,"321":-0.03802932818068526,"322":-0.016313073221637105,"323":-0.032659926686196994,"324":0.007430057384400305,"325":-0.05313717644020536,"326":-0.04870757395125002,"327":-0.014332003271092835,"328":-0.06062508147519171,"329":0.02505651928467058,"330":0.06087029957165131,"331":0.009437739663830309,"332":0.030223628741284782,"333":0.005630390352937818,"334":0.004434630107129482,"335":0.008673159712281422,"336":0.018961287558701613,"337":0.011414903923207002,"338":-0.09255457975040093,"339":0.03642650663993214,"340":0.04080776130772406,"341":0.03970299619732516,"342":0.012373833982459616,"343":0.006253945477915541,"344":-0.05413486341419516,"345":0.0037661546744929544,"346":0.03049224707772017,"347":-0.020608849996785104,"348":-0.06337142834857419,"349":-0.00751389996803403,"350":0.011966527041280874,"351":0.000420130280204483,"352":-0.006569220299745673,"353":0.003976832305251593,"354":0.032000194234540216,"355":-0.04304181443841662,"356":-0.044199953105677835,"357":0.028015857890600695,"358":0.05594981187026828,"359":-0.01412565925139588,"360":-0.08436550241064366,"361":0.012761258231852626,"362":-0.06104283888236823,"363":-0.050786887755713134,"364":0.031845859740342625,"365":0.02678967600289821,"366":-0.04287366205069248,"367":-0.032899836510401806,"368":-0.043010334140779885,"369":-0.012095679273542377,"370":0.009544664557657366,"371":0.028440942603229636,"372":0.03303400471150735,"373":-0.011054568817772555,"374":-0.024360228074956344,"375":-0.005165891247276637,"376":0.0075939969517095414,"377":0.008978651515740614,"378":-0.006312713681583809,"379":-0.02417110491758307,"380":0.03784272394377757,"381":0.052544533776618975,"382":0.05933071332383836,"383":0.02772446952387243,"384":-0.009816584448311561,"385":-0.055514431993407304,"386":0.010915996499965415,"387":0.022243599349740555,"388":0.023750099321384686,"389":0.01813796293527463,"390":0.01680471020899186,"391":-0.09066998212311565,"392":0.01227561621889464,"393":-0.007648700163026839,"394":-0.010863969138172436,"395":0.003533790942304048,"396":-0.05439779947505124,"397":-0.03718980335861927,"398":0.052649221486510175,"399":0.04009536438457051,"400":-0.047007826086332874,"401":0.030711520625713286,"402":0.03335100065126684,"403":-0.030321791623677135,"404":-0.02073907577441489,"405":0.0572988626908941,"406":-0.01180789840532469,"407":0.0381060844687228,"408":0.08040227443188931,"409":0.03261557720202842,"410":0.01629889157791048,"411":-0.0357379515914368,"412":0.012941342927531272,"413":0.006355588663845891,"414":-0.023868809357099504,"415":0.05341808965853648,"416":-0.03384990568259464,"417":0.038880725614170615,"418":0.041890696793151695,"419":-0.0023944984817079614,"420":-0.015581468046524103,"421":-0.10408714787934846,"422":-0.03353595298950027,"423":-0.0052261705948031195,"424":0.14736122730817735,"425":0.0022545199666785184,"426":0.003979223800494922,"427":0.02220641075432711,"428":-0.01334382953566593,"429":0.052667169849774445,"430":0.02523488839419949,"431":0.10078550698174214,"432":0.0013338399535095183,"433":-0.014201797123525256,"434":0.004300612270899128,"435":-0.053425307762271924,"436":0.06791859966469506,"437":-0.028999537571094892,"438":0.05320785408074613,"439":0.0335757938594532,"440":0.007088251832271224,"441":-0.056119785385412,"442":0.06413164550903698,"443":-0.027669385509733996,"444":0.09459237820458613,"445":-0.055275062584127836,"446":-0.02242502669529243,"447":0.05329200965198035,"448":-0.040057208966907065,"449":0.007994390523409318,"450":-0.012161620922660225,"451":-0.01607220657252101,"452":-0.005812434963025382,"453":-0.0213387077800027,"454":-0.034215669579042464,"455":0.029965413052930587,"456":-0.010495681852290146,"457":0.10049395221689834,"458":-0.014449129746159215,"459":-0.07476647230068951,"460":-0.004128983112992316,"461":-0.004905283858725372,"462":-0.015165279134332104,"463":-0.01747720051263681,"464":0.09650572537289419,"465":-0.05615153850270012,"466":-0.0016280281935100683,"467":-0.016720465362255087,"468":0.048772433345759675,"469":0.038390603222670516,"470":-0.019466630077728322,"471":-0.028405788177670272,"472":-0.005350928613305792,"473":-0.032955272031189795,"474":-0.06292090302285894,"475":-0.019872589459454817,"476":0.05684402539679485,"477":-0.029689923613771502,"478":0.00826236994826703,"479":-0.0013865979173853016,"480":0.05557863810086082,"481":0.018247282047782087,"482":0.02064875441464879,"483":-0.03602841215075104,"484":-0.036782216994742274,"485":0.01631619620445619,"486":0.06129795873879619,"487":0.06857610599780861,"488":0.0014125664032941845,"489":0.05274680750514545,"490":-0.009621886471073348,"491":-0.023912994978064605,"492":0.008330849044242113,"493":-0.047980279916540906,"494":-0.09397184895017117}},{"sx":1,"sy":1,"depth":495,"w":{"0":-0.01860199748547408,"1":-0.07536027238205976,"2":0.041222071967475564,"3":-0.0345202103872464,"4":0.02594119647189353,"5":-0.0070552930107955144,"6":0.02198075917555563,"7":-0.061698098747434385,"8":-0.04972097019498546,"9":-0.05697330400845537,"10":-0.01837208324906704,"11":0.0006662913989459179,"12":-0.013160354957295447,"13":-0.007088834808374701,"14":0.012034828164806435,"15":-0.03327301172308642,"16":-0.06709786349429376,"17":0.012581605043502057,"18":-0.012017521541110338,"19":0.05037430320005474,"20":-0.07191502739408881,"21":0.03842892568015049,"22":-0.027705255501393334,"23":0.06472624282578806,"24":0.06587403161055,"25":0.07928463889394732,"26":0.1295945821680016,"27":0.04203511319190521,"28":0.05297050271417664,"29":0.0032405940629728034,"30":-0.04098636594619737,"31":0.010383253609867967,"32":-0.09159497170991036,"33":0.032585207464214644,"34":0.0030570999738547054,"35":-0.0007973006354836912,"36":0.07119536760590111,"37":-0.02171403089190223,"38":0.07416789843525882,"39":0.003289256294574062,"40":-0.02863420994345007,"41":0.025212241302697172,"42":0.09164856262152629,"43":0.016428917714504804,"44":0.011739888275370683,"45":0.06686982822049821,"46":0.06995365901440939,"47":-0.06788586640617791,"48":0.04821198656757939,"49":0.003768391660889468,"50":-0.0003637986172571343,"51":-0.02674313035843526,"52":0.023585725559094186,"53":-0.021382673339422377,"54":0.006752999904578179,"55":-0.015539726366261132,"56":0.048171346258896526,"57":0.03197010406598037,"58":-0.0002676159376138997,"59":-0.010127902563599848,"60":0.036719844110169424,"61":0.06581341837420017,"62":-0.046917089247094056,"63":-0.045468089240981634,"64":0.05644766399842947,"65":0.007021844941558648,"66":0.04895577712116908,"67":-0.04834427018731814,"68":-0.04578678422929942,"69":0.0016853398205531973,"70":0.01891977090101875,"71":0.007162110221511006,"72":0.04309559357121261,"73":0.0077739160129190335,"74":-0.07110245105722533,"75":-0.0707579432366684,"76":0.08955345749818352,"77":-0.09336659435171192,"78":-0.03712000984034823,"79":0.009082869780200581,"80":0.022858436532545125,"81":0.07907224008276825,"82":-0.032830031836290255,"83":-0.02656375615088587,"84":-0.02568295045942129,"85":-0.010248576828491474,"86":-0.03039859973654601,"87":-0.025442962385563532,"88":0.05924951017275561,"89":0.04941996061207651,"90":0.012889805685516713,"91":-0.007783461071240404,"92":-0.005202993891208708,"93":-0.030207663947378203,"94":0.016428740465564514,"95":-0.05552602075667508,"96":0.01593573937005511,"97":-0.02196204676812858,"98":-0.09823456809669252,"99":-0.018556055429621607,"100":0.019299187912710364,"101":-0.056640709639033435,"102":0.05952045801382605,"103":0.010815530759520943,"104":-0.016945697072840857,"105":-0.0002933871891814709,"106":-0.016849421342607903,"107":0.021891047114554026,"108":-0.017644261579145583,"109":-0.030681781407314784,"110":0.008389161163189244,"111":0.003619268750792346,"112":-0.006762655327199234,"113":-0.0188396720637364,"114":-0.09704128463523183,"115":0.02458535890048977,"116":0.027095750948314404,"117":-0.010231941920114081,"118":0.02304159855272147,"119":0.0499309804620408,"120":-0.07404691430591688,"121":0.03527053229707552,"122":0.008853316250380041,"123":-0.01661437019793518,"124":0.006177476123768424,"125":-0.04454019164965974,"126":0.06383991244184221,"127":-0.0024567616639278792,"128":0.03511634107481277,"129":-0.010409853853064915,"130":0.016855835179418903,"131":0.06628863269003833,"132":-0.017689526683201745,"133":0.049710847999751444,"134":-0.022080439409515318,"135":0.04223661222540665,"136":-0.1697448130566521,"137":-0.07232095246793507,"138":0.0013635573814046954,"139":0.060907968580337535,"140":0.03823829489083604,"141":-0.013804975800971498,"142":0.0021301680773511272,"143":0.0013533508734660602,"144":0.016416165396594746,"145":0.04359522494842021,"146":0.020405571777221496,"147":-0.015195722170777833,"148":0.02370382668291053,"149":-0.08650575386547575,"150":0.04082093473384895,"151":-0.05574321668396648,"152":-0.017162182541400908,"153":-0.03494784077385617,"154":0.0792549915556976,"155":-0.1377889293531636,"156":0.00571815610693465,"157":-0.06249374958631687,"158":0.07472465779467711,"159":-0.013697518004160512,"160":0.022425685462921046,"161":0.004231624695635065,"162":-0.009098844506180271,"163":0.01636084827002132,"164":-0.09489885628147777,"165":0.03522584486160926,"166":0.07514022337290904,"167":-0.07307841671459654,"168":-0.03548811351885223,"169":0.07008133086131987,"170":-0.029554580467138883,"171":0.023576074901258324,"172":-0.059194849399070555,"173":-0.04373592911398855,"174":-0.027692260083285767,"175":-0.02707010569461624,"176":0.004744446345918495,"177":0.09865359833577625,"178":-0.0054610680959461914,"179":-0.02900399522632005,"180":0.057829717032927934,"181":0.006292161984711997,"182":-0.0782725318560162,"183":-0.02768424914334495,"184":-0.040273027627652835,"185":0.07875333146004507,"186":-0.01266306351373666,"187":-0.07511769008975032,"188":-0.0032884989226305322,"189":-0.027591721735450287,"190":-0.011296424707787411,"191":0.010077451186382745,"192":-0.016554392453216906,"193":0.007008872450534447,"194":0.04602400555886502,"195":-0.04912575133873014,"196":0.00887752648728364,"197":-0.009717354734908362,"198":-0.02019219083539613,"199":0.012092114007667262,"200":0.02658859439481887,"201":0.07058525209926904,"202":-0.08227697226265613,"203":0.05232429688627675,"204":0.028651178041468644,"205":-0.016044064549706496,"206":-0.12387858836173823,"207":0.004902510050741378,"208":0.012228299739064016,"209":-0.028827291755645388,"210":-0.0010421644305977212,"211":0.07745754543151244,"212":-0.03600593785153293,"213":-0.02727952495748522,"214":-0.023544342741713926,"215":0.0397494623430378,"216":0.01451765805244445,"217":0.07474801518663938,"218":0.06212914077364977,"219":-0.07752700511500009,"220":0.02868686678974167,"221":0.06643600130376796,"222":-0.034179326447127546,"223":-0.0005297673210285299,"224":-0.035039896743705626,"225":0.028783586427605132,"226":-0.011903042517571268,"227":0.08732861731467405,"228":0.03384901102929897,"229":-0.040322805085776514,"230":-0.03469078029439437,"231":-0.05005924631251962,"232":0.006467908978745686,"233":0.02234980529530159,"234":0.11173965143894832,"235":-0.007214215749016095,"236":-0.08907507023042156,"237":0.033575764583976965,"238":0.02530985973184398,"239":0.04272748670845955,"240":0.02490020380092223,"241":0.03780528193454903,"242":0.04876245970043911,"243":-0.00011466920299771604,"244":0.0013974666665997745,"245":-0.0000423776740089888,"246":-0.005331155720012607,"247":-0.07568804418854226,"248":0.04453502648416005,"249":0.07095815107259075,"250":0.07144967810400512,"251":0.04601013197469686,"252":0.05562880930318078,"253":-0.007005530050797246,"254":0.11125002520880496,"255":-0.012290024679921332,"256":-0.05861793231195085,"257":0.06989905340116274,"258":0.00509150298734807,"259":-0.026373196934795995,"260":-0.059582227049320334,"261":-0.04501237113044477,"262":0.05540360934201612,"263":-0.00605154170152258,"264":0.0011032702870391027,"265":0.023874065140545457,"266":0.04257909852296645,"267":-0.062300268843854686,"268":-0.03850735387590397,"269":-0.03111810462619885,"270":-0.020718899643644588,"271":-0.037870106432800234,"272":0.03852673660621553,"273":-0.009425769180761507,"274":-0.016053026889626804,"275":-0.09949783503629933,"276":0.05084163410115591,"277":-0.03242442103740462,"278":0.02144399058036022,"279":0.008647858757371448,"280":-0.06331493597937088,"281":-0.06859122444528391,"282":-0.05378529616647767,"283":-0.02642741771695221,"284":-0.04106079040440754,"285":0.06813885726046731,"286":-0.04362180704595358,"287":-0.02136972460209571,"288":0.0506568167465692,"289":-0.013635389719075625,"290":-0.02552711668860023,"291":0.060585232013464836,"292":-0.008590792322190505,"293":0.023218908804875364,"294":-0.06043707156510275,"295":0.005764159889258939,"296":0.03628621503272833,"297":0.0042641720822800145,"298":-0.001302721159168247,"299":0.015041856164886671,"300":0.03200077083694678,"301":-0.05138558831498273,"302":0.08775318688572342,"303":0.01666656943284968,"304":0.08082189555715247,"305":-0.055478669644354224,"306":0.022433362454636996,"307":-0.014016252618283065,"308":-0.04902294515804555,"309":-0.07487546446023475,"310":0.03676350295409126,"311":-0.048958143607408563,"312":-0.01238556207411494,"313":-0.06183883469521433,"314":-0.00048105935837700086,"315":-0.04694457443710767,"316":-0.04544776068438992,"317":-0.0640539742476325,"318":-0.005414482714996978,"319":0.044568945058201165,"320":-0.009701370557549108,"321":-0.02843889773998406,"322":-0.020772810923747567,"323":-0.001607947577826506,"324":0.0006401743607614983,"325":0.014625387922546407,"326":0.052087160202753405,"327":0.0012913461696127158,"328":0.010494549523730471,"329":-0.08176871326334185,"330":-0.03383992272183467,"331":0.07901879151067567,"332":-0.00930845763908797,"333":0.0908897790882658,"334":0.0031629069761456387,"335":-0.010240411927082556,"336":-0.0007455615045735016,"337":0.013473192031088106,"338":-0.08834806742820121,"339":0.0020923374034464,"340":0.013396459681634597,"341":-0.044276314370109794,"342":-0.023964866593802612,"343":0.031508622947859485,"344":0.019550116644555713,"345":-0.07391761321958519,"346":-0.013765814872121464,"347":-0.07495342532488848,"348":0.029160205937823633,"349":0.017588910922848092,"350":0.033259697672915645,"351":0.02232997601581423,"352":-0.008634329777699827,"353":0.018747731625318096,"354":0.0045704459864238135,"355":0.04158554184571524,"356":-0.06234035350398812,"357":0.05444399285650035,"358":-0.06267918207616133,"359":0.006913970490511722,"360":-0.02484978744948136,"361":0.002909925568797214,"362":-0.06767580544455291,"363":0.03834676285756765,"364":0.0736755639823591,"365":-0.008295293598862782,"366":-0.0037629168482430303,"367":-0.0437440733781818,"368":0.025293035375483046,"369":-0.011242104766875952,"370":0.05381815048703691,"371":0.06185793021025116,"372":-0.006800204178676701,"373":0.02634409235891614,"374":-0.05272743449293626,"375":0.017737255276662603,"376":-0.07002799474162359,"377":-0.022044394563738186,"378":0.007539508393681934,"379":-0.034566543693374405,"380":0.05663956192911633,"381":-0.08719397108306215,"382":0.014871549757048309,"383":-0.10826720612244604,"384":-0.015818190894083806,"385":-0.04894427523431899,"386":-0.005807775268592446,"387":-0.02450382194093694,"388":0.051628403632588596,"389":0.018004434292264743,"390":-0.004765435081660634,"391":-0.03640716538665749,"392":-0.06080101379476352,"393":0.018028295038932475,"394":-0.017888861456644977,"395":-0.025632762266436935,"396":-0.005108224035160276,"397":0.015218459811054989,"398":-0.0585429173630277,"399":0.03512912639524715,"400":-0.0036833206747781057,"401":-0.01752425803401989,"402":-0.01988832034910955,"403":-0.08657503884029087,"404":-0.06052881430804395,"405":-0.02048954534539205,"406":-0.026542842653145472,"407":0.000694929727063453,"408":0.009657831897667593,"409":0.0017883998271666667,"410":-0.03977110232913063,"411":-0.014359421205315487,"412":0.01422854056525229,"413":0.011545496651449044,"414":-0.06797582049808025,"415":0.07877406110159922,"416":-0.003988680293115941,"417":0.0759451533004834,"418":-0.03902003465206537,"419":-0.013100789301243207,"420":-0.11631162926080984,"421":-0.00846107372726661,"422":0.016872123080147943,"423":0.04281467211181719,"424":-0.002277206168190298,"425":0.05873096583874261,"426":0.016018183773909657,"427":-0.010262731965539534,"428":0.03441319473246394,"429":0.03843554465497941,"430":0.013787749809960966,"431":-0.01798303963585863,"432":0.008027186994478401,"433":0.011311554781547633,"434":0.06554028139203581,"435":-0.023151276204949514,"436":0.004094236326596019,"437":-0.0038618031256469182,"438":-0.02453764836327865,"439":0.009137353397848484,"440":-0.06525582486631288,"441":-0.005352453499088497,"442":0.024680690480879813,"443":-0.01760207967864842,"444":0.013856937295240333,"445":-0.04562140349434842,"446":-0.009201050064301262,"447":-0.05403932128476206,"448":0.06158764613604703,"449":0.026813879675593247,"450":0.03761861389737128,"451":-0.004322832933777297,"452":-0.054823679321910665,"453":-0.004605217295633569,"454":0.016756161121643777,"455":-0.0033975926939713665,"456":0.044855300214823195,"457":-0.005954634574815973,"458":0.049913492048365544,"459":0.00836196961782462,"460":0.020412233087819267,"461":-0.04654752570362893,"462":-0.0025321325882190905,"463":-0.14307825674529476,"464":0.036399375072159235,"465":-0.006526019455798036,"466":-0.0066125708664021634,"467":-0.014194765243170178,"468":-0.0156926995031125,"469":-0.023241320240480822,"470":0.06139236312041512,"471":-0.05979713557033092,"472":-0.04518019374766841,"473":-0.02840138495309325,"474":0.07329543310970785,"475":0.06527090266661281,"476":0.07824359224790839,"477":0.00363734551978286,"478":0.04440031051183561,"479":-0.05073120596137749,"480":-0.06581181257991142,"481":-0.032463756626320506,"482":0.06626842667880422,"483":-0.021034035549040562,"484":0.017822348817474132,"485":0.02075426066303203,"486":0.005692357432159965,"487":-0.020809455921111153,"488":0.008817955254107556,"489":-0.06023417518568225,"490":0.07231363136573536,"491":0.02424333546674854,"492":0.02402768428377053,"493":0.04600629709875323,"494":0.00635252595541417}},{"sx":1,"sy":1,"depth":495,"w":{"0":0.06580374997564764,"1":-0.0023173434838801923,"2":-0.011867476887432747,"3":-0.014198699274227035,"4":-0.0050791917221056325,"5":-0.08163829686793336,"6":0.023184314933575773,"7":0.033066890041794986,"8":0.03382238643329375,"9":0.06263514373388391,"10":-0.03266864102292813,"11":-0.016473969214411913,"12":0.06246146071701518,"13":-0.01800754025898922,"14":0.0123596231565356,"15":-0.02474117367866503,"16":-0.08738779623564824,"17":0.018677160104666475,"18":0.021407013153553315,"19":0.00014306085652282725,"20":-0.036261988475085743,"21":0.04134476785132152,"22":-0.08860321549007471,"23":-0.06219936075326849,"24":0.010016096878031944,"25":-0.08685116838537989,"26":0.019610086419525916,"27":0.09127110437522866,"28":-0.027715948862581156,"29":-0.016818003789380607,"30":-0.03289279239708626,"31":-0.03368024521846556,"32":-0.0289398182366893,"33":-0.020517217750437834,"34":0.043472425004262474,"35":-0.021790398911479464,"36":0.05295240049292126,"37":-0.057030430272835594,"38":0.03959941030859561,"39":-0.06537576288059259,"40":-0.06760697488831434,"41":-0.05254465427460244,"42":0.07771651343432551,"43":0.017212465930374423,"44":0.036884115577679934,"45":-0.022481774806083252,"46":-0.030831086765011443,"47":0.13071384427968835,"48":-0.026625598860201542,"49":-0.007672490027727503,"50":-0.012934771590531713,"51":-0.018075717523036536,"52":-0.03460298760363843,"53":-0.06242062335345645,"54":0.0007916544316095127,"55":0.0773983015877573,"56":0.06128091987899446,"57":-0.01782415099657922,"58":0.04333523359421775,"59":0.03349151477705897,"60":0.04262166067054266,"61":-0.09753570558351522,"62":0.04178275480729786,"63":-0.023114889797935852,"64":0.01676641051134772,"65":-0.0324437232839019,"66":0.10780436412459702,"67":-0.015616037341454195,"68":0.04533998929841465,"69":0.06436789182640279,"70":0.06889571811486676,"71":0.005211418997996676,"72":-0.056325735982743784,"73":-0.03596675619501436,"74":0.01991375280065262,"75":0.019087439111704986,"76":-0.07467687440233815,"77":-0.15290084053531805,"78":0.04538117964522922,"79":-0.02343075322135427,"80":0.04133517582913396,"81":-0.014293097399710181,"82":-0.07012368546260508,"83":-0.005565650053458676,"84":0.031169789332078305,"85":0.04497734957442257,"86":-0.08732602672755576,"87":-0.019102595755516146,"88":0.03531360427140493,"89":-0.03271896533679664,"90":-0.0076346493584531815,"91":0.08200937268759366,"92":-0.0014256640343850281,"93":0.056920119266472,"94":-0.002381049937909343,"95":0.021372337985819042,"96":-0.018755280105400226,"97":-0.01657593416482047,"98":0.009132550794885216,"99":0.0542829932199128,"100":-0.07459886511061045,"101":-0.013246124622804162,"102":0.020997382109980273,"103":0.004566341542726904,"104":0.003658111112139994,"105":0.06822293421033038,"106":-0.03145448340143707,"107":0.0017127198663489384,"108":0.0689842855807236,"109":-0.03905181639236245,"110":-0.01652581564195102,"111":0.06204233974712856,"112":0.02823259156942109,"113":0.12518281623376393,"114":0.06070093266850223,"115":-0.0005741198579760831,"116":0.02101597156249321,"117":-0.011059126242993888,"118":-0.04728880020306638,"119":0.01974673048306364,"120":-0.01078728011416487,"121":-0.007927956727303,"122":-0.030494767175706747,"123":-0.014178499540077214,"124":-0.04429552510972543,"125":-0.022612569355716143,"126":-0.06557338110433701,"127":0.05613645137826912,"128":-0.014445837838259421,"129":0.0245064449179942,"130":-0.025110777872155192,"131":-0.02067482876283453,"132":0.02561671807988,"133":0.05265264057924935,"134":0.05804564548874534,"135":0.04140907297820528,"136":0.07652449605731393,"137":-0.004470081195206976,"138":-0.0011491298107819706,"139":0.0297326488436553,"140":-0.038342951144985635,"141":-0.10531795475054048,"142":0.014381078549935781,"143":-0.07002244043921477,"144":-0.02213655541781992,"145":0.02757675221927241,"146":-0.10655263743041149,"147":-0.03299934135925273,"148":0.012161076881723444,"149":-0.004253966979808916,"150":-0.07324361655081826,"151":0.05056987199303177,"152":-0.04237710956831327,"153":-0.02752820585479906,"154":0.05469810313116089,"155":0.01871600882975635,"156":-0.03722113502701351,"157":-0.05543223267238189,"158":0.003977198764832999,"159":0.08483866381507382,"160":-0.011880242560611844,"161":0.06444837336538671,"162":-0.13907137363019795,"163":-0.04097663831024476,"164":0.0024692737023529576,"165":0.03217648360606101,"166":-0.08050585698465354,"167":-0.07546312112362888,"168":-0.0011766055269055596,"169":-0.014627706731046762,"170":-0.0016123216577843405,"171":0.045071398925329874,"172":0.012972614797422427,"173":-0.0034415604913971623,"174":0.049149899912423495,"175":-0.045078877200190416,"176":-0.009087086851382514,"177":-0.06669781474943359,"178":-0.011076992753333904,"179":0.06000056041596497,"180":0.001332089041439134,"181":0.0278089192476586,"182":0.013587244197122682,"183":0.007776754998532816,"184":0.054638625777230915,"185":-0.013040849041709105,"186":-0.0433772591237489,"187":-0.05571364601620162,"188":0.0008636185568529522,"189":-0.0957124976578784,"190":-0.056418029719515234,"191":0.022815394587700537,"192":-0.0687864814450133,"193":0.00845576398674069,"194":-0.02308983123222153,"195":-0.03608910640452005,"196":0.09111641894399717,"197":0.020957821673051918,"198":0.0017664294827165168,"199":-0.10970245309150454,"200":-0.013806770313964345,"201":-0.04154628870059488,"202":0.005420434565370968,"203":0.030987136954231942,"204":-0.0012746432085333806,"205":0.011518585595167352,"206":-0.046607664365828486,"207":0.0526786198607814,"208":-0.016995419509518696,"209":-0.053332646872982614,"210":-0.01578689605440518,"211":-0.037751032267799176,"212":0.0019154387215657457,"213":0.002457500614395218,"214":-0.03778021250355581,"215":0.041297768004820955,"216":0.036926710849195944,"217":-0.0696658325746508,"218":0.09946835562683048,"219":-0.09372252940039308,"220":0.005001203010942392,"221":-0.009621686776914755,"222":-0.10151844843742033,"223":-0.040021487095383355,"224":0.04385555149998029,"225":0.01679499826026695,"226":-0.012018613868760434,"227":0.014979038594893745,"228":0.016550689523524332,"229":0.05206182240610334,"230":-0.019661608461360596,"231":-0.024617080359734557,"232":-0.013260842330092597,"233":0.0310501778436063,"234":0.046273456015870566,"235":0.03139672519900561,"236":0.09388416431739461,"237":-0.026915374008677953,"238":0.09242673167300011,"239":0.01261325273333252,"240":0.04146092581947482,"241":-0.01855631479264263,"242":-0.02030434678555347,"243":-0.05487747084649119,"244":-0.02599410722693581,"245":-0.0223216841314073,"246":0.02209100138781797,"247":0.05528780228441064,"248":0.005979863688628958,"249":0.008273230694822391,"250":0.07231861955984144,"251":0.07051824918025524,"252":0.032265874916817136,"253":-0.025166560409414458,"254":0.07461688518494226,"255":0.030954066849637973,"256":-0.005461863867516978,"257":-0.016850122778387117,"258":-0.0020547187172508603,"259":0.0006704671620493583,"260":-0.04623389123928268,"261":-0.11314670304634308,"262":0.08506289376306682,"263":0.015902998466297547,"264":0.0026116543481487547,"265":0.04014059690721321,"266":0.013882707443494492,"267":-0.06530658098392464,"268":0.07641236112705371,"269":-0.07675336529342388,"270":0.024084864567986325,"271":0.026561548219127973,"272":-0.03292733677558254,"273":-0.023025682561324312,"274":0.044789815037374496,"275":-0.06001070734552306,"276":0.04113049904025579,"277":0.010243404634720404,"278":-0.04823494701992637,"279":0.03536746727904482,"280":-0.010825330749667665,"281":0.04184158764371364,"282":-0.039340563646782484,"283":0.04615056667665218,"284":-0.07241928162760921,"285":0.0206130571354183,"286":0.0579794982023539,"287":0.047776861129311295,"288":-0.053024396178691265,"289":-0.02976325559463274,"290":0.02266686309512773,"291":0.04128171199394361,"292":0.02112407634273803,"293":0.08500780389655783,"294":0.0869810408567697,"295":0.005881963958778937,"296":0.12746955768707108,"297":-0.012834700651516657,"298":0.050970262946756946,"299":-0.03736109077147677,"300":0.08188757861601842,"301":0.040271123889554464,"302":0.0160883453030824,"303":-0.004701337286436389,"304":-0.0600254659150344,"305":-0.03865629920518951,"306":0.033229722056872385,"307":0.02220141464570413,"308":-0.003631776032804503,"309":0.0743518842637473,"310":0.059891902994338324,"311":-0.02916613141264809,"312":-0.019077567837882118,"313":-0.017055815150284422,"314":0.0019180549114817442,"315":0.022632618764329995,"316":0.004028627787456576,"317":0.0185988750054948,"318":-0.04607532070920102,"319":-0.010202531905900067,"320":-0.030885112543847723,"321":-0.06469760730058012,"322":0.06596561207958318,"323":0.05365475216360785,"324":-0.09588568491008227,"325":-0.0323037276094506,"326":0.0673716031313017,"327":0.005056948424080135,"328":0.018198444189805336,"329":-0.04044549865403026,"330":0.02322871983020791,"331":-0.03557387464745253,"332":0.02242211355124198,"333":0.019142043413919937,"334":-0.05064001255105986,"335":-0.009329280149757823,"336":-0.039131087592804245,"337":-0.07022443733472587,"338":0.0712469149572272,"339":-0.10062402813997859,"340":0.004886899405874952,"341":0.06007663713151943,"342":-0.01819594960743,"343":0.03247212402528808,"344":-0.14102821604193572,"345":0.016882299610245396,"346":0.033039181664302364,"347":-0.022952505144913426,"348":-0.026677075395530006,"349":0.07614963283780598,"350":0.03046976433182608,"351":-0.05088458586773576,"352":-0.02350563466804844,"353":0.03831955079931202,"354":0.03471387538732372,"355":0.01580903572554457,"356":-0.04922118296122657,"357":0.03900082064328783,"358":-0.011217340376592166,"359":0.05943722176374866,"360":-0.035033643875172306,"361":-0.04246695860355404,"362":0.06539707801764453,"363":-0.037252569212162454,"364":-0.025214469377087746,"365":0.012775069494454467,"366":0.0167518112484617,"367":-0.002751532322165822,"368":-0.015912004056406033,"369":-0.015427180451435498,"370":-0.00881377335658562,"371":-0.06581811052939647,"372":0.06556130689110831,"373":0.018647565906397084,"374":0.03391522997204138,"375":-0.05169737841443438,"376":0.05703581787872781,"377":-0.07442944913991402,"378":-0.05084341888698781,"379":0.02199130532097428,"380":0.09564508197742272,"381":0.01953845957326308,"382":-0.08665998949828527,"383":0.03506191148258797,"384":-0.010394091772563375,"385":-0.035183005826835756,"386":0.03026102116972834,"387":-0.011208322533731695,"388":0.04101892185355624,"389":0.09728968293714662,"390":0.04712275087595693,"391":0.025192240498272906,"392":-0.03976136101897351,"393":0.1036087477167666,"394":-0.013055594558054941,"395":-0.02982428181589654,"396":0.018442799323650505,"397":0.0038562612060837314,"398":-0.024748561166680075,"399":-0.04225702690582631,"400":0.10127882010370274,"401":-0.0017786329739966065,"402":0.05327032098269895,"403":-0.001001065669470249,"404":-0.0008836751874550704,"405":-0.024061471498269593,"406":0.01042675217843897,"407":-0.01204472483613728,"408":-0.022748667790061232,"409":0.07741138621658157,"410":0.008576987704635772,"411":0.06214992972977821,"412":-0.06606036388908894,"413":-0.01654169886626135,"414":-0.06904076866573924,"415":-0.0020528508033295593,"416":-0.039163705344316395,"417":-0.04664891637231564,"418":0.05175090701167651,"419":-0.027342044274681433,"420":0.0072247495160752215,"421":0.015897594156790796,"422":-0.008531333883716955,"423":0.0379278329940109,"424":0.04597523340580347,"425":-0.0017975638203608333,"426":-0.06269832811819395,"427":0.003977065435241773,"428":0.06883083994676441,"429":0.0394989081357949,"430":0.025406499961098356,"431":-0.0011039571004631014,"432":0.017844561139189606,"433":0.03480586979397003,"434":-0.022282917424977504,"435":-0.00929781600496387,"436":0.01158666956121659,"437":-0.021183447190428296,"438":-0.032628961340405736,"439":-0.032522653792659895,"440":-0.018759192160339145,"441":0.027420338542390246,"442":-0.014567171617963788,"443":0.000984874329357426,"444":0.029181992479130173,"445":0.029274473199804002,"446":0.07311413022195463,"447":-0.007745179661522207,"448":0.10838656344668923,"449":0.006374454248867548,"450":-0.030136089090801097,"451":-0.030333419340592124,"452":-0.01746528254885947,"453":-0.10230218905023294,"454":0.046506621148303374,"455":0.05828277590164938,"456":-0.03010845856307861,"457":0.03620717358514342,"458":0.06039603836029876,"459":-0.011245586713823406,"460":0.04922186485216275,"461":-0.039071919565441274,"462":-0.015173834666127471,"463":0.05213022613344207,"464":-0.03910002243515544,"465":0.02871711481235534,"466":0.06888488367615879,"467":0.053551938098761145,"468":0.06585301283001639,"469":0.00800861397274732,"470":0.04679654471188054,"471":0.03015148407401442,"472":-0.05206560449763114,"473":-0.021489268963234064,"474":0.03183546557732043,"475":0.002172565056875994,"476":0.015142183150398148,"477":0.07066566207232619,"478":-0.0008189119456653407,"479":0.012349278215269168,"480":-0.08528740037456997,"481":-0.04504139535447974,"482":-0.06761421146732126,"483":-0.04475239980061978,"484":0.12344244755920676,"485":-0.030308228201725736,"486":-0.02336566117244275,"487":0.06318384756352364,"488":-0.06927219406006507,"489":0.06970288157268108,"490":0.09576855083326656,"491":-0.0392086380252641,"492":-0.0242509266508105,"493":-0.01427381443133784,"494":0.002171406277442946}},{"sx":1,"sy":1,"depth":495,"w":{"0":0.011515157270541398,"1":0.019716669192748247,"2":-0.013881435491702277,"3":0.015104910336610537,"4":0.0014203534372497755,"5":-0.06953851189594155,"6":-0.01632232130419265,"7":-0.024377055933528607,"8":0.035260768321627,"9":-0.02128526774326097,"10":-0.037756522021573036,"11":0.029797260709263667,"12":-0.0075879659532361,"13":0.014504192272500538,"14":0.053698465254009405,"15":-0.028508768257413334,"16":0.06262540129054696,"17":-0.024503345457071324,"18":0.044275792782740075,"19":-0.008785782629927623,"20":-0.1057151050160175,"21":0.001035004279065125,"22":0.005707710037865869,"23":-0.025367101559241742,"24":0.04568049479090514,"25":0.04996707191540167,"26":-0.021017220280841794,"27":0.0683472916270718,"28":-0.020906768243743993,"29":-0.027623430987222364,"30":0.00859120955990858,"31":0.0431360617610913,"32":0.05067262870783845,"33":0.00245163163141628,"34":0.007051825525831217,"35":-0.025090359230519832,"36":0.022698903364343815,"37":0.07792812433618318,"38":0.004902917100961684,"39":-0.012647167692461287,"40":0.07292108704696355,"41":-0.04351611460594828,"42":-0.007044405258156267,"43":-0.0031900206460444935,"44":-0.012781930153715533,"45":0.025927257212130867,"46":-0.030656788000901016,"47":0.000330380088777675,"48":0.008327541824861267,"49":-0.07046390686229864,"50":0.0030396758248587034,"51":0.014077651675570016,"52":0.04464227819358808,"53":-0.061551045156519206,"54":0.033007640017802264,"55":-0.059315292358976826,"56":0.02577741027598287,"57":0.038161429864808576,"58":0.03298179285182193,"59":0.008520740545452206,"60":0.06978582259391734,"61":0.04790196279715338,"62":-0.0720999972752288,"63":-0.04482484183437799,"64":0.052132155084989314,"65":0.09230638613515252,"66":0.027960745242144404,"67":0.11392634463143411,"68":-0.02937187217070749,"69":-0.00945091920235759,"70":-0.038022411083832273,"71":-0.04513344081659949,"72":0.11731207775146142,"73":0.012548315914968374,"74":0.012679718234304004,"75":-0.015492862961407064,"76":0.020912418083623905,"77":0.1792270251489664,"78":-0.04899699038203724,"79":0.013335813241118354,"80":0.01932529251304469,"81":0.00434065762137196,"82":0.1289115677921912,"83":-0.062406127036697845,"84":0.05255431879713637,"85":0.026625406194562436,"86":0.05012313991483668,"87":0.0007008719308706644,"88":0.001908356441567852,"89":0.050601594841797146,"90":0.015150297851866985,"91":-0.06651938911851796,"92":0.043368218910821425,"93":0.05927137213965966,"94":0.03480862617942096,"95":0.00924362448344459,"96":-0.0343042152668723,"97":-0.05816480107715673,"98":0.06665400087777579,"99":-0.09753486961599901,"100":0.024967586211568405,"101":0.01329517560844103,"102":-0.04700781194663671,"103":-0.0073405950839562205,"104":0.020684777720625196,"105":0.05371024200183196,"106":-0.046210167281277095,"107":-0.013472022102968455,"108":-0.017582420271352983,"109":0.11040069481419708,"110":-0.023381243374275308,"111":0.06181965881347075,"112":0.11021890994398597,"113":0.04956871980549978,"114":-0.06373207699834778,"115":0.02178586545077674,"116":-0.026182545663541407,"117":-0.027835813417623652,"118":0.019561937505998352,"119":-0.004039646801963185,"120":-0.005240654113603941,"121":-0.05607134708700284,"122":0.09215427771181851,"123":-0.00911827389070119,"124":-0.07209595496895266,"125":-0.031552667171529776,"126":-0.08716040650915752,"127":0.0027702959388414714,"128":-0.027741285668425024,"129":0.020924880985746328,"130":-0.01795160311279434,"131":0.11263995195597509,"132":-0.028615110200109397,"133":0.009255662752694517,"134":-0.012038152798095688,"135":-0.02686940305760259,"136":0.005740692176938021,"137":-0.06197603940980578,"138":-0.10185060423025328,"139":0.06398058121120113,"140":0.0692797730812969,"141":0.013849277636939407,"142":-0.024173641791808285,"143":0.060896813638910904,"144":0.02053551843577661,"145":-0.04414894215796429,"146":0.028767199086063115,"147":0.029283988408840004,"148":0.019808570279394824,"149":-0.03113195870354046,"150":-0.0020547328201010383,"151":0.0026453192574267042,"152":0.042355660092236555,"153":0.03857247788203447,"154":0.055934913234149355,"155":-0.0023043363040115925,"156":-0.08424884262683946,"157":-0.10155811289489073,"158":0.11707353707659276,"159":0.04140013827758229,"160":0.005060672998150164,"161":-0.02878088668054309,"162":0.00894067034254493,"163":-0.033788132924386885,"164":0.0627063427740643,"165":0.05150129276611975,"166":0.03930796792128072,"167":-0.009179466297470222,"168":0.011359603204562231,"169":0.034743943506378015,"170":0.02002628767667625,"171":0.029538030766047825,"172":0.02600335009448907,"173":0.036936925688074086,"174":0.04457082850377255,"175":0.008882897754813183,"176":-0.03137884819323709,"177":0.027540330317904756,"178":0.1069358122248083,"179":0.042227009532506916,"180":-0.011524570235804424,"181":-0.09169727693219938,"182":-0.027659169009816256,"183":-0.09587104683187315,"184":0.09327988459602737,"185":-0.06541999214625924,"186":0.045800142846265934,"187":0.16910920690306194,"188":-0.021605093031705668,"189":0.028934787100636978,"190":0.026083523056781826,"191":-0.021401121612325127,"192":0.15314237395647773,"193":0.043666109124137126,"194":0.0018219035935324397,"195":-0.0029992106387562492,"196":0.09965273809465314,"197":0.08457721095150877,"198":0.06129504503721363,"199":0.006349871707055412,"200":-0.009103479667286713,"201":0.06940421889794423,"202":0.0965696110278173,"203":-0.03418242726736649,"204":0.036212936531789225,"205":-0.01917852905287838,"206":0.00359532627326753,"207":-0.01345074009035584,"208":0.047411905498851076,"209":-0.032324625722800614,"210":-0.03397513924667802,"211":-0.00850999982726036,"212":-0.004643805406047651,"213":-0.06515150545520337,"214":-0.0605666595369528,"215":-0.000904401939834604,"216":0.0271101781403544,"217":-0.018644504161692436,"218":0.007129402336435918,"219":-0.03133505909302488,"220":0.012692128680853684,"221":-0.04065763168923778,"222":-0.019848412780160966,"223":-0.009723189499753383,"224":0.044447615660157425,"225":-0.022811842939628637,"226":-0.0890051251766473,"227":0.027727261426035866,"228":-0.13098639579507384,"229":0.03737411282179022,"230":0.049650611648249486,"231":0.036048571537343615,"232":-0.03023618516370816,"233":-0.009705886967286395,"234":-0.029633017403584868,"235":-0.02875743998128219,"236":-0.028989856205137915,"237":0.01996452691370122,"238":-0.012107040637176354,"239":-0.05764503449552996,"240":0.018665357790526634,"241":-0.047635391362360564,"242":-0.011238523386000868,"243":-0.039159408532417936,"244":-0.014057665714715601,"245":-0.04367651799574794,"246":-0.026264829328464155,"247":0.022121084038991524,"248":0.03620651066800504,"249":-0.04297371645127426,"250":0.03693067988987988,"251":-0.0016318899373386974,"252":-0.040705592390184314,"253":-0.018202909461868043,"254":0.016064808212656174,"255":0.006853603665108298,"256":-0.01408506426313571,"257":-0.031868221388706666,"258":-0.06747680118089562,"259":-0.03071600926325744,"260":-0.018932123784191235,"261":0.04143108874492573,"262":0.034335283691471985,"263":0.04334943034786662,"264":-0.07037176384787369,"265":0.026840458924511257,"266":-0.03665629799760023,"267":0.04243117247241029,"268":0.011063332213456476,"269":0.024887948742642742,"270":0.0052286911419250955,"271":0.024927142096147912,"272":0.009022369378552554,"273":0.05772931508155791,"274":0.022861974786418795,"275":0.028306310839253803,"276":-0.03194439684086771,"277":0.033838417740766534,"278":-0.012125998351357272,"279":0.03228828582045179,"280":0.010738884225787186,"281":-0.022190650503486217,"282":-0.01875306213948758,"283":0.009392675795067128,"284":0.01889501352790053,"285":0.07564106049795185,"286":0.028254909137213867,"287":0.010245402915929935,"288":0.013941699186512751,"289":0.03716420433482922,"290":-0.002368172001087812,"291":0.03806173886271118,"292":0.05692806453151228,"293":0.0001085244962581164,"294":0.04945985975636322,"295":0.03147742534413961,"296":0.006769891345601238,"297":0.028513914678221955,"298":0.06239871783706865,"299":-0.10131189678067226,"300":-0.0007904671652059389,"301":0.026098328260128856,"302":0.04637108717218441,"303":0.11092553641300802,"304":0.021406866414130566,"305":-0.007010586178811634,"306":0.05124558060784144,"307":-0.025613252494032332,"308":0.09167634329504633,"309":0.09779468417742353,"310":0.05495985287951611,"311":0.013728336472353023,"312":-0.0010156600462211606,"313":-0.012252024134552445,"314":-0.007602386505755552,"315":-0.012106167855860236,"316":0.04512841565858213,"317":0.11645965755722763,"318":0.01781764187697947,"319":0.041912277151654576,"320":-0.03069802718501381,"321":0.07248022034063535,"322":0.055325035544232105,"323":0.06653419006405683,"324":0.036045186367554056,"325":-0.03492308390121987,"326":0.0007934766854600622,"327":0.008302886869948272,"328":-0.03455524080583505,"329":0.0018836866143307651,"330":0.01656347238451328,"331":-0.010857469778714337,"332":-0.048867853043690984,"333":-0.013990582477939338,"334":0.001454763658753622,"335":-0.06296481063283377,"336":0.016920423257073862,"337":0.05858891835240401,"338":0.029100764339535637,"339":0.0038452155890114827,"340":0.017785435527596024,"341":-0.021845508884840423,"342":0.022474585791714224,"343":0.0934623583585296,"344":-0.034456217264394164,"345":-0.02698096375028672,"346":0.007884432066130412,"347":-0.08236149397320755,"348":0.03945289647997318,"349":-0.014324157837770397,"350":0.01662499539716888,"351":0.03095165654147536,"352":0.017466485507839725,"353":-0.0310389846971856,"354":-0.029801260036181245,"355":-0.04577425362699987,"356":0.007679470831743249,"357":0.008298288813724592,"358":0.007676457948192599,"359":0.07950769680571745,"360":0.002364029450958386,"361":0.017310972051925465,"362":-0.06841220184148096,"363":-0.0468227203678736,"364":-0.046671907843902856,"365":0.07610128174690789,"366":0.07748028465819255,"367":0.01778281610050944,"368":0.040860795516573,"369":0.011027359978253301,"370":-0.0004526974494043129,"371":-0.045742050588391286,"372":0.04383539147815281,"373":0.006065043212471286,"374":0.051946449530411436,"375":-0.05587976780638122,"376":-0.030642594516197514,"377":-0.04542032147373766,"378":-0.01516506223226585,"379":-0.04583239959096744,"380":0.01672435978935526,"381":-0.03274037579759304,"382":0.014278757448631187,"383":-0.026274702902774414,"384":-0.004989543328007712,"385":0.014688474646079113,"386":0.03400230450311393,"387":-0.0018029766101986864,"388":0.01920891353564604,"389":0.04391663242311101,"390":0.03575354702196012,"391":0.07458772971249366,"392":-0.0259572727164378,"393":-0.010254385014792056,"394":0.08982745577683318,"395":-0.04797791157577649,"396":-0.008136604499252258,"397":0.040584583085896124,"398":-0.025022165687671745,"399":0.08532779418644512,"400":0.04530312504819717,"401":0.006664630656008434,"402":0.02125351924647072,"403":-0.04018025708040873,"404":-0.02202788671370865,"405":-0.0254369278994911,"406":-0.021355211169060362,"407":0.011496969943083437,"408":0.04788346333882688,"409":-0.025701923845959536,"410":-0.03628486183222134,"411":0.07589801417541306,"412":-0.05447166844104635,"413":-0.07580410583685414,"414":-0.014038151108718031,"415":0.015250406159683429,"416":0.029750074049982318,"417":0.030636910493483393,"418":0.05068026201783955,"419":-0.01256514039184466,"420":0.0417459597603964,"421":0.059442638625054826,"422":0.04488740037954316,"423":0.005665518814582359,"424":-0.02994875712064791,"425":0.07247033358731908,"426":0.01846187049091696,"427":0.05025963578796682,"428":-0.01937744261610978,"429":0.003045240708043775,"430":-0.04079332342195523,"431":0.02399967091022435,"432":0.00036507847254153885,"433":0.073834085126961,"434":-0.037636358094166274,"435":-0.016396080833531144,"436":-0.02635692292033955,"437":0.06067076157891203,"438":0.05016252822586824,"439":0.04514003718005073,"440":0.03731933841265473,"441":-0.010722604118345651,"442":0.025825139444671366,"443":0.06598659065728854,"444":-0.009688337904769797,"445":0.026124303643324038,"446":0.05614716715701531,"447":0.10677710075948091,"448":0.0014450699964370244,"449":0.04749316438747697,"450":0.0635299845542291,"451":0.029452131689294347,"452":0.012114281268624413,"453":0.022944909648725566,"454":0.023819356430514814,"455":0.08537601496442221,"456":0.035045714044338316,"457":0.011176722031107883,"458":-0.003091677665036683,"459":-0.007382367506974837,"460":-0.00877725453385385,"461":-0.06377984766302834,"462":0.02035240115305135,"463":0.038298470218493315,"464":-0.0435522776732537,"465":-0.00690086745928413,"466":0.0008386862482332714,"467":0.012058069332908675,"468":0.10998781910284604,"469":0.00900303628029278,"470":-0.016129543958684947,"471":0.005559282231831169,"472":0.09502623459479675,"473":-0.01137643939870729,"474":-0.03418600616805257,"475":0.03603356898741662,"476":-0.019384099180760596,"477":-0.0740511846397683,"478":0.07637728832016999,"479":0.013993425109423984,"480":-0.03686498932453456,"481":-0.045182078022379536,"482":0.014083334395674662,"483":0.008026022780295974,"484":0.020435407565667196,"485":0.024697809454443838,"486":0.023014100337464645,"487":-0.004403821260592377,"488":-0.014339404833757413,"489":-0.012677466108089613,"490":-0.017765712800652766,"491":0.013818848097482025,"492":-0.019995583950019203,"493":-0.01230989836648591,"494":-0.016051972542031206}},{"sx":1,"sy":1,"depth":495,"w":{"0":0.1118378232930394,"1":-0.06218156288698133,"2":-0.060012799705568685,"3":-0.05073644671498433,"4":-0.006807930767062083,"5":0.01859554281295235,"6":-0.06653454722523597,"7":-0.06456425125930441,"8":-0.03271062486254478,"9":-0.04186959773724344,"10":-0.0029658915085049655,"11":-0.006878979627706503,"12":0.019395015719893504,"13":0.0006493497457039749,"14":0.022545934129425946,"15":-0.03574792551972343,"16":-0.0411062739030631,"17":-0.008206201304645092,"18":-0.01640686712084717,"19":-0.04670552236663418,"20":-0.01365431738364945,"21":0.06535455391810377,"22":-0.04974218722627619,"23":-0.02288552202043864,"24":-0.009942871306077369,"25":0.016103378268980756,"26":0.027758972063227194,"27":0.09610126476304809,"28":-0.02705162865270674,"29":0.005421454903170605,"30":-0.07101037540766287,"31":0.0038457300741770585,"32":-0.03027110408502737,"33":0.016528496281612514,"34":-0.06315094881899205,"35":-0.08687067243646194,"36":0.00790594814217854,"37":0.005375133055447128,"38":0.021300320955816295,"39":-0.04857452823403091,"40":0.029998699236997515,"41":0.00796144084268713,"42":0.005387361776052102,"43":0.11078555525223446,"44":-0.024995109919140425,"45":0.08425780241451482,"46":0.019764418402631475,"47":-0.04006488232517033,"48":-0.01667623142202856,"49":-0.022402855621131177,"50":0.00032753376091516954,"51":0.02089697954869345,"52":0.020087426848145195,"53":-0.044394301216049835,"54":0.04977204173332346,"55":-0.03128848177538067,"56":-0.02724726078333206,"57":-0.06612882501676083,"58":0.004940412325866587,"59":-0.0017422305443024934,"60":0.007247644227021148,"61":-0.029143758466888995,"62":0.028440429846874743,"63":0.014651341092995713,"64":-0.03251070572503803,"65":0.016809823632727243,"66":0.053020376299826984,"67":0.019625247674379512,"68":-0.039175033859830975,"69":-0.07118041783288691,"70":-0.04676167945175841,"71":0.034613591626884606,"72":-0.05949803711382702,"73":0.02834673152651374,"74":0.044219665447823755,"75":0.018390672777895623,"76":-0.0403963013660102,"77":-0.06592739226905386,"78":0.07742560159732353,"79":-0.0515690181491237,"80":-0.00999156375959517,"81":-0.020802344968866196,"82":-0.06629570457139724,"83":0.024718953856160058,"84":0.02153295534188928,"85":-0.042063904567684086,"86":-0.07298746694620275,"87":0.08794199438302164,"88":-0.02035672443054103,"89":0.05662431048961471,"90":-0.021369657618899432,"91":-0.036998912699091786,"92":0.02330581417845691,"93":0.010781597500400652,"94":-0.003436377993113514,"95":-0.00618308799674792,"96":-0.04580824789105329,"97":-0.036423673175309174,"98":0.016227582319771332,"99":-0.05586281732560721,"100":0.011111890957938715,"101":-0.0025320509515924186,"102":0.06875293839415024,"103":0.001131489057145076,"104":0.06012148136843849,"105":0.03869839363693401,"106":-0.005603981689464513,"107":0.09982513765560405,"108":0.03430046342510991,"109":-0.03971228264578003,"110":0.004705251428902969,"111":-0.020874475030907686,"112":0.0368671308378656,"113":-0.08352636087283452,"114":0.05182372820454262,"115":0.025826129611111286,"116":0.035884034667777516,"117":-0.035297595463582854,"118":0.001950736680113729,"119":0.02935880447952142,"120":0.013277020955162954,"121":0.015748934638877963,"122":-0.031473419750820186,"123":-0.04422899369548458,"124":0.03299464196644367,"125":0.11356431520157768,"126":0.002266971165860658,"127":-0.06372152709401886,"128":0.01944750689954545,"129":0.004908466213844123,"130":0.014528758206157302,"131":-0.015521703099925824,"132":0.003560237668925841,"133":-0.10510257922286446,"134":-0.04282710870042257,"135":-0.13184013141619505,"136":0.05763341233429752,"137":-0.08376153755833675,"138":-0.05074968673184791,"139":0.011192673167936696,"140":-0.028212514855307884,"141":-0.019454106522012432,"142":-0.07933809449589515,"143":0.00018404571858360327,"144":-0.01899624016411813,"145":-0.018472146909691123,"146":-0.1047463875602071,"147":0.017136037147199166,"148":-0.030627917143664376,"149":0.04792209692015895,"150":0.0008808063739007489,"151":-0.052419908932659846,"152":-0.03959557692896049,"153":0.028467976932385154,"154":0.04308200082783696,"155":0.0020210599887193156,"156":-0.06736891445265801,"157":0.03784426516755929,"158":0.009656166220098808,"159":0.006603755425490504,"160":0.05218249155390033,"161":0.016843554850873393,"162":0.04018369852346361,"163":0.08104664237083416,"164":0.009749970736135942,"165":-0.04198670504723582,"166":-0.002182919508430626,"167":0.022121076462997744,"168":-0.021813479647414112,"169":-0.040153490275919995,"170":0.03821309527753286,"171":-0.03613818189876672,"172":-0.02732651990420384,"173":0.04900246740067817,"174":0.056959530229954286,"175":0.048057916700703564,"176":-0.05410243503799686,"177":0.016788923859060268,"178":0.034964020101026,"179":-0.029905238106652784,"180":0.03930171937696482,"181":0.02739332692474627,"182":-0.05221982318813652,"183":-0.03984086267243116,"184":-0.06771114206330696,"185":0.02125117339850072,"186":-0.023995369321076463,"187":0.02188405379053762,"188":0.08364786841597961,"189":-0.006882114881201155,"190":0.044840765932931334,"191":0.03822543024032691,"192":0.0052939105649663295,"193":0.09004506935312056,"194":0.06486306985881868,"195":-0.0637600973244523,"196":-0.06009782338006542,"197":0.03281477061795309,"198":0.025308189677644824,"199":0.06626642276135015,"200":0.05266739118302222,"201":-0.06775754543460358,"202":0.048585544944548684,"203":0.05145678956928036,"204":-0.023604092098190993,"205":-0.0189341759161366,"206":-0.06123374760698515,"207":0.05290143170090926,"208":-0.025905401253335867,"209":0.042948094781061416,"210":0.006000002214782903,"211":0.023248452339965343,"212":-0.0001518363471808477,"213":0.061929252775579556,"214":0.003977258131137285,"215":-0.09316525373517423,"216":-0.01890430478524133,"217":0.04115286965214609,"218":0.003986233797639614,"219":-0.014685080352716284,"220":0.05969225018801293,"221":-0.038994820240569834,"222":0.020868747779662834,"223":-0.06423933854723096,"224":0.02019534117593748,"225":-0.07307509717883953,"226":-0.00309523607490754,"227":-0.0738194943273099,"228":0.06056090261586593,"229":0.053481613005362694,"230":-0.0166567540859306,"231":-0.02758594797757922,"232":0.02389146553611065,"233":-0.011354477379182857,"234":0.0042169193226669135,"235":-0.008525812408980216,"236":0.019027308273736165,"237":0.040088252632863454,"238":-0.020863772076954334,"239":0.018849808746199615,"240":-0.02177475195102487,"241":0.054770919827727305,"242":-0.03482291352333381,"243":-0.04253727714699244,"244":-0.0360922139084142,"245":-0.06349445045255206,"246":0.0018090751597348885,"247":-0.10877413763232836,"248":0.009507042576623207,"249":-0.013729320002310191,"250":-0.0006976960708507946,"251":0.05786785242380161,"252":-0.05107756658494712,"253":0.031841433933829676,"254":-0.025410699411523917,"255":0.005323513110040104,"256":0.0038872521379954426,"257":-0.003272741678301048,"258":0.050913606178977666,"259":-0.07949807072854978,"260":-0.08361205984258474,"261":0.033397435106819175,"262":0.042675487606050236,"263":-0.019837798980595112,"264":-0.026189895575774623,"265":-0.00885090891027209,"266":-0.023900588758951405,"267":0.0008669457625376179,"268":0.0097053970366773,"269":-0.007113618006304881,"270":0.07058635488588417,"271":-0.07032633879281547,"272":-0.015101575498646142,"273":0.05147431785581658,"274":-0.007549654457857774,"275":0.08004311831951559,"276":0.020662334928421837,"277":0.01022873471483343,"278":-0.00938892708603255,"279":-0.013987340629709663,"280":0.03225909262285147,"281":0.05788428123215734,"282":0.018436283192802612,"283":0.0743905794165051,"284":-0.003485044410465543,"285":0.04022024873444987,"286":0.013768934405124572,"287":0.04927225993767542,"288":0.021028930621110237,"289":0.03515407255724688,"290":0.010567861095331884,"291":-0.013189523244233215,"292":-0.014656382707035032,"293":-0.027254458553641107,"294":0.030334491694661618,"295":-0.029271236486841285,"296":0.005596768941488302,"297":0.033218338026148556,"298":-0.04251865545493332,"299":-0.054718195098922756,"300":0.0520472977319577,"301":-0.07629098230811046,"302":-0.09864365666056829,"303":0.028940243758246508,"304":-0.006801172750877358,"305":-0.03251548845598747,"306":0.00522995871334665,"307":0.00003286041934360995,"308":-0.020759790183888123,"309":-0.013328167270411811,"310":0.028778080427384247,"311":0.007032817516822594,"312":-0.037993811892266534,"313":0.0632280932251232,"314":0.04999366827596534,"315":-0.01674057635785352,"316":-0.03169376913639301,"317":-0.01489782239819915,"318":-0.019871469385810632,"319":0.04844560180200025,"320":-0.03177521844238844,"321":0.09393969662874489,"322":0.024630001669827307,"323":0.06642731382788179,"324":-0.0812041880659011,"325":-0.03679394490631489,"326":-0.05533198272180925,"327":-0.09252769925641428,"328":-0.003107499005579678,"329":0.08129574603001169,"330":-0.004691768580429099,"331":-0.030048230187324502,"332":0.08439241766558775,"333":-0.058842647309797505,"334":0.013459131760268212,"335":-0.015490754793757003,"336":0.06861261815297673,"337":0.02192473605309097,"338":-0.03253831096631839,"339":0.027043486252999897,"340":-0.023317058922097372,"341":-0.065147841035504,"342":0.0427782482327466,"343":-0.003534389490207689,"344":0.0029603495831833255,"345":-0.03042919636424282,"346":0.003638596054440825,"347":-0.06969217564859799,"348":-0.031996168576050935,"349":0.0090626168965621,"350":-0.05546021932416769,"351":-0.03036677724117932,"352":0.07785005243821756,"353":0.009734730883460791,"354":-0.00933150438264851,"355":-0.0035354883813400457,"356":0.03205832217086342,"357":0.03137265059573701,"358":-0.08839592895602961,"359":0.011521534299307025,"360":-0.009805314534547912,"361":0.11542473471834442,"362":0.0036179465868461796,"363":0.02470273579098927,"364":-0.08579597340140206,"365":-0.03330893463512624,"366":-0.02720186659082508,"367":0.02288475907769611,"368":0.0037862913726275215,"369":-0.09012326690934333,"370":-0.026937028654756074,"371":0.015573337316492533,"372":-0.035986470717651514,"373":-0.0018967690232416271,"374":0.004381857826966652,"375":-0.04136268856687762,"376":-0.006061221984667193,"377":-0.01423775706869967,"378":0.055321396231927444,"379":0.020189591697002924,"380":0.02270093542087735,"381":0.0016797392703402046,"382":-0.0027863809965488874,"383":-0.004674457478249764,"384":0.10391380094011186,"385":-0.011012248561772332,"386":-0.029719086453294574,"387":0.012440764353462956,"388":-0.02913599999069114,"389":-0.009536401358110714,"390":-0.025780197677476562,"391":0.054273816408081495,"392":-0.07643818918366528,"393":-0.05122317847217131,"394":-0.06281493337075067,"395":0.005169418350759417,"396":0.04861302556908568,"397":0.004492336073632205,"398":0.0644265036697302,"399":-0.05882025704387938,"400":0.0034736549232597734,"401":0.027878576237494217,"402":0.004803690351898144,"403":0.008982153515139632,"404":0.03811821989634263,"405":-0.03592065393721556,"406":0.03332364999301402,"407":0.04910035104178359,"408":0.06141572397144239,"409":-0.05978895773955774,"410":0.038074611000219846,"411":-0.03265938434020367,"412":0.08004460507575017,"413":-0.04080086529953695,"414":-0.05303067937847626,"415":0.023146715872818382,"416":-0.0025367441738201744,"417":0.0009100041265862849,"418":0.02675039304484614,"419":0.07091093730165003,"420":-0.04263789151862908,"421":0.024622305563993286,"422":-0.0026284081192343416,"423":0.03217932470026177,"424":-0.014214220694172726,"425":0.02853605439266923,"426":-0.07098335417384527,"427":0.019104183779176047,"428":-0.00417648684470093,"429":0.12295415684757749,"430":0.04564135217039628,"431":0.02812814827296864,"432":0.003489805328372595,"433":-0.03409322781247711,"434":0.03324913678606377,"435":-0.01886094343370776,"436":0.0036094063471816847,"437":-0.0277866078161701,"438":-0.0258049815444869,"439":0.0064879192387250935,"440":-0.10553132260969904,"441":0.01980962163422445,"442":-0.022522841130423392,"443":0.0772374484265447,"444":0.009792144068525065,"445":0.018646000556756047,"446":0.018432636920866177,"447":0.05976110217741403,"448":0.05172772283048982,"449":-0.06804655641032912,"450":-0.015153451326709772,"451":0.030878945896222556,"452":-0.049616618580031004,"453":-0.02470977427822619,"454":-0.07210903447835652,"455":0.0563801825501941,"456":0.003256266986832415,"457":-0.07002488793701608,"458":-0.04937634610698671,"459":0.061631948470363504,"460":0.026785095763135522,"461":0.03378953373661504,"462":-0.021916167357208676,"463":-0.0606233231625238,"464":0.014796486296611405,"465":0.04752977510807431,"466":-0.007240003465169613,"467":0.033037773820321824,"468":-0.02375510449361213,"469":0.0030301129199356525,"470":-0.025689454666430363,"471":0.02120315783360941,"472":0.013763244291767952,"473":-0.029405529331448386,"474":0.02089844845525004,"475":0.034238611981716814,"476":0.08192806652940052,"477":0.004063809702798829,"478":-0.046286732128838215,"479":0.042100788975299196,"480":-0.02611285091782813,"481":-0.0046039545113569,"482":-0.06134055809835329,"483":0.025574798759398134,"484":0.026179607175632034,"485":0.02796092353332131,"486":-0.017078184532322998,"487":0.04519869178753144,"488":-0.09560463123199486,"489":0.007035328941124439,"490":-0.02848766563289126,"491":-0.022584888836117218,"492":-0.004047644794858526,"493":-0.04453955204446576,"494":-0.045006723354114306}},{"sx":1,"sy":1,"depth":495,"w":{"0":0.02226613720333988,"1":-0.033990069126718855,"2":0.027935584907517186,"3":0.0068941604725866745,"4":0.028409618492102426,"5":-0.019105895330952912,"6":-0.01539556101016124,"7":0.004296379072693131,"8":-0.039200255933146855,"9":-0.07392199040131443,"10":-0.129360951589823,"11":0.02712513287352852,"12":-0.0029247430830887746,"13":-0.04569135194482812,"14":0.09692053008535284,"15":-0.03586246594877194,"16":-0.044532749786492104,"17":0.0626648927236916,"18":0.03262087203077564,"19":-0.020735611826896778,"20":0.07184191425336969,"21":0.08050748820684106,"22":0.06300587830202994,"23":-0.031353536022153954,"24":0.0029696652150994194,"25":0.06492467548369665,"26":-0.04166932527842556,"27":0.009351385661027144,"28":0.06403601897179981,"29":0.02526542319012782,"30":-0.009880692342058515,"31":0.038948624605466685,"32":0.06658209629555631,"33":-0.02063479674244031,"34":-0.03544473228105601,"35":-0.05478577036630107,"36":-0.0339866622891011,"37":-0.044929552068223993,"38":0.05949147792981083,"39":-0.007941468079270132,"40":0.036077059859021224,"41":0.010326917668748077,"42":0.06286643505650584,"43":-0.03269926111280158,"44":-0.006665036209574871,"45":0.022714047793293973,"46":-0.06236127627861829,"47":-0.00008533896435664227,"48":0.008250585156740611,"49":0.05941237481271444,"50":0.020344215353631106,"51":-0.08468786612347781,"52":0.028901607707231446,"53":-0.06471334681553445,"54":-0.028874229849656433,"55":-0.1340802181059906,"56":-0.004858880589620808,"57":-0.13703805745331116,"58":0.032169150601918495,"59":0.006269160649325276,"60":-0.15494130201421383,"61":-0.01236868924158004,"62":0.012161647985734066,"63":0.013588395809775768,"64":-0.07630602799480608,"65":0.024659700089280895,"66":-0.005626894763141968,"67":0.12059119599531535,"68":-0.02520806473997893,"69":-0.004660020765727253,"70":0.025252326783839093,"71":0.039473757554076935,"72":0.03447653757421324,"73":-0.012169955921423338,"74":0.06412848203838611,"75":-0.008023485355481665,"76":-0.003899126409507832,"77":0.02400232955818394,"78":-0.06181658883492173,"79":0.005107052735853956,"80":-0.06187868978061443,"81":-0.04995178159166208,"82":0.06420733127678728,"83":-0.015730055800322388,"84":0.04954751617803433,"85":-0.052085553120730564,"86":0.03786529975186681,"87":-0.05182678742918737,"88":0.026874089565593468,"89":0.001868768242807212,"90":-0.023256905423944478,"91":0.11326013817920156,"92":0.018019128411712722,"93":0.06116086740373577,"94":0.06318991356065727,"95":-0.027888719854787653,"96":-0.03609702006551288,"97":0.07193038536092031,"98":-0.0034140515428084856,"99":0.018064449398880643,"100":-0.06899762990739451,"101":-0.006053593061280485,"102":0.05686352992048208,"103":-0.014548699000245349,"104":0.02970170046859768,"105":0.04235491742462868,"106":0.07308658625317033,"107":0.034343685700071964,"108":-0.04404564081427782,"109":0.03324295380505236,"110":-0.04460658107157723,"111":0.08200659000473607,"112":0.0712613165392983,"113":0.06960620509701822,"114":-0.018128285436626905,"115":-0.0026285630004719263,"116":-0.016315811304739563,"117":-0.04737377719019835,"118":-0.04391867815721333,"119":0.05346240723994327,"120":-0.007824420755158831,"121":0.015404548478534835,"122":0.06262675348257884,"123":0.0596236196790521,"124":0.011871009401181076,"125":0.008140862470756578,"126":-0.0384718945512846,"127":0.03285061729575578,"128":-0.0001232563819131665,"129":-0.0029430634736387607,"130":-0.020124323299864702,"131":0.016610787557630558,"132":0.0600466795945544,"133":0.06579883946510666,"134":-0.05524443000437753,"135":0.012862430308314836,"136":-0.03528642254247107,"137":-0.027638581105369143,"138":-0.08058118151038013,"139":-0.041239021899884674,"140":0.009749327323257407,"141":0.03508972762076353,"142":-0.007275014963987048,"143":0.019865387856111097,"144":0.04494929077378778,"145":0.04662378118349455,"146":0.0038265970413680402,"147":0.043122130881626634,"148":0.0171410465649459,"149":-0.00009176827894900625,"150":0.0039102020955423455,"151":0.06605318256770523,"152":0.028171628564035662,"153":-0.04613374089627476,"154":0.05352754042605305,"155":0.042087707668597096,"156":-0.06704846350266111,"157":0.0018801848928614352,"158":0.047387279100539435,"159":-0.014645274813278574,"160":-0.05225688690740641,"161":0.01886824525709797,"162":-0.01573642536339912,"163":0.03335919305289003,"164":-0.0005487657424951228,"165":-0.061131130985278954,"166":0.03878521571198443,"167":-0.05336682257963777,"168":0.023472747949593506,"169":0.00749172623005973,"170":0.0767854915209273,"171":-0.009645958953880045,"172":0.04090310322436171,"173":0.035404676582761016,"174":-0.06033546539148385,"175":-0.016861142340989482,"176":-0.01558072780005911,"177":-0.003249967206605343,"178":0.10559302909825918,"179":-0.01836569444876159,"180":0.0023629789023033977,"181":-0.05399979818994987,"182":0.06506086402559088,"183":0.006242934841408238,"184":-0.008872912624549344,"185":0.04805717698301958,"186":-0.002234177949496933,"187":0.014919063966511839,"188":0.051347244135039535,"189":0.04712890580928756,"190":0.07799432195024805,"191":0.019663006349474803,"192":-0.03901977677263983,"193":0.0262400042536317,"194":-0.008769080759094796,"195":0.0056439382062674,"196":-0.0003080247958679568,"197":0.07890821347514427,"198":-0.009285255029323275,"199":-0.07295017464028015,